tree
version=v4
num_class=1
num_tree_per_iteration=1
label_index=0
max_feature_idx=116
objective=binary sigmoid:1
feature_names=log_t t_over_nhist cum_mean_z cum_mean_dev cum_logvar_ratio cum_skew cum_kurt cum_skew_diff cum_kurt_diff ewma_z_fast ewma_z_slow tail2_excess tail3_excess online_acf1 acf1_diff ks_stat ecdf_l1 below_hist_med_excess cusum_var_absmax cusum_var_absmax_n ph_mean ph_mean_n dvar_ratio_cum dvar_ratio_win dabs_ratio_cum cusum_absmax_k025 cusum_absmax_k025_n cusum_absmax_k05 cusum_absmax_k05_n cusum_absmax_k10 cusum_absmax_k10_n w25_mean_z w25_logvar w25_skew w25_kurt w25_ks w25_acf1_diff w25_l1 w25_nmz w25_nlv w25_nacf w25_nks w25_nl1 w50_mean_z w50_logvar w50_skew w50_kurt w50_ks w50_acf1_diff w50_l1 w50_nmz w50_nlv w50_nacf w50_nks w50_nl1 w100_mean_z w100_logvar w100_skew w100_kurt w100_ks w100_acf1_diff w100_l1 w100_nmz w100_nlv w100_nacf w100_nks w100_nl1 w200_mean_z w200_logvar w200_skew w200_kurt w200_ks w200_acf1_diff w200_l1 w200_nmz w200_nlv w200_nacf w200_nks w200_nl1 w400_mean_z w400_logvar w400_skew w400_kurt w400_ks w400_acf1_diff w400_l1 w400_nmz w400_nlv w400_nacf w400_nks w400_nl1 scan_nmz scan_nlv scan_nacf scan_nks scan_nl1 rm_scan_nmz rm_scan_nlv rm_scan_nacf rm_scan_nks rm_scan_nl1 pw_cusum_absmax_k025 pw_cusum_absmax_k025_n pw_cusum_absmax_k05 pw_cusum_absmax_k05_n pw_cusum_var_absmax pw_cusum_var_absmax_n pw_ewma_z pw_cum_mean_z pw_cum_logvar pw_acf1 acf1_h kurt_h null_smz64 null_slv64 null_sacf64 null_mem_slope
feature_infos=[0:6.9047508239746094] [0:0.97205591201782227] [-36.419296264648438:45.400802612304688] [-4.0904154777526855:3.491746187210083] [-27.632020950317383:4.5394353866577148] [-9.0617704391479492:20.753900527954102] [-1.9976813793182373:547.0517578125] [-69.016120910644531:25.404621124267578] [-4782.40478515625:546.938720703125] [-18.897451400756836:28.358081817626953] [-11.285308837890625:22.808021545410156] [-0.045499999076128006:0.95450001955032349] [-0.0027000000700354576:0.99730002880096436] [-1:1] [-1.9601897001266479:1.0758746862411499] [0.0090187592431902885:0.94999998807907104] [0.056615017354488373:9.5] [-0.5:0.5] [0:17489.021484375] [0:949.873291015625] [0.0080637186765670776:920.6370849609375] [0.0080637186765670776:45.400802612304688] [-9.5037517547607422:4.178255558013916] [-9.5037517547607422:5.3199901580810547] [0.057010319083929062:7.9415760040283203] [0:801.0794677734375] [0:40.838729858398438] [0:680.977783203125] [0:36.276657104492188] [0:501.73782348632812] [0:27.229318618774414] [-14.666685104370117:34.071701049804688] [-27.632020950317383:5.346001148223877] [-4.537625789642334:4.613189697265625] [-1.9976813793182373:19.554801940917969] [0.029999999329447746:0.94999998807907104] [-1.9601897001266479:1.1587830781936646] [0.0147368423640728:0.5] [-10.432184219360352:25.82887077331543] [-12.32830810546875:15.194316864013672] [-8.3930864334106445:8.5752887725830078] [-2.0959219932556152:6.7362351417541504] [-1.6505297422409058:8.652928352355957] [-20.071441650390625:27.272920608520508] [-27.632020950317383:4.739227294921875] [-6.3405075073242188:6.6832146644592285] [-1.9976813793182373:43.471755981445312] [0.019999999552965164:0.94999998807907104] [-1.9601897001266479:1.0758746862411499] [0.0084210522472858429:0.5] [-13.552493095397949:23.810699462890625] [-16.860940933227539:20.299150466918945] [-7.7284121513366699:26.261579513549805] [-2.0435142517089844:9.1317024230957031] [-1.7486581802368164:11.603152275085449] [-27.710336685180664:35.283843994140625] [-27.632020950317383:4.5394353866577148] [-8.3914680480957031:9.4178037643432617] [-1.9976813793182373:89.430816650390625] [0.01875000074505806:0.94999998807907104] [-1.9601897001266479:1.0758746862411499] [0.0057894736528396606:0.5] [-14.323705673217773:26.254812240600586] [-18.168037414550781:30.632596969604492] [-12.000192642211914:16.280454635620117] [-2.5823845863342285:12.07726001739502] [-2.3346865177154541:15.57506275177002] [-33.621353149414062:43.368007659912109] [-27.632020950317383:4.5394353866577148] [-9.8017940521240234:13.045253753662109] [-1.9976813793182373:176.77879333496094] [0.0099999997764825821:0.94999998807907104] [-1.9601897001266479:1.0758746862411499] [0.0039473683573305607:0.5] [-12.120919227600098:29.408695220947266] [-17.79893684387207:41.545303344726562] [-17.028118133544922:15.509370803833008] [-4.4140701293945312:18.071693420410156] [-3.6177310943603516:18.094705581665039] [-36.419296264648438:45.400802612304688] [-27.632020950317383:4.5394353866577148] [-9.1088390350341797:16.902603149414062] [-1.9976813793182373:316.92947387695312] [0.0099999997764825821:0.94999998807907104] [-1.9601897001266479:1.0758746862411499] [0.0035526314750313759:0.5] [-11.490579605102539:30.966110229492188] [-18.162759780883789:54.315177917480469] [-18.063854217529297:17.047943115234375] [-8.789738655090332:21.781059265136719] [-7.6429281234741211:28.024379730224609] [0:30.966110229492188] [0:54.315177917480469] [0:26.261579513549805] [0:21.781059265136719] [0:28.024379730224609] [0:44.790115356445312] [0:54.315177917480469] [0:34.737815856933594] [0:23.467130661010742] [0:28.636960983276367] [0:330.1849365234375] [0:17.868640899658203] [0:273.10678100585938] [0:13.354774475097656] [0:18674.642578125] [0:1014.2673950195312] [-11.358800888061523:25.124774932861328] [-18.304445266723633:22.382509231567383] [-13.725041389465332:4.5058846473693848] [-1:1] [-0.98020482063293457:0.9905402660369873] [-1.5601110458374023:4781.78955078125] [0.094582691788673401:7.387911319732666] [0.075311079621315002:1.7599741220474243] [0.0099999997764825821:0.47504070401191711] [-1.8279253244400024:1.3045296669006348]
tree_sizes=6891 7051 7058 7037 7043 7055 7063 7068 7061 7091 7069 7085 7064 7089 7059 7086 7078 7067 7051 7102 7079 7096 7070 7106 7109 7108 7118 7115 7081 7121 7117 7105 7135 7104 7130 7115 7099 7105 7118 7106 7113 7110 7108 7131 7152 7132 7120 7097 7087 7115 7112 7136 7103 7132 7107 7144 7135 7147 7117 7157 7145 7114 7109 7121 7114 7145 7122 7164 7152 7140 7110 7108 7140 7147 7088 7113 7108 7137 7138 7149 7145 7121 7143 7104 7116 7152 7162 7121 7119 7149 7153 7139 7180 7130 7158 7147 7123 7105 7161 7117 7148 7132 7154 7176 7108 7122 7099 7077 7144 7082 7119 7080 7157 7174 7145 7134 7119 7104 7106 7113 7120 7128 7128 7124 7168 7110 7143 7102 7125 7157 7161 7087 7173 7115 7102 7126 7123 7128 7150 7163 7096 7132 7160 7117 7097 7125 7167 7134 7107 7141 7133 7128 7103 7120 7183 7099 7134 7095 7121 7086 7067 7142 7130 7125 7111 7134 7080 7112 7069 7119 7133 7132 7106 7172 7146 7153 7151 7100 7073 7089 7120 7107 7120 7108 7151 7049 7106 7154 7150 7084 7036 7038 7097 7139 7141 7112 7103 7141 7154 7084 7113 7155 7095 7110 7128 7110 7119 7090 7072 7138 7112 7073 7061 7104 7126 7109 7084 7049 7148 7143 7134 7112 7114 7063

Tree=0
num_leaves=63
num_cat=0
split_feature=0 92 0 0 109 109 109 0 88 97 0 88 18 116 99 115 114 114 63 101 85 116 96 115 116 98 116 116 96 99 100 116 8 115 114 0 63 109 116 108 99 8 112 1 63 18 109 114 101 108 116 116 99 96 97 14 116 101 100 18 81 13
split_gain=206239 44396.6 27222 23067.1 11772.9 11530.6 6167.31 4566.41 3798.3 3335.48 3303.12 3295.7 3139.46 3220.06 3009.81 3176.56 2878.63 4124.79 2693.97 2662.16 2560.1 2501.76 2634.08 3160.67 2520.41 4124.59 2827.43 2407.71 2340.29 2352.17 2288.9 2277.96 2245.87 2879.66 2454.23 2240.72 2206.25 2174.77 2159.9 2152.15 2122.23 2028.15 2287.34 1988.36 1954.44 1942.99 2552.99 2781.13 1899.11 2439.24 1883.82 1837.71 1813.76 1796.11 2194.5 1786.95 1755.85 1868.66 1746.01 1682.41 1675.18 1668.21
threshold=5.5274410247802743 3.1918472051620488 4.6491756439208993 6.2412495613098153 0.058615706861019141 0.081746231764554991 0.16129401326179507 6.2547895908355722 -1.5622344613075254 2.0188608169555669 3.9981586933135991 4.1618382930755624 17.085037231445316 -0.12770936638116834 1.8672468662261965 0.058112254366278655 0.24191906303167346 0.36737513542175299 3.917427778244019 7.3956048488616952 0.025972682982683185 -0.99565184116363514 3.1455049514770512 0.14207813888788226 -0.1312126889824867 3.1598627567291264 -0.092197194695472703 -0.31763850152492518 3.694017887115479 5.1626510620117196 1.8079416751861574 -0.024609967134892937 -0.090687077492475496 0.12494929879903795 0.54313352704048168 5.1445789337158212 2.6696697473526005 0.21188692003488543 0.32781787216663366 0.58578553795814525 2.4000202417373662 0.15188069641590121 -0.031368823722004884 0.10216756910085679 -3.742575883865356 23.801151275634769 -1.0174619555473325 0.30104508996009832 8.9770374298095721 -1.5367611050605772 0.24339322745800021 -0.14396575093269345 2.800065398216248 4.8700382709503183 3.5833339691162114 -0.031449208036065095 0.0068988851271569738 7.741755723953248 3.0401276350021367 9.4605498313903826 0.052104329690337188 0.32902617752552038
decision_type=2 2 2 2 2 2 2 2 2 2 2 2 2 2 2 2 2 2 2 2 2 2 2 2 2 2 2 2 2 2 2 2 2 2 2 2 2 2 2 2 2 2 2 2 2 2 2 2 2 2 2 2 2 2 2 2 2 2 2 2 2 2
left_child=2 3 10 5 11 12 35 18 30 -7 -1 14 -2 -14 15 -5 20 50 44 -19 58 59 23 -23 27 26 -26 28 -24 -30 -6 41 -10 40 51 -4 -8 -11 48 -29 -34 -17 -43 -15 -3 56 -47 -48 49 -27 -18 -35 -50 55 -55 -42 57 -25 -9 -16 -58 -46
right_child=1 7 6 4 8 9 36 16 32 37 -12 -13 13 43 21 31 17 19 -20 -21 -22 22 24 45 25 38 -28 39 29 -31 -32 -33 33 34 -36 -37 -38 -39 -40 -41 53 42 -44 -45 61 46 47 -49 52 -51 -52 -53 -54 54 -56 -57 60 -59 -60 -61 -62 -63
leaf_value=-1.2005270927669274 -1.1669664381320224 -1.0859713104922286 -1.1829999174495283 -1.0765587637919833 -1.05767309483463 -1.1713647468773247 -1.1649002054266648 -1.130233216519013 -1.1410113886512399 -1.1469390697526021 -1.1901848272909807 -1.0601772358720369 -1.1670613943737029 -1.1613725762068636 -1.0894620800918111 -1.1652887924752537 -1.1391303819156939 -1.1553780054780278 -1.0893111719405251 -1.075907722094122 -1.0711838902119419 -1.157829027241815 -1.1580156063465694 -1.1003084527210232 -1.0986588617392341 -1.200869812162219 -1.1520249745015054 -1.150610120431427 -1.1155515184706515 -1.1745256499675896 -1.1114081425612976 -1.1265674411361193 -1.1132276850415317 -1.0901969170993016 -1.0546524229877789 -1.1746272335657308 -1.1359582171477018 -1.1310066137588137 -1.0445447796003995 -1.1810942025655871 -1.1085234010106904 -1.1915481123232887 -1.0862485531069064 -1.147144990829738 -1.1376744914199375 -1.0654517708433977 -1.118245906319447 -1.1736657019243575 -1.1514970500844754 -1.0711320709925471 -1.0629408995765535 -1.1259447055231533 -1.1130948649081693 -1.0463588779230288 -1.1535154560803311 -1.1620448011312821 -1.0856864170875973 -1.16069971400994 -1.0859789037044374 -1.1843684300688175 -1.13443112118002 -1.1058527861411089
leaf_weight=59598.011418987066 76323.140245418996 859.45297657698393 54610.668416887522 821.69163881242275 842.08798284828663 3594.2020048163831 19926.625965356827 1541.9780953601003 10818.365791015327 20419.459653552622 52079.977093737572 389.52121534571052 21360.983891908079 14149.540171734989 180.07524015009403 3411.3166019953787 3880.8603790663183 444.26318918541074 1696.4101453386247 2597.3628828674555 3966.858617477119 34003.75821852684 3107.7356073856354 637.56613801419735 1001.5094318725169 147.86170798167586 8286.4706398546696 6655.4375747032464 4010.7841823808849 717.57782200351357 4669.6640470027924 6556.6394990310073 2552.9623084142804 1891.7617940790951 683.54402960091829 60789.567631341517 2690.5768924541771 12388.804490361363 370.62604231387377 3034.7547702230513 662.04175055772066 256.3920130841434 672.99594686925411 23561.308825604618 9807.1531383059919 283.50011362507939 1121.0338192619383 2984.8245207965374 1810.9016217254102 1106.0619965009391 315.84418238699436 4097.7505664341152 2847.300585873425 332.57462349534035 356.25976445153356 3694.5919030234218 1393.4637042060494 1666.3468409404159 1672.844663284719 2529.1647613458335 1165.0282795801759 1746.7573869414628
leaf_count=338959 428945 4785 309844 4591 4645 20199 113281 8595 60685 114615 297643 2169 119953 79467 1008 19082 21778 2465 9481 14478 22026 190435 17522 3566 5571 822 46379 37304 22528 4023 26103 36633 14315 10511 3788 343444 15237 69657 2106 16991 3714 1434 3792 132517 55040 1610 6343 16655 10190 6188 1790 23011 15998 1844 1979 20585 7781 9371 9314 14111 6565 9764
internal_value=-1.16423 -1.14837 -1.18469 -1.15184 -1.14185 -1.15892 -1.17578 -1.11264 -1.12575 -1.14393 -1.1957 -1.14725 -1.16295 -1.15775 -1.14763 -1.13344 -1.10077 -1.11412 -1.12477 -1.08752 -1.08731 -1.14973 -1.14872 -1.1536 -1.14235 -1.13357 -1.14627 -1.15016 -1.13779 -1.1245 -1.1032 -1.13773 -1.1307 -1.12289 -1.10851 -1.17859 -1.16146 -1.14092 -1.1148 -1.16016 -1.13552 -1.15459 -1.1153 -1.15248 -1.12962 -1.13805 -1.15252 -1.15853 -1.1192 -1.08643 -1.1334 -1.11465 -1.12802 -1.14679 -1.10178 -1.15391 -1.12499 -1.14399 -1.10721 -1.17806 -1.10788 -1.13286
internal_weight=571795 322099 249695 293569 121772 171797 138017 28529.8 30601.6 36402.5 111678 91170.3 135395 59071.8 90780.8 11719 14420 7238.33 14109.8 3041.63 7181.68 79061.8 76352.5 43255.5 33097 15570.7 9287.98 17526.3 7836.1 4728.36 5511.75 10897.3 25089.9 14271.5 6673.06 115400 22617.2 32808.3 6282.75 9690.19 7598.43 4340.7 929.388 37710.8 12413.4 9251.76 4389.36 4105.86 5912.13 1253.92 4196.7 5989.51 4658.2 5045.47 688.834 4356.63 4862.4 2303.91 3214.82 2709.24 2558.49 11553.9
internal_count=3225225 1806817 1418408 1647301 681948 965353 781806 159516 171180 204471 636602 510768 760882 331937 508599 65532 80446 40511 79070 16943 39935 443067 427948 242326 185622 87254 51950 98368 44073 26551 30748 60941 140432 79747 37310 653288 128518 184272 35304 54295 42437 24308 5226 211984 69589 51891 24608 22998 33198 7010 23568 33522 26188 28122 3823 24299 27283 12937 17909 15119 14346 64804
is_linear=0
shrinkage=1


Tree=1
num_leaves=63
num_cat=0
split_feature=0 92 0 105 22 109 25 0 0 0 97 0 116 99 8 113 113 99 85 112 99 8 97 98 101 96 100 114 61 99 0 111 0 116 103 63 96 99 110 75 113 5 112 25 114 114 114 85 98 115 115 113 13 112 116 5 103 75 20 14 97 8
split_gain=194088 39412.1 28529 20530.8 9995.53 6258.46 5920.59 5555.79 5551.82 4607.63 3967.42 3799.14 3322.66 3288.5 3798.09 3541.64 3531.95 2865.92 2857.05 2698.91 2462.31 2680.19 2388.11 2376.29 2811.75 2499.98 3725.11 2358.74 2287.5 2285.3 2282.79 2200.45 2183.55 2176.47 2168.64 2164.69 2148.05 2140.85 1960.65 1918.69 1860.35 1742.41 1903.9 1758.05 1701.99 2829.51 4134.43 2652.46 2775.08 2126.43 1942.56 1880.38 1758.03 1686.34 1679.82 1659.98 1657.3 1640.74 1640.45 1812.47 1855.17 2828.6
threshold=5.56260108947754 3.0596140623092656 4.7050054073333749 16.276908874511722 0.060836914926767356 0.16628095507621768 5.0107944011688241 6.2998676300048837 6.1279597282409677 6.3071868419647226 4.4227480888366708 4.0517470836639413 -0.010316579602658747 2.467803001403809 -0.1305982246994972 1.5133538246154787 0.95168742537498485 2.6540687084198002 0.023421504534780983 -0.34796510636806482 1.8672468662261965 -0.1720953360199928 2.0298854112625127 3.0650650262832646 25.070606231689457 2.1492969989776616 1.6246607899665835 0.63606494665145885 0.13810728490352633 1.6927334070205691 6.3216667175292978 0.48131838440895086 5.2122108936309823 -0.68818891048431385 3.4583646059036259 2.6696697473526005 1.8402208089828493 2.0423415899276738 0.24442459642887118 -1.2955376505851743 2.2079465389251713 0.53937694430351268 607.59735107421886 5.3396520614624032 0.48416699469089514 0.24100673943758014 0.28932476043701177 0.026901359669864181 3.0950057506561284 0.12272635847330095 0.13911996781826022 0.98350736498832714 -0.053501810878515237 -0.12961576879024503 0.35449801385402685 -0.71805074810981739 3.4583646059036259 -0.35340832173824305 29.187868118286136 -0.0025039465399459 3.4649773836135869 -0.38559709489345545
decision_type=2 2 2 2 2 2 2 2 2 2 2 2 2 2 2 2 2 2 2 2 2 2 2 2 2 2 2 2 2 2 2 2 2 2 2 2 2 2 2 2 2 2 2 2 2 2 2 2 2 2 2 2 2 2 2 2 2 2 2 2 2 2
left_child=2 3 11 7 9 32 -3 55 22 20 27 -1 44 14 36 16 -16 -15 -9 -20 21 -5 -6 41 25 -25 -27 30 37 40 -8 33 -4 -28 -35 -7 -10 -14 -36 -39 -24 42 43 -11 45 47 51 48 -12 -48 -51 -47 -50 -19 -23 -2 -45 -58 59 60 61 -55
right_child=1 6 5 4 8 35 10 18 13 23 12 -13 28 17 15 -17 -18 53 19 -21 -22 54 29 24 -26 26 31 -29 -30 -31 -32 -33 -34 34 38 -37 -38 39 -40 -41 -42 -43 -44 56 -46 46 49 -49 52 50 -52 -53 -54 58 -56 -57 57 -59 -60 -61 -62 -63
leaf_value=-0.035600695948598299 0.056481319612901017 0.0012320165315761811 -0.017190296160486285 0.0057513720528117934 -0.0092610473388608262 0.0007289147960253447 0.025890947143815471 0.0067679526631859764 0.11197241708351081 -0.018519739364111484 0.08656941681293695 -0.024718693703337166 0.092033129517911316 0.0037583681149584835 0.077400242889901216 0.082983203963222091 0.028688027074763825 -0.004060552512954594 0.082109156180264695 0.021097965240684191 0.0035698721080200226 0.028904119890785854 0.030553971949657283 -0.014128430076516877 0.072290967512418758 0.091923262213821064 -0.013946409747842116 0.097670171911379236 0.090532512317434852 0.017483123984125694 0.052195481646748344 -0.00090911864997585796 -0.0089826365667345209 0.070987491831130206 0.026814059640481495 0.029013510719368203 0.022130902265553525 0.060208497121061799 0.1023525843125664 0.010883853901720975 0.078597103362402734 -0.011808640388763914 0.11869881062470833 0.091448687844320489 0.10926251400772569 -0.023400665389766422 0.10216519392223662 0.095342023879310664 0.082444007329168345 0.019556799818218212 0.081457323710374355 0.039091923783298912 0.0033582998679524429 0.0035144979274139318 0.093814185380173429 -0.0013068585878751881 0.0062259036514518045 0.024457458490518807 0.044026434583759946 0.003942441717220968 0.0058293541209050101 0.074887665783576376
leaf_weight=61696.550294071436 449.63692451268435 2356.0668124519289 58809.180298302323 6933.2913810387254 2518.2488545440137 19289.061103779823 7973.1940105594695 23737.289156343788 252.0197896361351 1285.6933466531336 1304.5335449837148 54275.229475129396 462.24340472370386 3417.202242154628 2006.4928791560233 3449.5157384797931 4030.6549410298467 987.27546191960573 690.33691696450114 11920.547836080194 39854.500268150121 5797.8499902896583 2888.2961542196572 1387.4849012978375 1184.7128558047116 776.78215637430549 998.75973447784781 577.67675575986505 678.63203687593341 20859.576289907098 4731.169895555824 2570.2933496460319 57886.1664897874 1171.3862188346684 13793.383497267962 2787.0873038880527 4827.280176717788 955.57949741184711 316.33966168016195 2759.27073328197 968.67541521042585 2215.6855227053165 161.89273671805859 270.68498311936855 871.59986053407192 769.87176757305861 1130.8319953680038 3669.0552156791091 345.41374055668712 933.39582889527082 892.62167081236839 991.34986092150211 945.23813368752599 721.76466440409422 382.49545678123832 88779.413388617337 7758.3297024965286 10394.877999167889 9587.9272696822882 2413.8406835012138 1107.8696358948946 1624.5660190954804
leaf_count=357722 2516 12871 336499 38960 14266 109546 44045 131953 1359 7101 7056 314075 2485 18915 11068 18687 22085 5454 3826 66233 222833 32450 16164 7723 6499 4224 5520 3210 3627 115908 25741 14172 328371 6447 76432 15536 26727 5225 1714 15079 5403 12283 865 1490 4672 4244 6155 19618 1868 5133 4839 5471 5116 3983 2140 498389 43145 57880 52647 13243 6098 8983
internal_value=-2.95461e-05 0.0156456 -0.0195257 0.0120778 0.0192419 -0.0103479 0.0470239 0.00301176 0.0286909 0.013251 0.0506212 -0.0305079 0.0603492 0.0366976 0.0475243 0.0587337 0.0448779 0.028757 0.0128985 0.0244378 0.00728016 0.0185563 0.0185701 0.0203923 0.0273239 0.0247889 0.0275401 0.0383827 0.0394473 0.0214057 0.0356869 0.0248869 -0.0131189 0.0289597 0.031764 0.00429981 0.0265886 0.0311478 0.0285076 0.0235717 0.04262 0.0134255 0.0162391 0.0153975 0.0689112 0.0657088 0.0481626 0.0789241 0.0557125 0.0698367 0.049816 0.0117749 0.0245238 0.0339522 0.0329213 -0.00101566 0.0177644 0.0166656 0.0363803 0.0238872 0.0378249 0.0529323
internal_weight=571584 316841 254743 284493 158916 138771 32347.7 125577 61661.2 97254.4 29991.7 115972 16709.6 34426.4 14566 9486.66 6037.15 19860.4 36348.2 12610.9 52968.1 13113.6 27234.8 44286.3 22199.1 21014.4 19626.9 13282 4855.73 24716.5 12704.4 18850.2 116695 16279.9 15281.1 22076.1 5079.3 4177.09 14109.7 3714.85 3856.97 22087.2 19871.5 19709.6 11853.9 10982.3 4718.07 6264.24 2595.19 2956.85 1826.02 1761.22 1290.65 16443.2 6180.35 89229.1 18423.9 18153.2 15456 5868.04 3454.2 2346.33
internal_count=3223989 1762240 1461749 1585785 882868 789952 176455 702917 340990 541878 163584 671797 90588 189249 79926 51840 33153 109323 202012 70059 296383 73550 151741 245495 122731 116232 108509 72996 26416 137475 69786 104285 664870 90113 84593 125082 28086 22789 78146 20304 21567 122764 110481 109616 64172 59500 25842 33658 14040 16127 9972 9715 6984 90408 34590 500905 102515 101025 84954 32307 19064 12966
is_linear=0
shrinkage=0.03


Tree=2
num_leaves=63
num_cat=0
split_feature=0 92 0 105 22 0 0 105 25 0 97 8 113 116 63 85 80 0 112 97 99 103 98 97 72 22 4 116 81 115 97 114 99 0 22 114 82 111 100 111 116 116 13 112 112 81 13 116 1 8 98 5 112 115 16 0 109 103 98 111 112 86
split_gain=183799 37058.8 24680.5 20450.6 9341.88 5869.77 5812.15 5392.19 5092.31 4660.77 3371.5 3063.07 4071.56 2833.02 2733.32 2660.46 2513.98 2425.77 2419.64 2299.45 2240.69 2361.07 2149.28 2215.71 2187.8 2398.18 2119.38 2107.81 2063.39 2060.2 2492.89 2039.06 2002.58 1986.55 1986.11 1858.49 2094.55 1977.05 1945.67 2136.16 1812.6 1799.76 1835.79 2326.85 1776.77 1733.7 1712.64 1705.12 2038.73 1716.14 1674.92 1656.24 1697.28 1638.77 2790.65 1632.98 1579.95 1575.52 1560.43 1553.35 1549.46 1546.75
threshold=5.5032949447631845 3.1240997314453129 4.5591125488281259 16.276908874511722 0.05598698370158673 6.1081352233886728 6.2775824069976816 16.403944015502933 5.0107944011688241 6.2700424194335946 4.4227480888366708 -0.095725025981664644 1.5903612971305849 -0.010316579602658747 2.0335947275161748 0.023421504534780983 0.63577407598495495 3.9415346384048466 -0.34796510636806482 2.0298854112625127 2.4329684972763066 14.83693313598633 3.0650650262832646 2.216675996780396 0.18320966511964801 -0.57865452766418446 -0.035571493208408349 -0.1256790682673454 0.22703215479850772 0.1209220550954342 2.729289293289185 0.63606494665145885 1.6927334070205691 6.3216667175292978 -0.32733665406703943 0.27021518349647528 0.54196718335151683 -0.029519661329686638 3.1352225542068486 0.46036247909069067 0.32781787216663366 -0.68818891048431385 0.07424726709723474 0.47595176100730902 2.2703226804733281 0.34131349623203283 -0.1117633394896984 0.018646190874278549 0.43303096294403082 0.094399288296699538 3.126675128936768 0.53937694430351268 607.59735107421886 0.14278776198625567 0.18923421949148181 5.0336952209472665 0.14798913151025775 6.7950668334960946 2.0358411073684697 0.030165350995957855 0.61730772256851207 -0.78284725546836842
decision_type=2 2 2 2 2 2 2 2 2 2 2 2 2 2 2 2 2 2 2 2 2 2 2 2 2 2 2 2 2 2 2 2 2 2 2 2 2 2 2 2 2 2 2 2 2 2 2 2 2 2 2 2 2 2 2 2 2 2 2 2 2 2
left_child=2 3 17 6 9 19 -2 55 45 27 31 26 16 -12 -9 53 29 -1 -17 -6 -14 -22 51 34 25 -25 -7 -5 -15 30 50 33 40 -10 -24 38 58 -38 39 46 -21 -27 47 61 -31 -3 -28 48 49 -43 -13 52 -11 -8 -55 -4 -34 -51 -37 -56 -42 -44
right_child=1 8 7 4 5 11 15 14 10 22 13 12 20 28 -16 18 -18 -19 -20 32 21 -23 23 24 -26 41 35 -29 -30 44 -32 -33 56 -35 -36 36 37 -39 -40 -41 60 42 43 -45 -46 -47 -48 -49 -50 57 -52 -53 -54 54 59 -57 -58 -59 -60 -61 -62 -63
leaf_value=-0.035782630934421251 -0.0016067281681053913 -0.0049915961049862689 -0.020395640680317354 -0.0018713433801673019 -0.0089962373464163234 0.068779101042762789 0.0035319113807586004 -0.0062570305708691413 0.024655424434333321 0.01460982237176315 0.064751326304125667 0.011049590457318218 0.079247749165884576 0.051373064045271144 0.015520162336713484 0.073954446566251109 0.10091453702418712 -0.026349330473491583 0.019645009170427503 0.029479541571408367 0.004368089195450728 0.10295645850346923 0.0083291593014014169 -0.021134067586714052 0.072550864716548313 -0.015289799158124047 0.064722623444786992 0.010716204709348916 0.0099922430575933013 0.03627952549972354 0.013406548066348691 0.092976584822320255 0.0069056763119748369 0.050008720806366196 0.073309524239800652 0.093922473447758684 -0.011680106384624975 0.040297556265390735 0.064152531876550428 0.10028888571690434 0.10459446576318134 0.0028192759315549495 0.049154780525880709 -0.016711172799663079 0.069212399904452021 0.097992542038275982 -0.0028387888999174228 0.048905448416894814 0.055894672218288387 0.054145482585482518 0.078010216398383334 -0.010816955596528913 0.10683977099157294 0.083048392146680597 -0.01221601690308226 -0.012493489618141156 0.022928960404076625 0.0092315086850203957 0.0019505880030969709 0.035491219473213396 -0.0015554525941981468 0.01295178934951661
leaf_weight=54190.471432905644 94355.788302056491 2139.7772666141391 41976.425403829664 19038.850588768721 2808.7038887999952 920.65687035769224 22317.832374382764 38580.267218511552 7556.1841590888798 21498.043014425784 12299.563990801573 498.8299890011549 3426.1304943747818 3312.4343412928283 5992.9009441845119 782.58499030023813 510.07989163696766 44829.695446029305 13051.87082869187 3716.7218051292002 826.85568943992257 297.20914087444544 589.72753346711397 1159.0654734671116 762.14909346029162 1032.2345446944237 426.06715635582805 32258.791236847639 1612.3889344148338 7254.2184282317758 6178.0178492702544 551.7290557064116 9874.1162197999656 4401.760550443083 1500.3538645617664 170.5819940418005 800.31684344261885 3719.533516548574 1664.7879460938275 274.45089064538479 565.55995059758425 3443.0122229717672 1484.9167050160468 1750.7837283685803 1850.5002081431448 157.98383587226272 1627.8657059632242 3886.1851669065654 1509.4635348394513 1590.1940725818276 1031.2134836912155 2413.8211925365031 181.09042231738567 632.31236875802279 1191.1638665571809 53575.806565072387 12612.976678226143 1259.7741604298353 6216.6605836041272 1268.246319334954 158.42975096404552 3730.2826816849411
leaf_count=320139 530510 11668 243294 106504 15973 4930 123720 220970 41241 118629 64417 2714 17873 17620 33853 4165 2671 263833 71753 20438 4433 1595 3193 6433 4077 5727 2281 179837 8650 39153 33582 2921 54810 23304 8049 932 4327 20246 9015 1454 3052 18902 8065 9587 10017 864 8951 21161 8216 8583 5538 13459 925 3520 6576 306611 69358 6881 33955 7028 871 20453
internal_value=6.74051e-06 0.0144453 -0.0200471 0.0111716 0.0181861 0.0267998 0.00242869 -0.0119455 0.0451183 0.0123244 0.0484434 0.0346615 0.0419347 0.0570525 -0.00332907 0.0121312 0.035301 -0.0315119 0.0227172 0.0168344 0.0671893 0.0304354 0.0190653 0.0254801 0.0226271 0.0208018 0.024606 0.0060444 0.037825 0.0333104 0.0218969 0.0365897 0.0195287 0.0339881 0.054975 0.0218766 0.0154659 0.031094 0.0393872 0.02168 0.0379388 0.0232708 0.0254045 0.0132138 0.042973 0.00208914 0.0111761 0.0326698 0.0245832 0.0170727 0.0561795 0.0127556 0.0153802 0.00636758 0.0268371 -0.0159649 0.0158931 0.0342921 0.00440685 0.0123852 0.0813658 0.0232598
internal_weight=571296 332151 239146 300119 166519 67430.5 133600 140125 32031.8 99088.7 29734.1 37694 21873.1 17224.4 44573.2 39244 17322.9 99020.2 13834.5 29736.5 4550.2 1124.06 47791.1 23698.1 21608.1 20845.9 15820.9 51297.6 4924.82 16812.8 7708.06 12509.7 26927.8 11957.9 2090.08 14900.3 10907.1 4519.85 3993.17 2328.38 4440.71 19686.8 18654.6 6965.98 9104.72 2297.76 2053.93 11688.6 7802.44 6292.98 1530.04 24093 21679.1 25409.6 3091.72 95552.2 22487.1 2849.97 6387.24 2459.41 723.99 5215.2
internal_count=3223507 1834807 1388700 1664122 916850 368169 747272 804728 170685 548681 158153 203667 117576 90687 254823 216762 93675 583972 75918 164502 23901 6028 262340 129327 118085 114008 86091 286341 26270 91004 41834 67466 148529 64545 11242 81161 59460 24573 21701 12686 24361 107575 101848 38105 49170 12532 11232 63743 42582 34366 8252 133013 119554 140844 17124 549905 124168 15464 34887 13604 3923 28518
is_linear=0
shrinkage=0.03


Tree=3
num_leaves=63
num_cat=0
split_feature=0 92 0 0 22 109 25 105 88 0 97 4 0 92 114 101 99 97 0 114 61 113 113 27 112 114 116 114 111 75 101 115 99 24 29 103 116 29 94 114 116 15 27 5 103 56 115 115 116 105 113 100 99 100 116 18 27 82 116 81 114 0
split_gain=173145 34209.4 22294.6 19629.8 9329.16 8986.37 5052.7 4722.74 3798.87 3295.06 2826.87 2771.98 2732.42 2503.01 2447.83 2826.53 3023.18 2396.91 2201.57 2072.2 2753.19 1959.64 1946.67 2317.76 1873.88 1793.6 1799.07 1754.89 1713.32 1709.19 1677.41 1967.3 1715.14 1659.67 2954.48 1948.35 1911.41 1651.25 1637.84 1611.99 1664.74 1605.18 1885.76 1604.36 1790.53 1600.41 1581.87 1749.99 1564.4 2722.43 1670.92 1641.74 1909.75 1698 2378.84 1749.01 2547.06 1557.8 1552.49 1531.59 1526.49 1513.87
threshold=5.4659459590911874 3.0596140623092656 4.5271940231323251 6.2116029262542733 0.083962261676788344 0.081746231764554991 5.0107944011688241 16.403944015502933 4.1618382930755624 6.1664671897888192 2.0188608169555669 -0.0112545033916831 5.7975752353668222 2.7337160110473637 0.22719353437423709 19.0609884262085 1.8672468662261965 1.8947515487670901 3.8815106153488164 0.19287641346454623 0.13056303560733798 1.3268051743507387 2.43333911895752 18.956934928894047 6.3835914134979257 0.24191906303167346 0.25616896152496343 0.22788490355014804 -0.82507318258285511 1.8602374196052553 4.5314564704895028 0.118071086704731 1.8533091545104983 1.1228160262107851 5.3243441581726083 7.7816102504730233 0.30713538825511938 12.816079616546633 1.1458295583724978 0.3345715999603272 0.078778136521577849 0.046893531456589706 10.70443105697632 0.052239961922168739 11.027735233306887 1.8040028214454653 0.12272635847330095 0.13306897878646853 0.17313154041767123 20.553276062011722 3.8921271562576298 2.1992018222808842 2.5259656906127934 3.7746658325195317 -0.059307208284735673 39.787237167358406 10.138995170593263 -1.0850754976272581 0.099554926156997695 0.34131349623203283 0.290346309542656 5.0139575004577646
decision_type=2 2 2 2 2 2 2 2 2 2 2 2 2 2 2 2 2 2 2 2 2 2 2 2 2 2 2 2 2 2 2 2 2 2 2 2 2 2 2 2 2 2 2 2 2 2 2 2 2 2 2 2 2 2 2 2 2 2 2 2 2 2
left_child=2 3 18 5 8 12 59 61 14 45 28 -6 -2 -9 29 16 30 -13 -1 -11 24 -17 -14 -24 25 41 39 -18 -7 38 31 -16 -32 37 36 -36 -35 -12 -5 -27 46 42 -21 44 -23 -8 -41 -48 51 -50 -51 52 58 -53 55 -55 -57 -40 -19 -3 -46 -4
right_child=1 6 7 4 11 10 9 13 -10 19 33 17 22 -15 15 21 27 48 -20 20 -22 43 23 -25 -26 26 -28 -29 -30 -31 32 -33 -34 34 35 -37 -38 -39 57 40 -42 -43 -44 -45 60 -47 47 -49 49 50 -52 53 -54 54 -56 56 -58 -59 -60 -61 -62 -63
leaf_value=-0.03571303587574897 -0.0049862791698212783 -0.0057169831419644846 -0.020389630522263901 0.0012506024585049889 0.068407487795978869 0.12186724789451119 0.030664352516306583 -0.0067755083526905803 0.09041485245635493 0.069747053136929513 0.016917461052951641 -0.021302325901313198 0.0026599518071978596 0.015573931389704478 0.096778451340072638 0.059996659906844399 0.07968584077392174 0.063212448257831969 -0.026532174601061356 0.017717366202005411 0.084545260324400004 0.10144987096559407 0.063399830280806591 0.0097087020974938008 0.076027198832977108 0.01183081417144274 0.090010560821801408 0.012620710831898562 -0.010367595982258926 0.044895252987073239 0.023864988415746361 0.0016831789632592361 0.080304673990811481 0.0071099363934677565 0.081585793406687326 0.035464048416391669 0.083158010854941164 -0.015860282608035004 0.083072354643978982 0.098248852661996983 -0.0053651535752370968 0.069109471253567548 0.080166089973784035 0.0013046889263856969 -0.019651600592820954 0.074007608874080838 -0.0077439584343561045 0.061679755225162759 -0.013889860371292752 0.071436999404213233 -0.010345646431260997 0.02171834122887225 0.00030650904174884917 0.08004953043174888 -0.00024105935997128638 -0.00677543520722859 0.06752055260194112 0.013392930047909047 0.0060287186181988226 0.088540198991425817 0.057125866210312209 -0.012682099654658243
leaf_weight=50140.531411916018 55420.912675328553 2338.9474935419858 41915.01394751668 20175.752588171512 1976.4138893485069 90.244178131222725 12531.282609347254 36783.342979930341 594.60730989649892 4821.7348928935826 21166.969974841923 749.43491080403328 79125.91514345631 5140.1711087040603 671.81406202539802 2257.2692931219935 353.5080025754869 3167.9157964363694 44256.451180897653 1654.2379600219429 1565.6715231873095 381.1325935088098 1028.2289829142392 2442.5577806085348 1334.1749883294106 3706.9091233983636 400.96381690725684 52743.464714668691 3862.4495211914182 1080.9638228900731 8446.3680390901864 276.32224681973457 514.0819133669138 4754.182412199676 978.40690504387021 5234.4099820293486 317.30710126459599 1479.9517080523074 295.68156024441123 554.26570975407958 514.89740186184645 2495.6615876331925 590.55254321545362 1504.4604956842959 405.05218170583248 816.67519388720393 487.10550755634904 992.87375849112868 471.96566365659237 2504.8760399781168 247.01300092414021 14557.501037079841 666.99904472380877 1452.2729287222028 866.36189651861787 735.90074381604791 953.21387182548642 12344.785338450223 493.91332449764013 166.17480778321624 548.87380461767316 50649.462057352066
leaf_count=301835 312885 12810 245779 111089 10147 500 66646 211589 3078 24450 116284 4084 442399 28698 3482 12167 1945 16603 264710 8594 7918 2061 5678 13483 6788 19632 2078 288911 21912 5855 45800 1527 2754 25842 5329 28264 1699 8129 1558 2823 2694 12636 3049 8078 2145 4159 2608 5152 2541 13185 1312 77820 3618 7671 4654 3954 5006 67550 2641 869 2946 292100
internal_value=-3.37526e-05 0.0134724 -0.020233 0.0102732 0.0190442 0.0037194 0.0415869 -0.0123888 0.0148063 0.0447544 0.0166619 0.0341178 0.000166867 -0.00403528 0.0143655 0.0176443 0.015906 0.0315954 -0.0314087 0.05274 0.0470044 0.0391329 0.00362454 0.0256148 0.0423878 0.03845 0.0284074 0.0130672 -0.00734853 0.00777816 0.0311183 0.0690641 0.0271031 0.0194589 0.0288583 0.0427274 0.011868 0.0147755 0.00655553 0.0244591 0.0428229 0.052553 0.0341462 0.0225474 0.0464855 0.0333162 0.0550199 0.0388303 0.0331132 0.0526791 0.0640961 0.030358 0.0469951 0.0264788 0.0437703 0.0559082 0.0351518 0.0150228 0.0554994 0.000535474 0.0245249 -0.0161722
internal_weight=571197 342312 228885 307339 131438 175902 34972.1 134488 102594 32467 37883.9 28843.8 138018 41923.5 102000 68102.3 63005.6 26867.4 94397 19119 14297.3 5096.79 82596.7 3470.79 12731.6 11397.5 6657.02 53097 3952.69 33897.2 9908.59 948.136 8960.45 33931.2 11284.3 6212.82 5071.49 22646.9 32816.2 6256.05 2549.14 4740.45 2244.79 2839.52 1335.06 13348 2034.24 1479.98 26117.9 3223.85 2751.89 22894.1 4328.83 18565.3 4007.75 3141.39 1689.11 12640.5 3661.83 2505.12 953.926 92564.5
internal_count=3224203 1879492 1344711 1696586 714182 982404 182906 778166 560946 169227 207959 153236 774445 240287 557868 371816 344419 143089 566545 98422 73972 27397 461560 19161 66054 59266 34987 290856 22412 186052 53563 5009 48554 185547 61134 33593 27541 124413 180197 32909 13277 24279 11643 15230 7152 70805 10583 7760 139005 17038 14497 121967 22862 99105 21285 16631 8960 69108 19244 13679 5091 537879
is_linear=0
shrinkage=0.03


Tree=4
num_leaves=63
num_cat=0
split_feature=0 109 0 0 0 87 63 105 63 63 98 116 0 8 103 97 27 112 115 0 88 20 96 63 14 96 98 14 115 97 116 100 115 100 99 8 116 27 18 116 112 13 99 29 96 98 27 105 100 100 29 99 110 115 99 112 115 116 116 105 18 112
split_gain=163501 28433.9 20215.4 17834.5 9149.83 7749.94 4226.65 4149.16 3976.87 3367.84 3128.55 2911.6 2711.34 2548.41 2558.67 2448.98 2401.31 2963.92 2252.42 2218.46 2206.85 2231.24 2127.33 2113.45 2067.08 1912.06 2013.4 1844.89 1881.1 1809.42 1806.88 2412 1769.53 2173.19 2112.37 1741.53 1689.49 2571.31 1634.8 1605.89 1599.68 1583.69 1582.36 1973.66 2093.63 1984.07 1763.58 1731.31 1673.1 1663.04 1549.86 1548.39 1536.43 1531.79 1526.64 2115.84 1868.45 1517.31 2493.01 1483.18 1478.28 1461.03
threshold=5.427147865295411 0.081746231764554991 4.5271940231323251 6.1664671897888192 6.1473989486694345 -3.2778708934783931 2.53630542755127 16.403944015502933 -2.7973184585571285 2.0335947275161748 5.2143888473510751 -0.12770936638116834 5.8066387176513681 0.17447459697723391 4.9466505050659189 2.0188608169555669 5.9304425716400155 0.019200682640075687 0.13437657803297046 3.8815106153488164 3.4558389186859135 29.468708992004398 2.4576609134674077 2.4300732612609868 0.10978042334318162 3.1656483411788945 3.1598627567291264 -0.040249696001410477 0.14668975025415423 1.8947515487670901 -0.6621919274330138 3.0620466470718388 0.071459237486124053 3.0961384773254399 2.7878538370132451 0.27626517415046697 -0.092197194695472703 5.7726612091064462 133.10133361816409 -0.61563718318939198 6.014585256576539 -0.38021972775459284 1.8672468662261965 3.5211766958236699 1.8104562759399416 3.871383905410767 6.188225746154786 45.049415588378913 1.5588994026184084 3.258437037467957 2.6876688003540044 1.844423294067383 -0.1617787107825279 0.18857067078351977 1.5153495073318484 -0.1344911381602287 0.15943270176649096 -0.99565184116363514 -0.27820481359958643 116.64469528198244 26.895731925964359 64.399768829345717
decision_type=2 2 2 2 2 2 2 2 2 2 2 2 2 2 2 2 2 2 2 2 2 2 2 2 2 2 2 2 2 2 2 2 2 2 2 2 2 2 2 2 2 2 2 2 2 2 2 2 2 2 2 2 2 2 2 2 2 2 2 2 2 2
left_child=2 3 19 8 6 16 15 -4 -2 20 11 18 -10 25 -15 39 17 -5 32 -1 21 30 -23 -9 52 42 36 -20 -29 -24 31 -6 33 57 50 -19 37 -27 60 -3 -8 -28 43 45 -45 46 51 -46 -49 -44 61 -13 -12 -16 -17 59 -57 -7 -59 -56 -38 -34
right_child=1 4 7 5 9 10 40 23 12 -11 24 13 -14 14 53 54 -18 35 27 -21 -22 22 29 -25 -26 26 41 28 -30 -31 -32 -33 34 -35 -36 -37 38 -39 -40 -41 -42 -43 49 44 47 -47 -48 48 -50 -51 -52 -53 -54 -55 55 56 -58 58 -60 -61 -62 -63
leaf_value=-0.03537162661341646 0.038971462044978131 0.052542994541403258 -0.01618433117767204 0.074761955857333889 0.0163921978155218 -0.025034629021128758 0.036897161609170177 -0.006542168722760258 -0.0047781156309562095 0.052884081493095092 0.077515081314595904 0.015742957441866018 0.0036526880438567037 0.058051338142755905 0.025561790701773803 0.03860718094603826 0.075387653429870694 0.0022920609480229729 0.044429647104764942 -0.026074614444035561 0.092567021901049262 0.069857731339865489 -0.020154311779441922 0.018380666828092102 0.10431009005824268 -0.021467857929544653 0.075545008446753104 0.030090735477664873 0.00026938593943512054 0.036577855978713734 0.016839895361458503 0.085168135961908614 -0.019465247834187491 -0.016696976777746196 0.0098526679553485059 0.074026843243773649 0.01897663849505437 0.086227396343032406 0.10650561698546453 -0.01337347019863633 0.087333116848625492 0.031238690362656637 0.0064481169062256555 0.095082759975269909 -0.0053124627590133613 0.087035248297744061 0.076911702993873385 -0.038773840265321755 0.078267796679042573 0.032516263800659299 0.00173091174813389 0.096354863085182346 0.022795822121770299 -0.028774177582229592 -0.017999019397186521 0.020313484103573969 -0.0021631186109078927 0.070741035941220859 0.0088006147844478244 0.074982922823336878 -0.0071957019370041623 0.07440129066762409
leaf_weight=49196.189945634454 2368.4405476637185 365.5419129692018 87060.581256873906 1104.6787691302598 965.12888520956039 313.34570657089353 4783.6061593703926 35458.316151250154 63701.870219636708 9769.3815889023244 581.20093824714422 3471.3935261107981 74460.539287917316 2280.8010597936809 10768.27599446848 2753.5148953385651 2180.6581123918295 1804.4894492439926 2191.5486251376569 43546.912101242691 547.15239907801151 1720.2862574569881 520.72690538316965 3351.6950237639248 434.55275675654411 286.97144269943237 855.52981482073665 3371.4728433042765 4372.8481504917145 17850.345865756273 10375.973118256778 875.00920700281858 6338.9428010769188 900.03284821286798 14505.626949090511 366.44304140284657 5218.4701207391918 654.80822641402483 158.47114358842373 3695.328528445214 641.92210547998548 4798.3844536431134 30898.276423376054 233.34151455387473 3518.9111186861992 590.10000186040998 581.7838574051857 145.11137498542666 453.27947778627276 2371.6048678904772 9579.5078180246055 228.56864593178034 2248.4393669851124 488.11275921016932 2256.0684993676841 26598.688874963671 3804.7505608722568 1414.8567238710821 996.85155564919114 165.7395528331399 3093.783523388207 152.83666589483619
leaf_count=302219 12437 2064 510759 5495 5155 1717 24877 204646 360847 49588 2938 18827 414631 12296 57826 14839 10808 9322 11766 264362 2790 8550 2862 18519 2212 1512 4552 18344 23936 92646 54922 4388 34874 4885 79105 1855 28478 3456 837 21074 3324 25514 168530 1181 18908 3100 3109 775 2437 13032 52359 1218 12056 2632 12279 144278 20561 7574 5424 894 16791 813
internal_value=6.10809e-07 0.012651 -0.0203784 0.00774266 0.0274553 0.0160375 0.0180307 -0.0125477 0.000426297 0.0374196 0.0144278 0.0136074 -0.000234462 0.0173647 0.0290766 0.0146317 0.0509955 0.034757 0.00755518 -0.0310063 0.0328213 0.0318094 0.037957 -0.00438979 0.0433905 0.0146102 0.0237929 0.0201289 0.013252 0.0349698 0.0216987 0.049096 0.00390245 0.0237205 0.00155289 0.0144005 0.0152932 0.0534114 0.0110552 -0.00743996 0.0428645 0.037943 0.0113544 0.02235 0.007664 0.0354648 0.0283575 0.00270968 0.0498849 0.00830635 -0.00593833 0.0207228 0.034035 0.0232056 0.0171509 0.0153511 0.0175007 0.0370697 0.0451387 -0.0116357 0.00923541 -0.0172553
internal_weight=570788 352174 218614 264485 87689.2 123954 45065.2 125871 140531 42624 118498 115234 138162 71096 13537.2 39639.6 5456.27 3275.61 44137.9 92743.1 32854.6 32307.5 20091.4 38810 3264.19 57558.8 15066.4 9935.87 7744.32 18371.1 12216.1 1840.14 34202 3625.09 30576.9 2170.93 9412.5 941.78 8470.72 4060.87 5425.53 5653.91 42492.4 9222.49 4350.64 4871.85 4281.75 4117.3 598.391 33269.9 16071.3 3699.96 2829.64 11256.4 35578.8 32825.2 30403.4 2725.05 2411.71 2421.81 8312.25 6491.78
internal_count=3224005 1923500 1300505 1458409 465091 670494 244190 733924 787915 220901 643014 625808 775478 385011 72754 215989 27480 16672 240797 566581 171313 168523 104058 223165 17206 312257 81140 54046 42280 95508 64465 9543 186751 19600 167151 11177 51074 4968 46106 23138 28201 30066 231117 49555 23301 26254 23154 22120 3212 181562 88046 20045 14994 60458 192851 178012 164839 14715 12998 13173 45269 35687
is_linear=0
shrinkage=0.03


Tree=5
num_leaves=63
num_cat=0
split_feature=0 92 0 0 105 22 27 109 105 116 88 78 92 8 113 116 116 98 103 116 97 116 116 113 29 92 0 11 11 75 51 112 97 112 100 100 103 113 98 112 18 98 98 113 116 110 8 25 8 0 103 29 116 98 97 106 5 116 0 5 77 18
split_gain=155070 30547.8 18855.9 18661.8 8538.29 7643 4540.11 3821.82 3818.56 3188.9 3112.88 2967.19 2561.5 2291.53 2683.84 2279.08 2126.46 2168.62 2471.66 2171.82 2589.35 2749.12 2399.95 3025.56 2828.33 2001.53 1961.41 1958.5 1933.27 1782.36 2222.39 1758.83 1743.8 1730.99 1725.91 1721.98 1718.63 1709.64 1705.9 1699.64 2592.25 1815.3 1688.41 1623.9 1586.66 1571.5 1526.77 1963.42 1521.56 1508.85 1502.83 1604.67 1499.2 1467.12 1920.45 1857.5 1533.95 1473.8 1407.72 1471.53 1381.61 1377.67
threshold=5.4004201889038095 3.0596140623092656 6.2255475521087655 4.49422311782837 16.181350708007816 0.086649645119905486 4.222198724746705 0.074535433202981963 16.403944015502933 0.29857268929481512 4.1618382930755624 3.6986582279205327 4.1966106891632089 -0.065927859395742403 1.5903612971305849 -0.010316579602658747 -0.99565184116363514 3.0650650262832646 14.328231334686281 -0.33796507120132441 2.7556264400482182 -0.42096318304538721 -0.12770936638116834 1.0043403506278994 11.002909660339357 2.7337160110473637 3.8815106153488164 0.0029607533942908053 -0.044976986944675439 -2.6735229492187496 3.4989258050918584 2.1925292015075688 1.8947515487670901 -0.011561885010451077 2.1724370718002324 2.1149287223815922 8.6034159660339373 0.91642978787422191 6.306326389312745 0.21176086366176608 26.895731925964359 5.2143888473510751 3.0157861709594731 1.1718693375587466 -0.12770936638116834 -0.14611418545246121 1.884271025657654 15.76424551010132 -14.93263006210327 6.2924942970275888 4.9893198013305673 4.3115000724792489 0.27419660985469824 2.9636769294738774 3.0865781307220463 17.187307357788089 4.2391262054443368 -1.1861704587936399 5.7698810100555429 -0.71805074810981739 2.3795416355133061 9.4605498313903826
decision_type=2 2 2 2 2 2 2 2 2 2 2 2 2 2 2 2 2 2 2 2 2 2 2 2 2 2 2 2 2 2 2 2 2 2 2 2 2 2 2 2 2 2 2 2 2 2 2 2 2 2 2 2 2 2 2 2 2 2 2 2 2 2
left_child=3 2 4 26 58 10 11 9 -5 44 16 33 49 27 39 -14 61 42 19 20 50 -22 24 34 45 -10 -1 43 -13 -17 36 -20 -29 37 48 -16 -31 60 -25 40 -15 46 -18 -7 -6 -21 47 -41 -24 -8 -19 -52 -50 54 57 -55 -56 -9 -2 -60 -3 -4
right_child=1 6 5 8 7 13 12 53 25 -11 -12 28 15 14 35 29 17 18 31 22 21 -23 23 38 -26 -27 -28 32 -30 30 -32 -33 -34 -35 -36 -37 -38 -39 -40 41 -42 -43 -44 -45 -46 -47 -48 -49 52 -51 51 -53 -54 55 56 -57 -58 -59 59 -61 -62 -63
leaf_value=-0.035018387842555787 -0.0069990177762732199 0.0010949059345891142 0.068593706822309114 -0.016351722485412043 -0.0037911159014833895 0.023674877197813922 0.026852526865259404 0.089820662822533592 -0.0074348612714575917 0.031398870530719526 0.080799694068535863 -0.040102741067452187 0.059922666821805734 0.041647878728534794 0.087230443849677972 0.086356904860067987 0.011602642319104923 0.082956694344020532 0.070749253190563063 0.062291793598061015 0.0074337318016216899 0.065319017314127911 -0.039755188056163654 0.01082416372683421 0.079840771688806017 0.013794085377650936 -0.02603718701505657 -0.033568515326783128 0.08278593491768671 0.045639736452603059 0.057464734868770538 0.0028501696197430356 0.018463926593282411 -0.0063244627808539981 0.025105343025211765 0.043705507745215373 -0.011434490660802207 0.083736997480966718 0.10205388988386134 0.036963613260470284 0.00012581288659047375 0.10621861183093215 -0.011036782294917559 0.065204191459108302 0.0069317015190324969 -0.001857900576981177 0.024345048747758599 0.086362120901651157 0.065622576809508698 0.0450515979939516 -0.0055324642578373469 0.081460017994747877 -0.0079838126502033875 0.022520831716004098 0.029045287787416905 0.081544678195973844 -0.034458907661623205 0.0057132829320798604 0.068810501610929817 -0.00017869691797690908 0.075691009467271739 -0.01680470927288321
leaf_weight=48251.197240177542 44739.181220516562 1244.9023577868938 181.18394542112947 85385.982156161219 20542.658607892692 1983.6121296845376 9412.1606376767159 189.73257686197758 32664.622196517885 3732.8117844164371 624.3111180588603 135.14276283979416 9878.2960091009736 2639.0313526839018 1492.7982636243105 489.06843369454145 50304.42592086643 1224.6548697464168 1352.9585125111043 355.59024218097329 3214.4564231969416 958.62707560136914 151.44524310529232 15806.405695002526 418.04939607158303 4554.4337794743478 40049.697867751122 621.70341825485229 781.3766828738153 699.95295511186123 1222.8899830877781 460.11990345641971 8576.5801259130239 3483.127253126353 7202.2315465658903 1809.9667972922325 1476.4139826148748 406.87046660482883 186.64682820439339 2153.4232853874564 2777.2933474928141 384.16074042394757 3150.4282640591264 1479.4155694209039 31408.511335484684 10270.698208484799 3189.0199128650129 1091.0391651205719 2400.6374254710972 7264.609759233892 468.57830401137471 321.96316495537758 277.86644903197885 13797.928018998355 6461.3723540566862 497.15290424227715 361.48624686524272 15975.024225857109 279.6874750778079 54502.658495362848 272.34327961876988 2757.9285936281085
leaf_count=302596 255238 6576 969 506023 115055 10376 49006 1026 189658 20512 3010 719 48462 13712 7083 2365 272441 6263 6889 1862 17321 5155 818 84580 2270 25221 246845 3430 3933 3497 6072 2464 44915 18491 38308 9063 7639 2028 941 11102 14408 1958 17158 7390 174403 55655 16356 5460 12505 36029 2530 1657 1485 74236 34546 2584 1936 86898 1525 304986 1411 15366
internal_value=-7.03635e-06 0.0119727 0.00902136 -0.0204295 0.0030559 0.0178348 0.037882 0.00959322 -0.0128562 0.00461607 0.0140161 0.0147516 0.0426867 0.0316604 0.0393807 0.0522645 0.0136051 0.0143552 0.0192024 0.0177641 0.0342163 0.020731 0.0150176 0.0199902 0.00329995 -0.00483711 -0.0309449 0.0221868 0.0646657 0.0328088 0.0251045 0.0535179 0.0149471 0.00629123 0.0329052 0.0633781 0.00692146 0.0291288 0.0118889 0.0329022 0.0203569 0.0428689 0.0102684 0.0414163 0.00269166 0.000288757 0.0390861 0.0535752 0.052756 0.0347803 0.0621419 0.0298969 0.0579867 0.0170269 0.0123339 0.0245736 0.0256807 0.00670049 -0.00305084 0.000173523 0.0144848 -0.0115403
internal_weight=570449 359543 322775 210906 192488 130287 36767.2 92966.7 122605 55684 102089 6323.76 30443.4 28198 15536.7 13766.6 101465 98525.8 45070.9 43257.9 6188.28 4173.08 37069.6 26025.2 11044.3 37219.1 88300.9 12661.3 916.519 3888.33 3399.26 1813.08 9198.28 5407.24 10032.2 3302.77 2176.37 1924.12 15993.1 12234 5416.32 6817.64 53454.9 3463.03 51951.2 10626.3 6433.48 3244.46 2829.95 16676.8 2015.2 790.541 2678.5 37282.7 22987.6 14295.1 6822.86 16164.8 99521.5 54782.3 1517.25 2939.11
internal_count=3224416 1954073 1767845 1270343 1072945 694900 186228 511196 720902 309970 549647 33158 153070 145253 79142 68035 546637 530302 240703 231350 32926 22476 198424 138637 59787 214879 549441 66111 4652 19573 17208 9353 48345 28506 53116 16146 11136 10015 85521 62996 28120 34876 289599 17766 289458 57517 32918 16562 14808 85035 10450 4187 13990 201226 124406 76820 36482 87924 561749 306511 7987 16335
is_linear=0
shrinkage=0.03


Tree=6
num_leaves=63
num_cat=0
split_feature=0 92 0 0 109 109 25 109 97 88 18 97 8 5 111 0 99 88 113 97 0 112 61 3 112 51 113 8 24 112 5 8 112 98 103 5 25 6 11 27 97 98 82 24 97 97 112 113 28 87 17 0 87 5 78 100 101 8 98 24 112 100
split_gain=146791 27105.4 19631.7 16528.5 7149.16 6935.02 4675.25 4070.13 2915.19 2755.56 2456.27 2362.48 2272.6 2674.89 2194.65 2165.67 2155.78 1977.19 1947.72 1842.05 1769.33 1748.99 2337.7 2127.92 1812.36 1833.34 1713.56 1673.42 1913.64 1857.09 1619.79 1810.33 2280.22 1811.32 2282.08 1616.69 1616.26 1608.2 1592.05 1864.8 1568.36 1539.4 1581.89 1964.37 1509.45 1665.64 1489.27 1485.58 1558.46 1494.69 1546.15 1446.86 1446.85 1562.31 1419.67 1465.58 1400.47 1834.9 1443.42 2818.79 1410.03 1400.95
threshold=5.4402484893798837 3.0009452104568486 4.5271940231323251 6.1851787567138681 0.058615706861019141 0.081746231764554991 5.0107944011688241 0.14798913151025775 4.4227480888366708 -1.5916319489479063 17.085037231445316 2.0188608169555669 1.884271025657654 0.73121750354766857 -0.67197483777999867 3.8815106153488164 1.2052866220474245 4.1618382930755624 1.4386367201805117 2.290052175521851 5.0336952209472665 0.035233398899436004 0.13810728490352633 0.013981552794575693 2.6933157444000249 2.6155214309692387 0.53272318840026867 -0.061348754912614815 1.1094843745231631 0.28962923586368566 -1.0714650154113767 -1.9776689410209654 3.6038718223571782 3.0650650262832646 14.328231334686281 0.33009852468967443 13.846621513366701 1.6188973784446719 0.093046203255653395 5.074557065963746 9.3033919334411639 2.9839627742767338 0.96539902687072765 1.1065805554389956 2.54578709602356 3.8917418718338017 2.2703226804733281 1.9566794037818911 0.82728761434555065 -1.3514376878738401 -0.08324777707457541 6.5139715671539316 -1.1687803268432615 0.098599687218666091 3.6986582279205327 1.8832888007164004 7.5519354343414316 0.088145442306995406 2.8476688861846928 0.88944521546363842 -0.30866646766662592 3.5701745748519902
decision_type=2 2 2 2 2 2 2 2 2 2 2 2 2 2 2 2 2 2 2 2 2 2 2 2 2 2 2 2 2 2 2 2 2 2 2 2 2 2 2 2 2 2 2 2 2 2 2 2 2 2 2 2 2 2 2 2 2 2 2 2 2 2
left_child=2 3 15 5 12 10 54 20 26 18 -2 -7 13 16 -11 -1 -5 30 -6 -9 -4 37 23 38 25 -25 -8 -16 -29 -30 -18 32 -32 56 35 -35 51 -10 39 -23 -39 42 -13 -44 -14 -46 -38 49 -49 -12 -51 -28 -34 -54 55 -3 57 61 -58 -60 -59 -33
right_child=1 6 7 4 9 11 8 19 21 14 47 41 44 -15 27 -17 17 -19 -20 -21 -22 22 -24 24 -26 -27 36 28 29 -31 31 33 52 34 -36 -37 46 40 -40 -41 -42 -43 43 -45 45 -47 -48 48 -50 50 -52 -53 53 -55 -56 -57 58 60 59 -61 -62 -63
leaf_value=-0.034674056034670248 -0.003837223887895634 0.069996728020764259 -0.018788625681897566 0.075779121261021973 0.033653973757535822 -0.0075206767608223986 0.064489720697978925 -0.012242007780773065 0.064284844478342013 0.072864826585002387 -0.011601412036004712 0.0058837973736318482 0.088208795101807791 -0.019280327832638441 0.015134944372474209 -0.025327013462794017 -0.020783814406346263 0.075329600744771769 0.068126624746707581 0.00544422066005989 -0.010894678459799127 0.021406828624979807 0.072152844313209855 0.0057212952957781931 0.070632825724130932 0.049201212496926744 0.011593339514267092 0.024758317498679461 0.017531445948036996 0.070298317515661138 0.052893432981479242 -0.0092893910569422592 -0.0013227591097051902 0.013062970794821301 0.061470499858072424 0.040796002758805856 0.029705863508198167 -0.037380560419788086 0.015514050152547421 0.064436142151161335 0.096488959471962704 0.025137444146011736 0.0095945527263929589 0.040357903579176062 0.01872755530878429 0.082561454950843854 0.062499409598539613 0.040387885291466911 0.0086579011265472648 0.062312579486775377 0.0038754848106616006 0.045770529885673282 0.036620704347165738 0.0086852910268266463 0.04505733979638242 -0.018992985529469941 0.014534128675362133 0.085060097786343644 0.040399366849605996 -0.0065730716527224635 0.013401683495358911 0.03527359225402673
leaf_weight=47171.440547745675 78703.063513509929 180.88829966261983 46657.997400075197 484.03894129768014 4147.5760725773871 4065.8366646841168 1153.0837143436074 8073.258350443095 5424.1539339981973 812.93930653110147 5947.4872817881405 14033.393056165427 456.48177372664213 2423.0374181941152 13404.056082870811 42327.88723159954 1335.7387575022876 446.08677245676517 2289.2750316262245 15428.519021902233 56497.545711003244 1175.2082232162356 1810.2477407678962 3754.38033721596 610.91279916465282 1137.1396918483078 6722.4782208316028 12670.615413401276 903.11599610745907 1790.1502766646445 1971.1438590884209 10464.183836393058 2668.9022591114044 37001.695253804326 952.91772533580661 1993.7324355393648 5915.2003026939929 275.49329613149166 1147.5901192128658 3963.7254578024149 110.29757855832577 12331.277061183006 4330.2895859181881 3285.4455795325339 2243.0307554118335 440.07172734290361 1579.0658391900361 1905.8785670399666 5178.4998173192143 411.33173666521907 43636.073539026082 1336.4219754375517 4144.0206751711667 3187.7782231271267 475.04056937992573 2102.7752091661096 22077.663589481264 272.18467846512794 1348.8232062384486 7792.0698677189648 2685.5156133249402 675.92865373939276
leaf_count=302053 445018 992 280751 2371 21001 23161 5757 47030 25875 4090 33048 75549 2327 13146 70203 264514 7190 2104 10865 88108 332263 5855 8463 18784 2951 5574 34815 64934 4536 8734 10637 56854 14548 197273 4821 10659 30028 1369 5666 19208 515 65498 23169 17299 12023 2369 7876 10497 28639 2350 242995 6642 22217 17037 2408 11457 119025 1403 7205 42212 14645 3666
internal_value=-2.03442e-05 0.0118803 -0.0194982 0.00896274 0.0165917 0.00277089 0.0355146 -0.0118982 0.03839 0.0281258 -0.000401003 0.014091 0.0126377 0.0118633 0.024255 -0.0302535 0.0126217 0.012313 0.0459142 -0.000631298 -0.0144652 0.0462976 0.0404113 0.0355373 0.0219138 0.0158291 0.0292031 0.0228814 0.0296397 0.0526043 0.0120278 0.0124785 0.0234027 0.0109447 0.0156018 0.0144809 0.026587 0.0600755 0.0474616 0.0545959 0.000892724 0.0166769 0.0118578 0.0228659 0.0377773 0.0291973 0.0366156 0.00433699 0.0171941 0.00251511 0.00442119 0.017261 0.0175901 0.0244747 -0.00212865 -0.0119441 0.0068393 -0.00100874 0.0103834 0.000358146 0.0199961 -0.00658552
internal_weight=569942 353785 216157 314911 141083 173829 38874.1 126657 36115.4 36017.7 135782 38046.2 105065 101925 29580.9 89499.3 99502.4 99018.4 6436.85 23501.8 103156 19409.1 13599.2 11789 5502.43 4891.52 16706.3 28767.9 15363.9 2693.27 98572.3 97236.6 11971.8 85264.7 39948.3 38995.4 15553.2 5809.94 6286.52 5138.93 385.791 33980.4 21649.1 7615.74 3139.58 2683.1 7494.27 57079.3 7084.38 49994.9 44047.4 8058.9 10000.7 7331.8 2758.7 2283.66 45316.4 14097.8 31218.6 9140.89 2957.7 11140.1
internal_count=3224272 1909553 1314719 1715318 748095 967223 194235 748152 179378 184363 762547 204676 563732 547013 152497 566567 533867 531496 31866 135138 613014 94260 66501 58038 27309 24358 85118 148407 78204 13270 529392 522202 64439 457763 212753 207932 79361 27759 30729 25063 1884 181515 116017 40468 16719 14392 37904 317529 39136 278393 245345 41457 53802 39254 14857 12449 245010 76568 168442 49417 16048 60520
is_linear=0
shrinkage=0.03


Tree=7
num_leaves=63
num_cat=0
split_feature=0 109 0 0 75 75 98 75 105 8 105 98 115 23 114 29 112 69 98 82 116 105 105 5 97 101 28 84 115 113 114 114 0 101 17 8 96 29 0 11 113 96 82 109 0 3 116 116 115 5 11 7 99 110 109 11 101 27 7 13 63 101
split_gain=138460 22568.6 18344.9 17520.4 6207.01 5102.86 4276.57 4090.46 3814.16 3126.98 3110.35 2835.82 2702.72 2625.68 2357.3 3807 2550.5 2279.58 2237.42 2207.12 2075.17 2070.14 2032.74 2949.82 2263.25 2470.68 2387.02 2235.6 2567.75 2380.78 2112.63 2050.02 1988.63 1970.08 1915.49 1890.07 1861.14 1762.81 1762.06 1732.4 1724.16 1612.28 1811.12 1567.99 1564.56 1547.59 1539.12 1689.36 1556.44 1534.11 1529.72 1847.21 1505.86 1493.25 1437.42 1436.25 1526.79 2486.66 1434.99 1477.88 1423.02 1410.58
threshold=5.4138731956481942 0.12503272294998172 4.4601275920867929 6.1913387775421151 -2.5443102121353145 2.5920512676239018 2.9839627742767338 -2.8431122303009029 16.403944015502933 -0.065927859395742403 17.323109626770023 5.2143888473510751 0.1209220550954342 0.22077799588441852 0.24100673943758014 6.364351987838746 3.6038718223571782 0.35350395739078527 3.7167035341262822 0.57155126333236705 0.34408263862133032 108.80641937255861 175.29973602294925 0.21840231865644458 1.9575633406639101 4.3967018127441415 0.1981274485588074 -0.012723650317639111 0.1297118812799454 1.1506097912788393 0.32551220059394842 0.4205548763275147 6.54319190979004 6.023261785507203 -0.013124925550073384 0.052771672606468208 3.3654581308364873 9.0206108093261737 3.8176519870758061 -0.037038570269942277 2.43333911895752 7.7294094562530526 1.0022654533386233 -0.64874497056007374 5.8156206607818612 0.1380022615194321 0.32781787216663366 -0.10636291652917861 0.12583532184362414 0.20945459604263308 0.11862592026591302 -0.13505652546882627 1.8774681091308596 0.4413170069456101 0.050175042822957046 -0.015555981546640394 11.652412414550783 18.305057525634769 4.8375895023345956 -0.29263474047183985 2.2506023645401005 12.67815685272217
decision_type=2 2 2 2 2 2 2 2 2 2 2 2 2 2 2 2 2 2 2 2 2 2 2 2 2 2 2 2 2 2 2 2 2 2 2 2 2 2 2 2 2 2 2 2 2 2 2 2 2 2 2 2 2 2 2 2 2 2 2 2 2 2
left_child=2 3 38 7 35 6 9 49 -4 19 40 13 55 32 -7 -16 17 18 41 -3 39 46 23 24 -8 -26 -27 28 29 -28 36 34 -6 -10 -30 43 -24 -21 -1 -12 44 42 -17 -5 -9 58 47 -14 -49 -2 -32 -52 -41 -34 -15 -11 -57 -58 59 -23 -35 -13
right_child=1 5 8 4 11 14 22 10 33 12 20 61 21 54 15 16 -18 -19 -20 37 -22 45 30 -25 25 26 27 -29 31 -31 50 -33 53 60 -36 -37 -38 -39 -40 52 -42 -43 -44 -45 -46 -47 -48 48 -50 -51 51 -53 -54 -55 -56 56 57 -59 -60 -61 -62 -63
leaf_value=-0.034649457663183107 0.021850063322010463 -0.0037641760382186636 -0.015745319731796763 -0.028408305787979243 0.008524519316001818 0.056346046838702896 -0.012965709528535511 -0.0075059721295751064 -0.016735503721587736 -0.024892548837209209 -0.013897944409323499 0.030614120849088752 0.037626022897584953 0.018141728675373437 -0.0062304972979706427 0.0004849973613229255 0.068942823487448734 0.0022680340702722268 0.078009179234922107 0.035211590399062132 0.029837349183094095 -0.038139385182854264 0.091797288150899894 0.0050736940149996709 -0.028156745573328524 0.076709834037856403 0.037096015054523659 0.018441541789830714 0.04412931783424609 0.085495658727802112 0.062816474327522603 0.074216499469657832 0.016725391890155369 -0.0033223553667399586 -0.02096652323179158 0.06385303474565647 -0.013889940832792928 -0.00060531413834058934 -0.025858840173095209 0.014814137096022429 0.016828122998830797 0.071938074073786912 0.052333577351913858 0.037492924514175824 0.0001206766795825322 -0.018864088768881033 0.067627581427287822 0.054523876391831073 -0.0054186199850080686 0.068357579481317141 0.099199894157681531 -0.0090614489613168436 0.0029402043352546115 0.080282394011951572 0.035603347776378746 -0.00057167853246352059 0.067207065673024133 -0.039947207465537468 -0.0374616869627473 0.064061479133415936 0.015723102582429701 0.076032699452106098
leaf_weight=43405.577821899205 2903.6705484613776 9523.4802617654204 87679.909424632788 366.3579911403358 66638.138804771006 6030.5791873559356 867.6018581353128 48432.633034285158 8964.0842296145856 1097.5673880241811 4244.7494648844004 2968.5095515325665 2158.8748066648841 13957.108486179262 1851.6112213917077 1661.3103812672198 2211.8190689943731 1737.6757669262588 1189.3981931768358 3042.1355021707714 3074.4387253634632 132.57861673086882 186.0479580052197 4274.2772331237793 498.91168583929539 1402.7308972105384 1753.1683590598404 4269.4570755288005 684.26546270772815 1912.5429010614753 4027.2081023603678 507.03381884098053 34982.204214639962 25431.192527748644 1003.4149333499372 2751.5513291284442 773.11313902959228 2083.8906919360161 38926.908316791058 13056.710765112191 3830.2582223117352 658.16230010986328 954.8285145573318 2874.0147123411298 48401.180444624275 266.92129727825522 605.87266482785344 455.38176482543349 2709.3581758961082 818.21916307881474 186.54144451022148 591.98482593148947 36440.27227781713 335.88985301554203 6095.9981362745166 2024.0667217858136 866.63385720551014 251.46957972273231 141.62888652458787 3223.9500441290438 4099.9989301376045 776.38048934936523
leaf_count=283571 14985 50863 529134 1931 354602 29119 4848 276833 52610 5642 23724 14940 11027 74188 9314 8252 10503 8653 5616 16104 16450 691 894 21955 2647 7096 8962 22022 3502 9418 19917 2584 184556 148678 5048 13122 3830 10791 247978 72131 21351 3037 4705 14110 270090 1371 3013 2378 14024 4061 922 3111 200819 1678 30935 10718 4450 1289 762 15989 22612 3812
internal_value=-1.59614e-05 0.0112319 -0.0194774 0.00762167 0.0157372 0.0268269 0.0221989 0.000989102 -0.0122892 0.0144562 0.000254435 0.0143158 0.0246303 0.0135265 0.0414595 0.0327137 0.0412847 0.03142 0.0427686 0.00477893 0.00586639 0.0333677 0.0318473 0.026673 0.0338302 0.0372047 0.0400323 0.0349534 0.0469826 0.062348 0.0472612 0.0213186 0.0115747 -0.0044173 0.00542641 0.0455684 0.00661015 0.0206509 -0.0304932 0.00449506 -0.00291303 0.0299674 0.0194085 0.0300421 -0.00369389 0.0507648 0.0223209 0.0171647 0.00320664 0.0320743 0.0553746 0.0168789 0.00607241 0.0173298 0.0234499 0.00465124 0.014971 0.0431073 0.0560778 0.0600247 -0.000678156 0.0400302
internal_weight=569273 360766 208508 292948 131746 67817.5 51522.1 161202 126175 28583.8 157480 125754 13934.3 122009 16295.4 10264.8 8413.19 6201.38 4463.7 14649.5 56816.2 9694.57 22938.3 17173.4 12899.1 12031.5 11532.6 10129.9 5860.43 3665.71 5764.9 2194.71 101956 38495.3 1687.68 5991.92 959.161 5126.03 82332.5 53741.7 100664 3274.3 2616.14 3240.37 96833.8 3765.08 5929.49 5323.61 3164.74 3721.89 4805.73 778.526 49497 35318.1 20053.1 4239.74 3142.17 1118.1 3498.16 3356.53 29531.2 3744.89
internal_count=3223968 1939385 1284583 1594318 693874 345067 265868 900444 753034 149112 881398 664711 71354 645959 79199 50080 40766 30263 21610 77758 313124 49255 116756 88082 66127 61279 58632 51536 29514 18380 28674 11134 540836 223900 8550 29163 4724 26895 531549 296674 568274 15994 12957 16041 546923 18813 30442 27429 16402 19046 23950 4033 272950 186234 105123 22099 16457 5739 17442 16680 171290 18752
is_linear=0
shrinkage=0.03


Tree=8
num_leaves=63
num_cat=0
split_feature=0 92 0 0 22 109 25 105 88 0 8 25 97 96 116 100 97 17 114 98 113 97 79 11 0 97 101 116 114 113 109 18 18 21 5 73 104 6 106 113 98 108 113 13 25 0 116 97 0 116 25 116 6 111 114 113 80 99 103 18 5 114
split_gain=131474 24963.6 16756.3 16041.9 8338.06 4929.91 4363.06 3289.39 2902.04 2842.79 2672.86 2825.42 2574.43 2305.62 2182.72 1997.39 1915.84 1887.38 1777.29 2014.33 1813.01 2542.6 2311.93 1742.5 1703.75 1680.05 1661.95 1639.89 1622.67 1735.55 1584.34 1535.78 2001.04 1665.12 1461.65 1723.44 1567.78 1579.71 1454.76 1542.87 1540.51 1581.89 1418.97 1578.97 1551.43 1417.48 1405.31 1400.18 1377.82 1376.41 1945.78 1369.01 1501.11 1365.63 1364.23 1317.99 1306.11 1305.33 1915.12 1296.96 1293.61 1289.82
threshold=5.3589394092559823 3.0009452104568486 6.0246567726135263 4.4005842208862314 0.07335004955530168 0.086725894361734404 5.0107944011688241 16.403944015502933 4.1618382930755624 6.4369511604309091 -0.065927859395742403 21.056863784790043 4.4227480888366708 1.8104562759399416 -0.010316579602658747 3.8816701173782353 1.9996951222419741 -0.08324777707457541 0.31917972862720495 4.1350417137146005 1.0420137643814089 2.3407601118087773 -1.3152714967727659 0.0032379790209233765 5.6920459270477304 1.8947515487670901 6.023261785507203 -0.12770936638116834 0.61779928207397472 0.53272318840026867 0.12503272294998172 38.24548530578614 133.10133361816409 1.0862671136856081 -0.31408585608005518 0.13986940681934359 0.60443314909935009 26.722305297851566 0.76814252138137828 1.9566794037818911 2.7326190471649174 -1.0338164567947385 0.8012073040008546 -0.49062873423099512 7.0444991588592538 3.8176519870758061 -0.6621919274330138 3.6792299747467045 6.4945096969604501 0.2202291935682297 24.505894660949711 -0.15680804103612897 5.783128261566163 0.49193766713142401 0.57120478153228771 2.933847308158875 -0.65320363640785206 1.8189585804939272 10.039700031280519 246.83314514160159 -0.034550122916698449 0.67001366615295421
decision_type=2 2 2 2 2 2 2 2 2 2 2 2 2 2 2 2 2 2 2 2 2 2 2 2 2 2 2 2 2 2 2 2 2 2 2 2 2 2 2 2 2 2 2 2 2 2 2 2 2 2 2 2 2 2 2 2 2 2 2 2 2 2
left_child=3 2 5 45 8 17 -3 -5 9 27 13 61 28 -6 -14 23 46 -2 -11 20 22 -22 -20 53 -19 -25 -9 30 29 -8 -4 -17 -33 -34 -16 36 -36 -38 -27 40 -40 -42 43 -29 -45 -1 -7 56 -31 50 -13 52 -52 54 -15 -55 -24 -21 60 -43 -59 -12
right_child=1 6 4 7 10 16 12 26 -10 18 11 49 14 15 34 31 -18 24 19 57 21 -23 47 25 -26 38 -28 42 -30 48 -32 32 33 -35 35 -37 37 -39 39 -41 41 59 -44 44 -46 -47 -48 -49 -50 -51 51 -53 -54 55 -56 -57 -58 58 -60 -61 -62 -63
leaf_value=-0.034327854626528452 0.022891645683829103 -0.0029811022684086042 5.1045827221236013e-05 -0.016292800293463933 0.081216330956888627 0.051967084348775443 0.059338399824664184 -0.017110411432816969 0.06560408601313529 0.010744483622085745 0.024268926660806472 0.074063732946594435 0.048721149731466358 0.0090806864839987379 0.078439777445061754 0.061242482217361303 0.013183918805050291 -0.0074686496161839293 0.064676608670616212 0.0859724239595476 0.037198698834696231 -0.0032806106213258625 -0.01753323180585405 -0.033574467346812374 -3.257587670801719e-05 -0.014501188648934699 -0.0017622313214915378 -0.0074947661635962519 0.065850728999269068 0.017767820646897779 0.077775463528829858 -0.016636411294175694 -0.023539876543013254 0.071596640576608694 0.030068199678142067 0.07008809830227769 -0.015831026566979 0.072061222970557434 6.3547597504537145e-06 -0.021920777195879225 0.059448828149333922 0.026478921266714549 0.0077764859118226708 0.042626194563939561 -0.0020388462462829797 -0.026090483869415069 -0.015285752274090932 0.069909157952648029 0.040591403536580667 0.076339495152930509 0.082508272221365392 0.019556597905561683 -0.012749603956686655 0.074794343797857113 0.049700430816991631 -0.0025335706566556632 0.021819286560614961 0.051632198436780144 0.084429586528466452 -0.019342131657056508 -0.0012589879584165003 0.068566625409469922
leaf_weight=42535.232048667967 2524.2203019782901 2887.5927506312728 30157.530257139355 84346.772450141609 492.43258401751518 304.69685609638691 1213.0065260753036 8307.811757799238 842.73951814696193 35245.748755883425 17451.408534869552 1246.9902727901936 14576.749551270157 3325.6914974078536 454.27553555369377 1383.4977052025497 28394.085322976112 49937.477173384279 1219.8533429093659 565.72988222166896 1852.3450988456607 5675.4683141298592 830.11223183572292 928.95162647590041 62359.760472264141 2028.1970532014966 26938.590307909995 1107.4947045706213 912.8603563606739 12601.592156805098 237.89674149826169 780.15982355922461 217.621926240623 692.31058666855097 2832.7225323356688 602.23615570366383 1597.3500197678804 208.00962443649769 2787.4339842572808 978.34311344102025 1107.87754759565 3419.7029622942209 46396.634231410921 3205.6393972486258 895.40370760858059 33694.169082161039 3399.9008916355669 500.46139811724424 2934.9021155610681 1332.1046878285706 708.12420409545302 2631.1609249189496 188.5241392403841 814.55369456857443 958.64179459214211 262.23664188757539 8868.7771007008851 690.0821578502655 539.6224829852581 663.88196525722742 1048.5236145369709 612.33248597756028
leaf_count=283882 14322 15526 164636 515492 2301 1693 5830 49387 3970 186407 88243 5965 68105 17226 2130 6936 151535 287731 6330 2615 9550 30207 4434 5161 348957 10751 156978 5895 4356 63938 1215 4037 1162 3442 13649 2680 8056 986 14548 5017 5695 17539 250416 17234 4839 218284 19482 2630 14096 6110 3383 12776 924 3947 4913 1313 46469 3477 2601 3342 5438 2938
internal_value=-2.95976e-05 0.0104292 0.00770571 -0.0199319 0.0137153 0.000142908 0.0325671 -0.0130766 0.0101014 0.00976495 0.024946 0.0317344 0.0352731 0.0170733 0.0425682 0.0155211 0.0105366 -0.00276267 0.0149085 0.0216435 0.0181097 0.00668 0.0256444 0.0115566 -0.00333932 0.0051654 -0.0053799 0.00618731 0.0269004 0.0247776 0.000659374 0.037804 0.0186175 0.0488435 0.0268183 0.0223433 0.0161439 -0.00570427 0.00844132 0.0136362 0.0179961 0.0276552 0.00944326 0.0242905 0.0328742 -0.0306869 -0.00975432 0.0209761 0.0220793 0.0493749 0.0418522 0.0304662 0.0624799 0.0257603 0.0181696 0.0559623 0.0184512 0.0451862 0.0350582 0.0190296 0.0197344 0.0257705
internal_weight=568456 372634 331812 195823 184892 146920 40821.3 119593 139880 139037 45012.2 24170.6 37933.7 20841.5 20271.3 20349.1 32098.7 114821 57036.7 21791 18947 7527.81 11419.2 17275.5 112297 11914.4 35246.4 82000.6 17662.4 16749.5 30395.4 3073.59 1690.09 909.933 5694.59 5240.32 4638.08 1805.36 10985.4 8957.24 7978.9 5191.46 51605.2 5208.54 4101.04 76229.4 3704.6 10199.4 15536.5 6106.9 4774.8 3527.81 896.648 5361.12 4284.33 1076.79 9698.89 2843.96 2278.23 4083.58 1738.61 18063.7
internal_count=3223127 1999104 1799752 1224023 976032 823720 199352 721857 748363 744393 227669 120339 183826 107330 95606 105029 172710 651010 300158 113751 99620 39757 59863 89452 636688 62053 206365 444235 88220 83864 165851 15577 8641 4604 27501 25371 22691 9042 56892 46141 41124 26576 278384 27968 22073 502166 21175 53533 78034 29158 23048 17083 4307 27399 22139 5260 50903 14131 11516 20881 8915 91181
is_linear=0
shrinkage=0.03


Tree=9
num_leaves=63
num_cat=0
split_feature=0 0 0 109 109 75 105 0 98 75 63 116 113 4 116 18 98 111 17 113 113 116 110 105 98 114 112 101 113 110 98 113 97 75 105 98 5 101 116 114 112 105 5 105 97 12 22 97 77 20 112 101 5 112 17 96 8 15 101 111 97 113
split_gain=124470 22154.8 14825.1 11861.3 9543.7 6436.68 3004.16 2865.66 2675.01 2593.18 2524.58 2511.21 2386.9 2224.33 2161.58 2260.1 2581.3 2152.3 2434.69 2126.04 2125.3 2103.92 2202.38 2191.86 1996.32 2349.91 2100.37 2086.34 2506.66 2070.16 3232.45 2139.44 1961.36 1913.4 1884.53 2353.35 2040.04 1860 1746.66 1735.34 1948.96 1732.69 1719.91 2233.86 1934.66 1768.77 1705.53 1699.71 1688 1685.23 1659.72 1643.67 1639.48 2080.02 1645.09 1884.08 1606.34 1602.03 1595.39 1584 1557.45 1826.53
threshold=5.3302974700927743 6.1014387607574472 4.3630783557891855 0.076804868876934065 0.14373656362295154 -2.6735229492187496 16.403944015502933 5.7317204475402841 5.2143888473510751 2.4772548675537114 3.0894714593887334 -0.12770936638116834 1.0308942198753359 0.022746587172150615 -0.080310784280300127 17.857464790344242 3.5055133104324345 -0.044597627595067017 0.017548826523125175 1.4495600461959841 2.0991097688674931 0.23345605283975604 -0.028286478482186791 9.1445970535278338 3.1733163595199589 0.33781078457832342 0.026014803908765319 6.5911352634429941 0.92457503080368053 0.010955274105072023 2.7843295335769658 0.9084550440311433 1.8947515487670901 -3.4570751190185542 40.657707214355476 2.4748315811157231 0.15017134696245196 4.3215799331665048 -0.017137359827756878 0.24100673943758014 0.99055770039558422 27.032557487487797 0.098599687218666091 18.148725509643558 3.8917418718338017 -0.001413825841154903 -0.13461375981569287 1.9996951222419741 2.2024896144866948 29.187868118286136 -0.089854273945093141 18.537653923034672 -0.67256456613540638 2.9610055685043339 -0.025634583085775372 3.7605023384094243 0.16699188947677615 0.061768779531121261 85.671630859375014 -0.75238531827926625 2.6422816514968877 1.0842927694320681
decision_type=2 2 2 2 2 2 2 2 2 2 2 2 2 2 2 2 2 2 2 2 2 2 2 2 2 2 2 2 2 2 2 2 2 2 2 2 2 2 2 2 2 2 2 2 2 2 2 2 2 2 2 2 2 2 2 2 2 2 2 2 2 2
left_child=2 4 -1 5 7 37 -4 -2 11 13 47 20 17 58 15 16 51 18 38 -17 42 22 60 -24 27 26 -26 -19 29 30 31 -29 -15 -9 35 -23 -36 -3 -13 -11 -41 -37 43 45 -44 48 -46 -6 -7 59 -21 -14 -45 54 -54 -56 -25 -40 -5 -34 61 -16
right_child=1 3 6 9 10 8 -8 33 -10 39 -12 12 14 32 21 19 -18 24 -20 50 -22 34 23 56 25 -27 -28 28 -30 -31 -32 -33 49 -35 36 41 -38 -39 57 40 -42 -43 44 52 46 -47 -48 -49 -50 -51 -52 -53 53 -55 55 -57 -58 -59 -60 -61 -62 -63
leaf_value=-0.030669597895016349 -0.0049907434418965868 -0.023011998358700377 -0.016432304580393273 0.057191931022850598 -0.0091807938389070354 0.0091283933543730208 -0.0058092351254541378 0.044015445220679086 0.035738559091401161 0.057030162660463977 0.041473873501586517 0.0019346721047667284 -0.015562307894452718 -0.019682329718955643 -0.012654173083262088 0.074342676606460698 0.095828764627987492 -0.0020186127503381817 -0.012801360793594049 0.10666020367506863 0.067761898072880467 0.051600366502110369 0.031156918055967053 -0.0088016946678778473 0.053568303335804077 0.059339916673520655 0.0072215169843564096 -0.029957260535758042 0.015483064963672775 0.072486475283187912 0.067858347717074205 0.085052436001195178 0.08017470838953171 0.0026856245616616631 0.068840567210957715 0.013206664711239229 0.0054930351897859702 0.046912480176496504 0.032181991490478207 0.015799201334475647 0.048084863466552247 -0.026233808989120859 -0.0089441901369090113 -0.011651353300393762 0.061640603547100915 -0.0059221117368888822 0.0021053294606454814 0.01670119216636063 0.07402624168582414 0.030249277212553716 -0.0030964808858858889 0.10551414334609119 -0.014430488760347774 0.049768843072312156 0.013174498313998027 0.044700047680962238 0.012509827198860493 -0.022942517617439848 -0.041609093523602016 0.015324664461902813 0.0072022180154064303 0.042278589701681732
leaf_weight=72022.871096983552 70994.934732019901 364.14725802093744 82599.468497280031 2639.0531804822385 2500.6660157442093 8011.0074705556035 33747.73117653653 1020.4589701592922 3882.7413020916283 4363.6494782567024 3489.2880751974881 3929.8897368870676 1541.1700072735548 905.50712184607983 679.85634891316295 1345.1632375717163 249.91157073155046 3165.0474313162267 3111.185258358717 148.28438457101583 483.72910664975643 1210.8423177525401 1672.4973108023405 16102.774821247905 1367.5923668965697 2954.9984418340027 2468.4839407168329 853.46338522434235 7030.7766114622355 1546.5022686906159 884.85366766527295 175.50586635991931 347.57311115786433 83521.173175785691 1252.8358640484512 5691.250182736665 720.74606031179428 5724.9490537382662 5633.0911777094007 3204.4729420505464 3543.6932872906327 1216.8293031454086 11833.203037731349 1650.220761988312 683.70510238781571 11946.688985712826 1181.3218370862305 26309.777797646821 377.71412074193358 21789.229868270457 757.09896621853113 107.98142979294062 1457.7422897741199 1830.9409960284829 8411.0423484966159 2140.3025019913912 3967.3603245168924 518.13109635934234 155.77332459390163 13714.330888319761 8054.1362837404013 2741.4545110277832
leaf_count=484085 407848 1962 510762 12168 14373 43118 198684 4881 19223 20001 16562 20600 8289 5076 3578 6975 1343 16908 16337 745 2492 6253 8913 85592 7088 15152 12735 4484 37515 8190 4581 938 1653 461821 6228 29885 3827 26819 29454 15409 16385 6303 63451 8721 3396 64221 6189 136719 1970 106635 3950 538 7801 9678 44719 11098 20717 2788 778 69159 42270 14330
internal_value=-3.63959e-05 0.00985722 -0.0199727 0.0170308 0.00253447 0.0125594 -0.013351 -0.000547106 0.0111984 0.029482 0.0173735 0.0104717 0.013732 0.0258845 0.00939897 0.030083 0.00598091 0.0198452 0.0103979 0.050421 0.00518428 0.00741721 0.0037726 -0.00183928 0.0259404 0.0392331 0.0237445 0.01933 0.0257707 0.0466734 0.0258146 -0.0103407 0.0239228 0.0031845 0.019413 0.0130215 0.0457062 0.0427308 0.0175576 0.042287 0.0327535 0.00625939 0.00457304 0.00803006 -0.00446827 0.00149192 0.0239305 0.0144547 0.0120505 0.0250241 0.0148796 -0.00763459 0.0166133 0.0199834 0.0154422 0.0195693 -0.00458894 0.0275387 0.0516851 0.0169276 0.0144055 0.0313628
internal_weight=567949 379579 188370 191742 187836 141079 116347 155537 134990 50663.3 32299.7 131107 81099.7 39551.5 47460.2 4149.61 1899.06 33639.5 13192.3 2250.55 50007.6 43310.6 33218.1 21742.6 20447.2 6791.07 3836.08 13656.1 10491.1 3460.33 1913.82 1028.97 36756.6 84541.6 10092.5 8118.92 1973.58 6089.1 10081.1 11111.8 6748.17 6908.08 49523.9 35825.7 13698.2 20335.4 1865.03 28810.4 8388.72 35851.1 905.383 1649.15 15490.2 13840 12009.1 10551.3 20070.1 6151.22 2794.83 14061.9 11475.4 3421.31
internal_count=3224363 2030832 1193531 988628 1042204 741364 709446 874550 712583 247264 167654 693360 426506 195469 249736 21840 10170 176770 69179 11670 266854 227896 175400 115222 107591 34975 19823 72616 55708 18193 10003 5422 182523 466702 52496 42441 10055 28781 52842 51795 31794 36188 264362 191326 73036 109309 9585 151092 45088 177447 4695 8827 82017 73296 63618 55817 106309 32242 12946 70812 60178 17908
is_linear=0
shrinkage=0.03


Tree=10
num_leaves=63
num_cat=0
split_feature=0 92 0 105 0 0 109 25 92 63 85 113 61 114 85 112 0 4 112 103 109 114 8 103 97 100 8 112 114 116 13 98 114 98 116 26 98 112 8 114 113 96 116 14 116 0 92 113 98 25 105 14 0 0 77 29 6 101 96 96 13 6
split_gain=117819 21007.2 15786.7 14697.8 5844.01 4262.6 3978.6 3701.2 3220.3 2337.63 2262.51 2246.02 2289.3 2591.46 3706.6 3524.77 2206.07 2193.97 1969.06 2293.08 1966.35 3602.6 2498.63 2299.31 1800.35 1780.56 1864.95 1938.83 1761.38 1737.14 1708.17 1927.55 1706.99 1743 1677.62 1975.51 1666.89 1628.65 1623.81 1806.89 1627.31 1760.32 2047.83 2006.78 1825.34 1618.44 1587.34 1512 2402.87 1731.53 1500.09 1642.52 1489.71 1466.46 1465.39 1464.79 1484.04 1456.55 1426.21 1397.91 1592.55 1459.05
threshold=5.3729581832885751 3.0009452104568486 4.4005842208862314 16.276908874511722 6.0100402832031259 6.363889455795289 0.067751053720712676 5.0107944011688241 2.6975705623626713 -0.76471096277236927 0.023577627725899223 0.41742606461048132 0.13810728490352633 0.23797107487916949 0.030790785327553753 6.3835914134979257 4.9522936344146737 0.024591003544628624 15.593772888183596 4.5537805557250985 -0.60422062873840321 0.51707795262336742 1.0847877264022829 5.9750211238861093 3.8685990571975712 2.0396006107330327 0.088145442306995406 1.3380876779556277 0.55893203616142284 0.34408263862133032 -0.66576755046844471 6.306326389312745 0.30681793391704565 3.6610598564147954 0.27997048199176794 0.33145482838153845 2.8555990457534794 -0.34796510636806482 -0.090687077492475496 0.75026336312294017 1.5903612971305849 3.7102104425430302 -0.10090832412242888 0.035202816128730781 0.17313154041767123 5.7604765892028817 4.1966106891632089 1.1506097912788393 2.9774084091186528 25.656984329223636 72.981914520263686 -0.077518410980701433 3.8176519870758061 6.0879099369049081 2.0530530214309697 2.6876688003540044 -0.16428631544113156 85.671630859375014 3.1656483411788945 3.5878568887710576 -0.59403243660926808 2.6622978448867802
decision_type=2 2 2 2 2 2 2 2 2 2 2 2 2 2 2 2 2 2 2 2 2 2 2 2 2 2 2 2 2 2 2 2 2 2 2 2 2 2 2 2 2 2 2 2 2 2 2 2 2 2 2 2 2 2 2 2 2 2 2 2 2 2
left_child=2 3 52 5 9 30 18 -3 16 -5 55 -9 13 14 53 29 -4 57 20 -20 23 25 28 34 -21 26 -22 -28 -23 32 -2 45 -15 -34 -6 -36 -17 -12 -19 40 41 59 43 -43 -44 -32 -16 48 -30 -49 51 -11 -1 -13 -47 56 -7 -8 -57 60 -40 -62
right_child=1 7 8 4 6 10 17 11 -10 50 37 12 -14 15 46 36 -18 38 19 24 21 22 -24 -25 -26 -27 27 -29 47 -31 31 -33 33 -35 35 -37 -38 -39 39 -41 -42 42 44 -45 -46 54 -48 49 -50 -51 -52 -53 -54 -55 -56 58 -58 -59 -60 -61 61 -63
leaf_value=-0.033791934445960861 -0.028604947027424069 -0.0027070937189677706 -0.01805624590609604 -0.005891802135887819 -0.02065821932072897 0.010594846350486626 0.052205785989388846 0.07103455305937921 0.0072056739010921385 0.019405935918483327 0.066178080976099618 0.010427318081151068 0.057369381466668042 0.0012379650595578751 0.037247958363181399 0.022799781958532613 -0.0096590661967688746 0.01531791730449448 0.031512231551692582 -0.010128962125792016 0.015422350164924076 0.059178707683754612 0.087312483673027574 0.10615837758335968 0.087406262976426549 0.01089677165053269 0.051571400181673242 0.0036281762031536292 -0.012997349649855867 0.075410879210793771 -0.0064097173189253493 0.072612433491454673 0.013690273535342369 0.046157092487407354 0.098522667857335766 -0.029864951100627816 0.068183326537645625 0.018196106989705581 0.095723014116675581 0.076272022017319516 0.04469708364266714 0.034271920193137781 0.0071264660233576783 0.081216019427822667 0.074278201117477141 3.4138796238645592e-05 0.066642939366372445 0.088996288905764234 0.039136906037253998 -0.025946347510669761 0.019162968008102115 0.0033540859040873867 -0.025188040913089564 0.034187547485258311 0.02351468892589802 0.0029392035297936842 -0.015377358852979443 -0.041001091613188413 0.024147161610255281 -0.015545208725857627 0.0081125026455975153 0.033898459253719003
leaf_weight=40819.164852384478 2178.4840180575848 2901.591834936291 52510.261588506401 12611.764208957553 2916.5649124905467 3217.9225779213011 3177.4906504005194 1310.1133959516883 7150.173711322248 6889.6395197287202 678.88375843316317 3591.5878492183983 2757.9652147255838 6304.863059502095 2828.8118317350745 1209.1702882871032 60714.205335713923 16487.676316514611 1646.1776714958251 6990.3350367471576 8260.0180110111833 1399.2369416952133 798.80810733884573 153.88496612012386 174.57833417132497 46897.30458343029 3160.2101911716163 999.17462987452745 1700.9918727725744 410.35158490017056 45327.568124197423 312.52733515948057 5582.9222636185586 2029.0677264556289 246.29548220708966 191.90979830548167 1831.7908247075975 10238.695281423628 235.13818707689643 671.21884959191084 3574.6592310220003 2634.4506220556796 2709.7172054760158 1189.6508335098624 420.89816502854228 67580.82419108972 3978.9060808606446 494.76354859769344 1494.9243988953531 154.87667368352413 9680.6037750057876 34300.443228606135 32557.109251113608 6696.9858586341143 2479.8714580610394 7579.3179383650422 5147.1143241934478 158.4166634529829 4577.3188274390996 1218.5070794187486 5980.4971218556166 2948.6021336838603
leaf_count=283773 12129 15546 328437 69864 15806 17134 14616 5866 41274 37050 3272 17814 12261 30983 13692 5735 367119 83577 8470 37457 43123 7232 3984 776 865 245846 16099 5211 8952 1927 262906 1697 27226 9783 1259 1012 8339 53120 1150 3061 16837 12777 13274 5632 1954 373381 17627 2484 7531 804 51089 188577 218102 31218 13562 40164 27405 810 24177 6097 30158 14390
internal_value=-2.4751e-05 0.00982645 -0.0190062 0.00731198 0.0130214 0.000331131 0.0169403 0.0299674 -0.0123204 0.00567006 0.010146 0.0324279 0.031069 0.0289644 0.0372559 0.0208027 -0.0135534 0.0244508 0.0129368 -0.000416619 0.0146452 0.0158197 0.0378852 -0.0072337 -0.00775245 0.0135716 0.0236719 0.0400544 0.0303572 0.0145763 -0.00228656 -0.00179102 0.0127825 0.0223447 -0.012435 0.042296 0.0501376 0.0211798 0.0224067 0.0278219 0.0262668 0.0224668 0.0341467 0.0488759 0.0161547 -0.00199255 0.0544284 0.0198702 0.011389 0.0615935 0.00853646 0.00603899 -0.0299744 0.0258932 0.000865257 0.00427601 -0.00538618 0.0477795 0.0109246 0.0146431 0.0186571 0.0166276
internal_weight=567073 373322 193751 331888 182569 149319 119087 41434.1 120375 63482.5 31439.3 38532.5 37222.4 34464.5 17096.3 17368.2 113224 41406.9 77680.1 8811.09 68869 65360.3 6043.6 3508.66 7164.91 59316.7 12419.4 4159.38 5244.79 14327.2 117879 115701 13916.9 7611.99 3354.77 438.205 3040.96 10917.6 38071 21583.3 20912.1 17337.5 6954.72 3824.1 3130.62 115388 6807.72 3845.56 3195.92 649.64 50870.7 41190.1 73376.3 10288.6 70060.7 20521.7 8365.04 3335.91 12156.6 10382.7 9164.24 8929.1
internal_count=3223493 1984788 1238705 1786771 957824 828947 611244 198017 736830 346580 165272 182471 176605 164344 80351 83993 695556 204333 406911 46792 360119 341266 30987 18853 38322 310279 64433 21310 27003 69919 663675 651546 67992 37009 18077 2271 14074 56392 188907 105330 102269 85432 33637 18409 15228 649849 31319 19771 16483 3288 276716 225627 501875 49032 386943 108880 44539 15426 64341 51795 45698 44548
is_linear=0
shrinkage=0.03


Tree=11
num_leaves=63
num_cat=0
split_feature=0 92 0 0 109 109 103 105 116 0 4 8 24 115 116 8 63 63 3 112 112 11 27 116 112 116 18 82 113 101 14 25 18 81 115 101 99 15 99 110 98 105 82 18 29 96 116 116 8 112 115 13 0 92 3 87 112 13 25 116 113 1
split_gain=111929 20432.2 14765.8 13837.4 7282.72 4720.51 2907.96 2766.81 2639.5 2598.76 2403.4 2067.15 2070.86 1931.56 1868.32 1858.37 1683.54 1831.79 1795.7 2139.41 3011.32 1906.16 1919.14 2112.03 1667.03 1592.91 2104.36 1564.85 1652.31 1556 1553.73 1545.64 1502.1 1456.81 1460.72 1851.33 2442.71 1937.14 1638.55 1497.07 1735.65 1705.32 1455.19 1471.34 1766.27 2079.58 1434.11 1420.27 1404.63 1493.39 1395.97 1393.33 1386.02 1375.71 1363.81 1352.43 1325.13 1322.55 1864.25 1296.65 1847.71 1698.5
threshold=5.3156630992889413 3.1918472051620488 5.995206594467164 4.3241107463836679 0.058615706861019141 0.089313931763172164 3.7147412300109868 16.403944015502933 -0.99565184116363514 6.4109966754913339 0.020752902142703537 -0.046819046139717095 1.1126868724823 0.080961603671312346 0.32781787216663366 1.884271025657654 -3.742575883865356 3.917427778244019 0.01058388873934746 0.045670194551348693 2.6933157444000249 0.066464200615882887 14.389594554901125 -0.0081596304662525636 34.339487075805671 -0.4539161324501037 45.540729522705085 0.69391232728958141 1.3868447542190554 13.904648780822756 0.089549113065004363 5.64626169204712 9.4605498313903826 0.87619513273239147 0.13048618286848071 4.7680413722991952 2.7878538370132451 0.061376454308629043 1.945758640766144 0.072176765650510802 3.9935513734817509 8.6184406280517596 0.52843058109283458 319.86787414550787 9.0206108093261737 3.8277268409729008 -0.22115952521562574 0.43528024852275854 0.7443901300430299 0.02391577418893576 0.17104374617338183 -0.70389950275421131 5.7021131515502939 4.4492626190185556 0.05216649733483792 1.1392108201980593 0.53875666856765758 0.052322503179311759 30.652019500732425 -0.12770936638116834 0.8012073040008546 0.31255732476711279
decision_type=2 2 2 2 2 2 2 2 2 2 2 2 2 2 2 2 2 2 2 2 2 2 2 2 2 2 2 2 2 2 2 2 2 2 2 2 2 2 2 2 2 2 2 2 2 2 2 2 2 2 2 2 2 2 2 2 2 2 2 2 2 2
left_child=3 2 5 -1 8 14 48 -5 32 51 -6 25 24 -14 52 33 -8 18 21 -20 -21 53 -23 -24 -13 26 -12 30 46 57 -27 -9 -4 34 35 37 -37 38 -11 50 41 -41 56 44 45 -44 -29 -43 49 -3 -36 -10 -2 -18 -17 -48 -7 -15 -59 61 -61 -53
right_child=1 6 4 7 10 42 16 31 9 15 11 12 13 29 -16 54 17 -19 19 20 -22 22 23 -25 -26 27 -28 28 -30 -31 -32 -33 -34 -35 39 36 -38 -39 -40 40 -42 47 43 -45 -46 -47 55 -49 -50 -51 -52 59 -54 -55 -56 -57 -58 58 -60 60 -62 -63
leaf_value=-0.030372900181859366 -0.0073226627274640705 0.02080603586145164 0.045638293721811538 -0.016137602829976727 0.043305700645253187 0.0084452489257875862 0.061983718567873908 -0.018513262140850664 -0.028416576617905601 0.086253603549514543 0.05057630401170389 0.022776509364850903 -0.035584507135812196 0.0071334447475968742 0.013303532384761773 0.050449372310348045 0.033957515619509965 0.048891420488056725 0.03836473759512251 0.00087918614731293887 0.049634775596064211 -0.025979619841389402 0.058312745959814866 -0.0153673061449462 -0.024867949789258194 0.0032706080124459062 -0.0050213575969289383 -0.0035764832277022465 -0.027421319038533648 0.05853383226815867 0.053869972830554898 -0.0025051766904129473 -0.01943936383984771 -0.018029705898079881 0.019764546828643925 0.0012468973957999784 0.017711037395065066 -0.031940331970070693 0.02897719867278184 0.06900730972639639 0.072766665999021901 -0.015755414568495198 0.016844974474970013 0.077296157154095768 -0.00098760874099030021 0.056380116951391245 0.021313658907075886 0.058501037793693214 0.065880729203834212 -0.018798352457801808 0.042156014408555285 -0.0025814100663470578 -0.00058514272561242548 0.056184726004848563 -0.040662480210293943 0.056248235941410929 -0.011026666204247896 0.07579291418506072 -0.036328185141273929 0.027259759226345985 0.0074120158376964358 0.015886925801221006
leaf_weight=66601.668182538822 56013.363097369671 1630.4616162590683 346.86216139793396 81777.686430152506 4280.1887911185622 16829.225167304277 1761.6068618148565 6855.92282599397 1048.916503354907 612.06797149777412 2057.9301788434386 18991.322888180614 278.0497329980135 1330.7592426016927 5905.7626566030085 1790.0223282054067 9054.0041345618665 4776.66166639328 3619.9379242397845 5962.0817892439663 1409.6948156617582 831.89482709392905 939.3939541913569 558.2001376375556 684.77205994352698 14091.212031763047 872.45584508031607 965.85824621468782 510.33008080720901 3288.485758908093 568.19361976161599 26071.139650471509 4004.1835021339357 1317.1323914602399 15732.652339156717 19205.392198123038 14038.763181198388 345.98134979233146 1692.6744931191206 268.36545400321484 290.93425553664565 2883.8780276179314 6928.4851696826518 362.74791770428419 3797.5608964338899 1447.6194472275674 2203.0099982470274 252.08047736808658 318.14925015345216 1806.1022543981671 2980.5688495971262 22168.121729996055 53943.961788244545 3465.2867342531681 161.17201496660709 1822.3804630227387 3868.5119250528514 708.06100237369537 164.46819506585598 4633.5377070493996 47457.232467267662 5617.5112861543894
leaf_count=465723 326638 8158 1861 516021 19914 90893 7835 41590 5688 2813 10182 93582 1399 6498 33130 9004 42701 21440 16734 28861 6429 4098 4267 2704 3397 72078 4505 4832 2564 14996 2823 154504 22060 7041 81183 100135 72453 1915 8594 1346 1329 15046 36529 1800 19663 7536 11091 1200 1515 9451 15036 120800 301685 15456 835 8905 20916 3212 769 24539 253482 30018
internal_value=-6.19811e-05 0.00909265 0.00686782 -0.0194964 0.012202 -0.000275515 0.0305668 -0.0131811 0.00876586 0.00946867 0.0217555 0.0198551 0.0257528 0.0415572 -0.00313443 0.0141133 0.033465 0.0318241 0.0286692 0.0194774 0.0102027 0.0354734 0.0105552 0.0308499 0.0211184 0.013356 0.0340234 0.010352 0.0239952 0.0454629 0.00523182 -0.00583831 -0.0142514 0.0131705 0.0138753 0.0101234 0.00819958 0.0342515 0.044188 0.0198852 0.00243549 -0.00357503 0.00969141 0.0177575 0.0159834 0.0236777 0.0292523 -0.00978639 0.00557475 -8.2361e-06 0.023331 0.00593481 -0.0040173 0.0401099 0.0429234 0.0371293 0.00480585 0.025954 0.0546585 0.0063859 0.0091775 0.00115239
internal_weight=566203 384896 348763 181306 199666 149097 36133.5 114705 146848 142497 52817.5 48537.3 25445.9 5769.82 115863 61571.7 32378.8 30617.2 25840.5 10991.7 7371.78 14848.8 2329.49 1497.59 19676.1 23091.4 2930.39 20161 5501.58 5491.77 14659.4 32927.1 4351.05 59620.5 58303.4 35894.9 33244.2 2650.72 2304.74 22408.5 3695.26 3404.32 33234.2 12536.4 12173.7 8376.1 4991.25 3135.96 3754.71 3436.56 18713.2 80925.3 109957 12519.3 1951.19 4025.39 20697.7 2203.29 872.529 79876.4 52090.8 27785.6
internal_count=3223402 2045564 1875915 1177838 1037125 838790 169649 712115 776378 752457 260747 240833 123853 26874 661453 317930 150525 142690 121250 52024 35290 69226 11069 6971 96979 116980 14687 102293 27392 25475 74901 196094 23921 308091 301050 185910 172588 13322 11407 115140 18921 17592 177337 65528 63728 44065 24828 16246 19124 17609 96219 434527 628323 58157 9839 19996 111809 10479 3981 428839 278021 150818
is_linear=0
shrinkage=0.03


Tree=12
num_leaves=63
num_cat=0
split_feature=0 92 0 0 22 105 27 0 105 4 8 78 63 100 113 63 63 25 112 16 114 5 105 114 18 11 8 5 109 108 93 113 29 114 98 25 114 5 86 105 98 114 115 93 99 105 8 113 113 103 97 25 80 115 115 18 13 82 24 29 112 18
split_gain=106358 19275.6 14370.3 12726.4 6729.91 4014.42 3286.78 2855.76 2552.3 2515.98 2920.64 2274.37 2259.55 2084.58 1815.33 1841.66 2169.54 1812.93 1736.3 1730.46 1681.2 1722.48 1676.71 2244.76 1640.18 1612.85 1547.45 2160.63 1872.68 1518.56 1501.01 1487.8 1480.84 1433.86 1362.75 1355.15 1336.03 1401.37 1380.72 1550.5 1555.05 1331.27 1335.07 1328.93 1319.29 2830.52 1401.69 1313.12 1312.97 1314.01 1311.7 1684.01 1297.11 1416.71 2021.41 1344.93 1499.39 1284.81 1257.13 1215.43 1567.94 1705.12
threshold=5.2857353687286386 3.0009452104568486 5.9725358486175546 4.2835628986358651 0.068437442183494582 17.323109626770023 4.1936147212982187 6.4305253028869638 16.403944015502933 -0.014991372823715208 -0.065927859395742403 3.6986582279205327 -0.72749885916709889 3.8816701173782353 0.432320386171341 -2.4639638662338252 3.917427778244019 21.056863784790043 6.3835914134979257 1.0292893052101137 0.24191906303167346 0.21840231865644458 17.487736701965336 0.20379876345396045 24.734180450439457 -0.044976986944675439 1.884271025657654 0.77145528793334972 0.12503272294998172 0.024793338961899284 4.2972440719604501 0.85427090525627147 9.6670970916748065 0.3139833956956864 2.8555990457534794 5.64626169204712 0.31917972862720495 -0.95246678590774525 -1.3830268979072569 8.5445604324340838 4.1350417137146005 0.23428694903850558 0.10560012608766557 1.9756923913955691 1.8672468662261965 18.973085403442386 -0.76427581906318653 0.93728089332580578 1.4495600461959841 9.8847827911376971 5.5107829570770273 32.341955184936531 -0.45694145560264582 0.13437657803297046 0.13667717576026919 9.8812122344970721 -0.065787699073553071 0.54196718335151683 0.95503133535385143 14.118290424346926 0.81301984190940868 74.336986541748061
decision_type=2 2 2 2 2 2 2 2 2 2 2 2 2 2 2 2 2 2 2 2 2 2 2 2 2 2 2 2 2 2 2 2 2 2 2 2 2 2 2 2 2 2 2 2 2 2 2 2 2 2 2 2 2 2 2 2 2 2 2 2 2 2
left_child=3 2 5 -1 7 -2 11 30 -5 -6 13 20 -7 22 -8 31 18 59 19 29 21 -3 -11 24 -24 -13 27 28 36 -17 44 -16 -19 -34 47 -10 -9 -38 -39 -40 -41 42 -15 -14 45 -4 -47 -20 -45 -50 51 -21 -46 -54 55 -55 -57 -25 -28 60 61 -12
right_child=1 6 4 8 9 12 14 26 35 10 17 25 43 41 15 16 -18 32 34 50 -22 -23 23 57 -26 -27 58 -29 -30 -31 -32 -33 33 -35 -36 -37 37 38 39 40 -42 -43 -44 48 52 46 -48 -49 49 -51 -52 -53 53 54 -56 56 -58 -59 -60 -61 -62 -63
leaf_value=-0.030356329511310363 -0.0049845530476249587 0.0073023608240241188 0.0026040326953975755 -0.016300766757683209 0.043420752695251759 -0.0063879957152950823 0.062927857570748202 0.0093457724617916314 -0.018339197687651701 -0.011537232267629812 0.020702667235042122 -0.040388457985310475 0.005344715244331848 -0.0030957189586345805 -0.00079734871690416008 0.033205538062799189 0.045774061400592397 0.055745711450855252 -0.027678679837153903 -0.01032677994714418 -0.014330322269033092 0.065906430948120903 0.076361986072495919 0.0014489643720988089 -0.004486309049146083 0.065687944539368312 0.057561422580575505 -0.027421682373703134 0.070242339840639698 0.016077406449831352 0.046775605153178849 0.0545882475608363 -0.014923384816333169 0.036975012427570939 0.062416902055718544 -0.0029939579493256227 -0.021518636199661784 0.040951116773722485 0.074213184694092604 0.012384231120166475 0.040028833779089862 0.019720801224915731 0.077683537176600218 0.012388546383380822 -0.011605414592459559 0.0084220266424360531 0.037581696501607476 0.041123344000704137 0.053057974512648633 -0.0041153272742246016 -0.030185177536843105 0.036045836425184004 0.0011529483568239502 -0.018134237675474729 0.0075399522567835501 -0.020994544001948799 0.062347563973679354 0.020441235595135849 0.0061038026593977267 -0.02886487877072428 0.034365603899068439 -0.011846469370342163
leaf_weight=62683.493948662654 86646.171037789434 2729.6836145110428 10867.56541724503 79815.344997787848 4074.2636851519346 12151.64734486863 1561.165985878557 35554.78839417547 6546.5579116344452 3571.3945355527103 11326.704661045223 150.99690666794777 36154.359951350838 235.66392733156681 493.14547749608755 9253.6885599978268 4772.1698123775423 2898.3089124336839 353.99532353878021 1463.391444735229 2918.1282299049199 540.80740990489721 773.05521980673075 9158.1219744607806 319.03582118824124 885.65042193233967 1253.6083651036024 1193.7549597471952 516.20694644376636 9381.5694370977581 765.44591946527362 3800.856138151139 626.75299893692136 2033.9423968195915 1734.5445078089833 24801.95095602423 738.76570852845907 2593.0064758397639 421.75839064270258 14188.085805114359 2102.7364801242948 2337.0468549542129 842.23588455840945 8993.254738971591 5209.8719845563173 2262.4371440894902 4310.0411990135908 847.03732395172119 1508.719017803669 475.91292957216501 866.76043853536248 1359.6095635071397 48194.000688347965 302.78226851299405 17841.37188167125 225.70205354690552 1395.5303254909813 4932.2048165015876 648.23982984945178 421.23364567011595 6748.8715101890266 1660.9010335430503
leaf_count=447610 500945 13678 58498 510201 19127 67899 6802 184203 40279 19027 56214 795 197354 1143 2335 43102 21168 13225 1693 7308 15407 2593 3760 46614 1585 4038 6141 6477 2384 44601 3773 17208 2952 9303 7688 147758 3927 12893 2093 72840 10007 11613 4008 48646 28041 11958 22101 3925 7966 2576 4198 6324 259868 1663 95398 1208 7366 24423 3255 2019 32331 8189
internal_value=-1.96559e-05 0.00864962 0.00630847 -0.0195471 0.0114795 -0.000868758 0.0275726 0.0082673 -0.0134519 0.020789 0.0188634 0.00911193 0.00514667 0.0108835 0.0312893 0.0298504 0.0272229 0.0257423 0.0237183 0.0208662 0.00222313 0.0169931 0.00695789 0.0113085 0.0527435 0.050237 0.0133995 0.012516 0.0133656 0.0245827 0.00494164 0.0482275 0.0409102 0.0247498 0.0454084 -0.00619853 0.0128375 0.0190312 0.0205829 0.0174227 0.0159525 0.0324417 0.0600226 0.00812054 0.00458823 0.012003 0.0275441 0.0208445 0.0172624 0.0393479 0.00209575 0.0120071 0.00282091 0.00392686 0.0106905 0.0399055 0.050745 0.00809706 0.0400222 0.0215594 0.0226356 0.0165402
internal_weight=565436 391589 348476 173847 202545 145930 43113.2 150586 111164 51959.7 47885.5 7225.27 59283.9 22168.8 35887.9 34326.8 30032.8 25716.7 25260.6 22325 6188.62 3270.49 18753.8 15182.4 1092.09 1036.65 59211 57309.1 56115.3 18635.3 91374.7 4294 5559 2660.7 2935.58 31348.5 55599.1 20044.4 19305.6 16712.6 16290.8 3414.95 1077.9 47132.2 90609.3 17440 6572.48 1201.03 10977.9 1984.63 3689.76 2823 73169.3 67959.4 19765.4 1924.01 1621.23 14090.3 1901.85 20157.7 19736.5 12987.6
internal_count=3223724 2077876 1875013 1145848 1049627 825386 202863 794094 698238 255533 236406 36511 324441 112173 166352 159550 140007 124233 118839 105533 31678 16271 95409 76382 5345 4833 304220 294824 288347 87703 489874 19543 25480 12255 13306 188037 285963 101760 97833 84940 82847 16764 5151 256542 486101 92557 34059 5618 59188 10542 17830 13632 393544 365503 105635 10237 8574 71037 9396 98753 96734 64403
is_linear=0
shrinkage=0.03


Tree=13
num_leaves=63
num_cat=0
split_feature=1 92 1 105 11 98 114 105 1 98 103 115 99 97 96 101 6 101 14 12 7 113 101 98 5 114 115 75 103 20 7 1 78 114 114 98 92 99 5 20 6 111 13 13 96 100 18 80 83 105 19 99 105 29 27 98 113 18 115 68 113 113
split_gain=88585.4 17480.5 14695.7 14227.1 4774.49 3895.97 3811.69 3769.27 3564.92 2611.54 2608.87 2416.53 2493.67 3253.54 2430.83 2611.96 2342.84 2304.18 2414.23 2435.24 2288.22 2542.04 2164.17 2057.8 2034.34 2033.89 1803.3 1799.42 2364.41 2119.68 1796.05 1718.92 1694.11 1655.74 3244.54 3177.17 2541.36 2237.38 1627.78 1618.19 1768.01 1665.38 1596.12 1526.38 1513.53 1626.82 2995.94 2330 1503.21 1483.13 1630.21 1890.73 1476.87 2838.95 1669.59 1647.27 1454.32 1602.17 1437.91 1429.51 1913.66 1642.24
