tree
version=v4
num_class=1
num_tree_per_iteration=1
label_index=0
max_feature_idx=212
objective=binary sigmoid:1
feature_names=log_t t_over_nhist cum_mean_z cum_mean_dev cum_logvar_ratio cum_skew cum_kurt cum_skew_diff cum_kurt_diff ewma_z_fast ewma_z_slow tail2_excess tail3_excess online_acf1 acf1_diff ks_stat ecdf_l1 below_hist_med_excess cusum_var_absmax cusum_var_absmax_n ph_mean ph_mean_n dvar_ratio_cum dvar_ratio_win dabs_ratio_cum cusum_absmax_k025 cusum_absmax_k025_n cusum_absmax_k05 cusum_absmax_k05_n cusum_absmax_k10 cusum_absmax_k10_n w25_mean_z w25_logvar w25_skew w25_kurt w25_ks w25_acf1_diff w25_l1 w25_nmz w25_nlv w25_nacf w25_nks w25_nl1 w50_mean_z w50_logvar w50_skew w50_kurt w50_ks w50_acf1_diff w50_l1 w50_nmz w50_nlv w50_nacf w50_nks w50_nl1 w100_mean_z w100_logvar w100_skew w100_kurt w100_ks w100_acf1_diff w100_l1 w100_nmz w100_nlv w100_nacf w100_nks w100_nl1 w200_mean_z w200_logvar w200_skew w200_kurt w200_ks w200_acf1_diff w200_l1 w200_nmz w200_nlv w200_nacf w200_nks w200_nl1 w400_mean_z w400_logvar w400_skew w400_kurt w400_ks w400_acf1_diff w400_l1 w400_nmz w400_nlv w400_nacf w400_nks w400_nl1 scan_nmz scan_nlv scan_nacf scan_nks scan_nl1 rm_scan_nmz rm_scan_nlv rm_scan_nacf rm_scan_nks rm_scan_nl1 pw_cusum_absmax_k025 pw_cusum_absmax_k025_n pw_cusum_absmax_k05 pw_cusum_absmax_k05_n pw_cusum_var_absmax pw_cusum_var_absmax_n pw_ewma_z pw_cum_mean_z pw_cum_logvar pw_acf1 acf1_h kurt_h null_smz64 null_slv64 null_sacf64 null_mem_slope a_nmz_w50 a_nacf_w50 d_nmz_w50 d_nacf_w50 x_nmz_w50 a_nmz_w200 a_nacf_w200 d_nmz_w200 d_nacf_w200 x_nmz_w200 a_scan_mz a_scan_acf d_scan_mz d_scan_acf x_scan_mz rm_a_scan_mz rm_a_scan_acf rm_d_scan_mz rm_d_scan_acf rm_x_scan_mz acf1_h_abs cross_rate_h hm100_nskew hm100_nkurt hm200_nskew hm200_nkurt hm400_nskew hm400_nkurt hm800_nskew hm800_nkurt hm_scan_skew hm_scan_kurt rm_hm_scan_skew rm_hm_scan_kurt null_skurt128 xw120_pit_mean_z xw120_pit_logvar xw120_pit_skew xw120_pit_tail_lo xw120_pit_tail_hi xw120_pit_below xw120_acfd1 xw120_acfd2 xw120_acfd3 xw120_acfd4 xw120_acfd5 xw120_zcr_d xw120_cumslope xw480_pit_mean_z xw480_pit_logvar xw480_pit_skew xw480_pit_tail_lo xw480_pit_tail_hi xw480_pit_below xw480_acfd1 xw480_acfd2 xw480_acfd3 xw480_acfd4 xw480_acfd5 xw480_zcr_d xw480_cumslope xc_pit_mean_z xc_pit_logvar xc_pit_skew xc_pit_below acf2_h acf3_h acf4_h acf5_h zcr_h wv120_band1 wv120_band2 wv120_band3 wv120_band4 wv120_band5 wv120_band6 wv120_coarse_z wv480_band1 wv480_band2 wv480_band3 wv480_band4 wv480_band5 wv480_band6 wv480_coarse_z wvc_band1 wvc_band2 wvc_band3 wvc_band4 wvc_band5 wvc_band6 loghE1 loghE2 loghE3 loghE4 loghE5 loghE6
feature_infos=[0:6.902742862701416] [0:0.96107786893844604] [-36.017871856689453:57.220790863037109] [-5.4674992561340332:2.9200935363769531] [-27.632013320922852:7.5888638496398926] [-27.428415298461914:31.286828994750977] [-1.9979410171508789:980.73236083984375] [-69.035858154296875:31.227977752685547] [-4781.37744140625:980.54095458984375] [-16.928289413452148:100.18418121337891] [-11.051918983459473:75.393203735351562] [-0.045499999076128006:0.95450001955032349] [-0.0027000000700354576:0.99730002880096436] [-1:1] [-1.9463772773742676:1.3083796501159668] [0.0086387433111667633:0.94999998807907104] [0.061010830104351044:9.5] [-0.5:0.5] [0:1965767.375] [0:62350.35546875] [0.0011771566933020949:1613.962890625] [0.0011771566933020949:57.567665100097656] [-13.652705192565918:7.738497257232666] [-13.652705192565918:8.177032470703125] [0.021985732018947601:7.8204770088195801] [0:1597.6737060546875] [0:56.323947906494141] [0:1584.068603515625] [0:55.720561981201172] [0:1558.068603515625] [0:54.513782501220703] [-40.860538482666016:177.12359619140625] [-27.632013320922852:8.2325305938720703] [-4.6802163124084473:4.6882295608520508] [-1.9979410171508789:20.002002716064453] [0.029999999329447746:0.94999998807907104] [-1.9980030059814453:1.3083796501159668] [0.013684210367500782:0.5] [-44.623947143554688:176.4010009765625] [-12.549131393432617:21.03559684753418] [-6.2865715026855469:15.440106391906738] [-1.8141382932662964:6.7362351417541504] [-1.6272286176681519:8.4138078689575195] [-27.688772201538086:179.38050842285156] [-27.632013320922852:8.0184783935546875] [-6.8320245742797852:6.8362689018249512] [-1.9979410171508789:44.833446502685547] [0.019999999552965164:0.94999998807907104] [-1.9463772773742676:1.3083796501159668] [0.0084210522472858429:0.5] [-29.477224349975586:170.06330871582031] [-17.087621688842773:24.635660171508789] [-7.7887206077575684:34.737815856933594] [-2.0286235809326172:9.6439886093139648] [-1.7736060619354248:11.655169486999512] [-27.381658554077148:160.42304992675781] [-27.632013320922852:9.8730993270874023] [-9.8005247116088867:9.7964458465576172] [-1.9979410171508789:94.375877380371094] [0.019999999552965164:0.94999998807907104] [-1.9463772773742676:1.3083796501159668] [0.0063157896511256695:0.5] [-21.027950286865234:125.85099792480469] [-18.148448944091797:57.256446838378906] [-12.391255378723145:15.574370384216309] [-2.3447651863098145:12.41011905670166] [-2.2948384284973145:15.833352088928223] [-33.612850189208984:112.68445587158203] [-27.632013320922852:9.1866950988769531] [-13.905098915100098:13.958314895629883] [-1.9979410171508789:193.52969360351562] [0.014450866729021072:0.94999998807907104] [-1.9463772773742676:1.3083796501159668] [0.0042105261236429214:0.5] [-14.563152313232422:87.491996765136719] [-17.316984176635742:84.682174682617188] [-15.021681785583496:15.57133960723877] [-3.4739453792572021:20.310823440551758] [-3.0900654792785645:17.750734329223633] [-36.017871856689453:78.723739624023438] [-27.632013320922852:8.4969720840454102] [-19.550130844116211:19.811077117919922] [-1.9979410171508789:391.92086791992188] [0.009677419438958168:0.94999998807907104] [-1.9463772773742676:1.3083796501159668] [0.0040789474733173847:0.5] [-17.789594650268555:64.179550170898438] [-25.374011993408203:137.39430236816406] [-17.844850540161133:16.787200927734375] [-9.0218982696533203:21.154842376708984] [-7.4893093109130859:26.84906005859375] [0:176.4010009765625] [0:137.39430236816406] [0:34.737815856933594] [0:21.154842376708984] [0:26.84906005859375] [0:248.20970153808594] [0:137.39430236816406] [0:34.737815856933594] [0:23.467130661010742] [0:28.636960983276367] [0:1414.5487060546875] [0:56.901493072509766] [0:1412.1661376953125] [0:56.298107147216797] [0:2040374.375] [0:64716.74609375] [-12.957840919494629:54.880710601806641] [-17.511434555053711:57.805244445800781] [-12.230340003967285:7.6273736953735352] [-1:1] [-0.98745697736740112:0.99800306558609009] [-1.5601110458374023:4781.78955078125] [0.090266764163970947:7.5010433197021484] [0.075311079621315002:1.7599741220474243] [0.0099999997764825821:0.47504070401191711] [-1.8279253244400024:1.3045296669006348] [-6.2869095802307129:185.54617309570312] [-6.6650853157043457:7.125361442565918] [-15.958662986755371:113.51936340332031] [-9.7737283706665039:8.5508689880371094] [-9.5443801879882812:6.3478612899780273] [-10.373622894287109:197.51777648925781] [-11.081189155578613:8.6516036987304688] [-23.445606231689453:118.45440673828125] [-15.280051231384277:13.861624717712402] [-16.468120574951172:11.28630542755127] [0:197.51777648925781] [0:11.081189155578613] [0:118.45440673828125] [0:15.280051231384277] [0:16.468120574951172] [0:330.21524047851562] [0:12.518227577209473] [0:910.96539306640625] [0:18.132160186767578] [0:19.840866088867188] [-0.33435523509979248:0.99384504556655884] [0.021733297035098076:0.95234251022338867] [-36.888717651367188:42.054275512695312] [-3.262977123260498:211.42411804199219] [-77.082015991210938:86.819877624511719] [-4.1671609878540039:571.79229736328125] [-169.13421630859375:183.88044738769531] [-6.025726318359375:2080.748046875] [-291.29400634765625:272.0325927734375] [-8.9158954620361328:5556.23779296875] [0:291.29400634765625] [0:5556.23779296875] [0:291.49246215820312] [0:5597.822265625] [0.062032785266637802:33.305770874023438] [-18.789096832275391:18.872768402099609] [-10.000651359558105:0.99804961681365967] [-6.0791735649108887:2.7354960441589355] [-0.25:0.75] [-0.25:0.75] [-0.5:0.5] [-1.9905402660369873:1.0567399263381958] [-1.9645870923995972:0.95966541767120361] [-1.9273123741149902:1.0742357969284058] [-1.95695960521698:1.10826575756073] [-1.9494616985321045:1.3541297912597656] [-0.5290178656578064:0.46242091059684753] [-2.888808012008667:13.590003967285156] [-29.299057006835938:29.223382949829102] [-5.8023381233215332:0.99804961681365967] [-3.1381566524505615:2.545229434967041] [-0.25:0.75] [-0.25:0.75] [-0.5:0.5] [-1.9905402660369873:1.0567399263381958] [-1.9645870923995972:0.95966541767120361] [-1.9273123741149902:1.0742357969284058] [-1.95695960521698:1.10826575756073] [-1.9494616985321045:1.3541297912597656] [-0.5290178656578064:0.46242091059684753] [-2.888808012008667:3.3377864360809326] [-27.619926452636719:30.188268661499023] [-25.146114349365234:1.0672390460968018] [-222.04460144042969:444.08920288085938] [-0.5:0.5] [-0.98329895734786987:0.99504786729812622] [-0.96567064523696899:0.98983985185623169] [-0.94997942447662354:0.98412400484085083] [-0.95648926496505737:0.98411089181900024] [0.16695059835910797:0.96355140209197998] [-26.782264709472656:9.7721652984619141] [-25.371908187866211:9.6654434204101562] [-24.984403610229492:9.5694417953491211] [-24.644540786743164:9.5161352157592773] [-24.308305740356445:9.4961862564086914] [-23.974124908447266:9.4927978515625] [-7.0200924873352051:16.21354866027832] [-26.782264709472656:8.3860301971435547] [-25.371908187866211:8.2793216705322266] [-24.984403610229492:8.1833305358886719] [-24.644540786743164:8.1300296783447266] [-24.308305740356445:8.110081672668457] [-23.974124908447266:8.1066923141479492] [-7.0200924873352051:16.21354866027832] [-26.782264709472656:7.6583099365234375] [-25.371908187866211:7.5516338348388672] [-24.984403610229492:7.4556660652160645] [-24.644540786743164:7.4023690223693848] [-24.308305740356445:7.3824176788330078] [-23.974124908447266:7.3790264129638672] [-6.152651309967041:-0.80999648571014404] [-6.4005374908447266:-2.0952255725860596] [-6.7323474884033203:-2.6466183662414551] [-7.6758203506469727:-2.9864802360534668] [-9.3045749664306641:-3.3181679248809814] [-10.878171920776367:-3.4505014419555664]
tree_sizes=3467 3569 3565 3591 3565 3591 3563 3588 3583 3571 3577 3569 3611 3589 3594 3587 3592 3602 3618 3587 3594 3591 3588 3590 3599 3589 3584 3605 3589 3622 3582 3591 3602 3598 3609 3617 3621 3594 3608 3595 3616 3604 3616 3594 3631 3594 3641 3629 3611 3634 3614 3628 3636 3610 3616 3622 3618 3614 3600 3626 3623 3645 3609 3612 3596 3631 3615 3620 3619 3603 3593 3635 3615 3630 3624 3574 3609 3615 3603 3631 3639 3613 3620 3635 3605 3647 3626 3624 3595 3637 3634 3606 3609 3621 3626 3643 3621 3625 3641 3594 3639 3588 3626 3642 3607 3630 3617 3630 3608 3631 3625 3603 3593 3604 3645 3615 3638 3617 3622 3636 3616 3644 3604 3619 3625 3576 3610 3627 3635 3595 3631 3609 3639 3593 3631 3619 3624 3604 3632 3619 3634 3589 3612 3607 3581 3606 3598 3625 3641 3601 3643 3639 3596 3600 3605 3612 3599 3616 3609 3631 3631 3604 3602 3599 3613 3621 3607 3619 3614 3613 3648 3595 3625 3620 3578 3600 3606 3610 3638 3585 3600 3644 3627 3616 3608 3589 3582 3619 3571 3642 3601 3574 3606 3621 3617 3604 3581 3561 3613 3618 3631 3601 3591 3623 3596 3630 3635 3602 3614 3600 3612 3629 3612 3638 3633 3567 3600 3598 3568 3642 3639 3590 3622 3606 3580 3588 3609 3617 3631 3606 3580 3601 3627 3596 3614 3597 3644 3607 3608 3586 3578 3647 3627 3599 3635 3613 3616 3622 3586 3620

Tree=0
num_leaves=31
num_cat=0
split_feature=0 194 0 0 150 0 187 87 75 146 114 27 183 0 27 105 5 75 184 174 105 132 11 29 0 115 6 147 150 205
split_gain=260729 53590.1 36281 25032.5 9570.5 9197.42 7800.39 7105.88 6607.98 4894.03 4831.65 4847.76 4638.31 4420.77 4090.38 4038.49 4261.05 3913.52 3935.45 3736.19 3536.98 3402.64 4330.12 3206.94 3078.96 3039.3 2981.94 2864.9 2855.19 2850.25
threshold=5.5587549209594735 0.15167421847581866 4.6774799823760995 6.2275238037109384 7.8640778064727792 6.2567088603973398 0.27470600605010992 -3.068927407264709 -2.838849544525146 3.5404983758926396 0.18850522488355639 10.7475643157959 -0.55705982446670521 4.0342013835906991 3.845868825912476 16.243619918823246 0.48581437766551977 2.3093385696411137 0.09308259561657907 -0.14398388564586637 16.993271827697757 1.4829984903335574 -0.025879324413835999 4.8845806121826181 5.2012517452239999 0.1524927616119385 -0.20659177750349042 3.2102605104446416 2.6230267286300664 0.40954394638538366
decision_type=2 2 2 2 2 2 2 2 2 2 2 2 2 2 2 2 2 2 2 2 2 2 2 2 2 2 2 2 2 2
left_child=2 3 13 8 7 17 24 14 -2 20 -7 25 -9 -1 26 27 21 19 -19 -3 -10 -17 -23 -21 -4 -12 -5 -14 -13 -30
right_child=1 5 6 4 -6 10 -8 12 9 -11 11 28 15 -15 -16 16 -18 18 -20 23 -22 22 -24 -25 -26 -27 -28 -29 29 -31
leaf_value=-1.1956156491666066 -1.1176618337307085 -1.0852481797279037 -1.1768007395297679 -1.0707861878084446 -1.1062920246384895 -1.0637422431388333 -1.1527505127680071 -1.1009945038176083 -1.1605707330121082 -1.1298756998437451 -1.1311166514281947 -1.120487786138493 -1.150529344917852 -1.1850575694470502 -1.0917595359997307 -1.1050336290888501 -1.1622330365972962 -1.1057811461135114 -1.1566688200514217 -1.1507239103249629 -1.151811776443632 -1.160791228371814 -1.1349413179893455 -1.1284507908654093 -1.1684065202431324 -1.0860642935817191 -1.1671819298068944 -1.1187242327035194 -1.1044438191631141 -1.0750385084014789
leaf_weight=77349.22489765659 4084.8832661621273 1285.9057673513889 80402.51540197432 365.14423809945583 7747.2455486357212 2248.8783200196922 19876.894438970834 2435.6544554196298 106777.9042217508 6120.0746490508318 9575.7694171667099 4180.1125225163996 51989.932296317071 66359.498902786523 4087.8822404034436 3038.8663825392723 6100.4377288743854 9117.0935225561261 1610.7583280801773 9984.5241963379085 67857.354051560163 6475.2186708189547 58509.663019623607 13959.459599357098 77029.228833649307 1569.5578697510064 1365.1550342813134 2680.1454027630389 6870.2326954640448 5250.9063884839416
leaf_count=439138 22726 7186 454792 2029 43196 12411 112943 13568 598323 34368 53409 23326 290603 378098 22780 16878 33986 50782 9050 55983 380689 36353 327118 78387 433871 8853 7564 14918 38370 29210
internal_value=-1.15945 -1.14314 -1.17954 -1.14807 -1.13873 -1.11839 -1.17046 -1.14057 -1.15539 -1.15624 -1.10603 -1.1095 -1.14201 -1.19074 -1.10812 -1.14278 -1.13822 -1.1286 -1.11342 -1.13506 -1.15717 -1.13607 -1.13752 -1.13774 -1.17269 -1.12476 -1.14682 -1.14897 -1.09908 -1.0917
internal_weight=716306 395289 321017 329636 144795 65653.2 177309 137048 184840 180755 29695.5 27446.6 131230 143709 5818.18 128794 74124.2 35957.7 10727.9 25229.9 174635 68023.7 64984.9 23944 157432 11145.3 1730.3 54670.1 16301.3 12121.1
internal_count=4030908 2212066 1818842 1845099 808993 366967 1001606 765797 1036106 1013380 165579 153168 733424 817236 32373 719856 414335 201388 59832 141556 979012 380349 363471 134370 888663 62262 9593 305521 90906 67580
is_linear=0
shrinkage=1


Tree=1
num_leaves=31
num_cat=0
split_feature=0 194 0 0 149 0 92 109 127 196 8 147 0 185 171 97 3 27 116 150 18 192 116 161 63 29 183 0 172 103
split_gain=245305 49080 32674.2 24741.7 11489.8 8712.42 7576.66 7009.74 6811.61 4737.81 4585.72 4412.94 4070.79 3880.56 3853.77 3835.88 3351.04 3334.43 3105.11 2937.12 2894.18 2759.36 2570.48 2543.17 2522.42 2484.82 2439.5 2435.1 2424.42 2329.56
threshold=5.5234570503234872 0.15167421847581866 4.6491756439208993 6.2136070728302011 6.1688113212585458 6.2136070728302011 3.0915244817733769 0.14946553111076358 2.6940963268280034 0.14834893494844439 -0.24502869695425031 2.2104756832122807 3.979637980461121 -0.14407480508089063 -0.054353013634681695 3.0962613821029668 0.045544115826487548 3.7945367097854619 0.30159682035446173 2.6012324094772343 17.012168884277347 1.4428369402885439 -0.60613191127777089 -0.22826025635004041 2.5732692480087285 4.8845806121826181 -0.090656369924545274 5.1149907112121591 0.062416756525635726 3.656899213790894
decision_type=2 2 2 2 2 2 2 2 2 2 2 2 2 2 2 2 2 2 2 2 2 2 2 2 2 2 2 2 2 2
left_child=2 3 12 8 6 15 9 27 11 14 19 20 -1 -12 -5 23 -6 -8 21 -7 -2 22 -15 -3 -9 -25 -17 -4 -16 -30
right_child=1 5 7 4 16 10 17 24 -10 -11 13 -13 -14 18 28 26 -18 -19 -20 -21 -22 -23 -24 25 -26 -27 -28 -29 29 -31
leaf_value=-0.036025670951376501 -0.0030890577230713772 0.066081901501287343 -0.018683613430996619 0.026712256113928148 0.076341891870419384 0.019484970656111624 0.0092745971802174251 -0.001519178773893876 0.034187524353827749 0.040464768346900139 0.015362232229525399 0.013874216523078535 -0.025682293068963316 0.092324411652009455 0.011119567577004408 0.0058836640140425885 0.011676586354265758 0.054674198809006334 0.10451249532596356 0.052896893070902791 0.0051325863272112231 0.10131767670638897 0.051334189358258724 0.0037017177014005871 0.024853507457840041 0.027188257020563378 0.041355755994961586 -0.010730624463589631 0.06537370796221989 0.020904474643336481
leaf_weight=71897.310592975467 89931.303022775799 932.16170235723257 61962.411594677716 21493.675731178373 4035.4216052368283 6078.6815992593765 1845.0760265402496 26075.137743566185 6238.5348337180912 6990.4157414287329 1862.6729088500142 25555.791261404753 65485.526953078806 1501.3127461820841 94890.746180664748 1953.4126877337694 880.01614673063159 6941.4384462051094 1356.2035372853279 3884.6771195866168 67422.989156927913 1218.0555061064661 17041.829119067639 8331.7170530408621 3729.8304010815918 7902.4783612713218 16533.041960146278 78690.670498583466 1161.7881792336702 12156.671003043652
leaf_count=415856 504108 5084 353773 118928 22067 33223 10172 148093 34531 38794 10143 143074 378629 8010 525404 10816 4763 37747 7325 21008 376827 6578 92558 46397 21128 43662 90853 446008 6339 67322
internal_value=1.03683e-05 0.0152608 -0.0202088 0.0105847 0.0196665 0.0384063 0.0181417 -0.011434 0.00336336 0.0164054 0.0495304 0.00231169 -0.0310958 0.0569028 0.0151081 0.0281257 0.0647756 0.0451463 0.0605646 0.0325192 0.000433563 0.0575418 0.0546593 0.0179091 0.00178085 0.0151373 0.0376097 -0.0142345 0.0128027 0.0247905
internal_weight=715981 408140 307841 339544 150395 68596.2 145480 170458 189149 136693 32943.4 182910 137383 22980.1 129703 35652.8 4915.44 8786.51 21117.4 9963.36 157354 19761.2 18543.1 17166.4 29805 16234.2 18486.5 140653 108209 13318.5
internal_count=4029220 2265733 1763487 1890076 831536 375657 804706 969002 1058540 756787 178845 1024009 794485 124614 717993 196812 26830 47919 114471 54231 880935 107146 100568 95143 169221 90059 101669 799781 599065 73661
is_linear=0
shrinkage=0.03


Tree=2
num_leaves=31
num_cat=0
split_feature=1 92 105 1 150 11 25 105 114 1 20 172 149 191 114 112 92 23 25 136 116 98 183 87 116 1 149 174 145 136
split_gain=199113 47170 33086.4 25839.4 10298.3 7934.24 7732.66 7037.16 7015.08 6495.55 5815.44 5760 3860.97 3772.81 4462.75 5513.8 5423.13 4574.95 3673.76 3657.77 3935.7 3387.57 3168.3 3165.11 3055.16 3023.61 2942.16 2871.62 2804 2733.95
threshold=0.07310155034065248 3.0362141132354741 16.243619918823246 0.030007544904947284 6.5432918071746835 -0.026527239009737965 5.0328752994537362 16.011495590209964 0.38776849210262304 0.13482538610696795 41.712341308593757 -0.12138276547193526 3.280022501945496 2.1701229810714726 0.23801340162754062 6.283241033554078 4.7743031978607187 -1.6355755329132078 9.3120179176330584 2.0129028558731084 0.6128235161304475 4.1918027400970468 -0.55705982446670521 1.615655839443207 0.31420589983463293 0.01454298757016659 5.5024085044860849 -0.079785697162151323 -2.9096165895462032 3.0186265707015996
decision_type=2 2 2 2 2 2 2 2 2 2 2 2 2 2 2 2 2 2 2 2 2 2 2 2 2 2 2 2 2 2
left_child=3 2 10 25 5 24 26 -5 -6 -7 28 27 -12 14 16 17 -8 -16 21 -13 22 -10 -21 -24 -4 -1 -3 -11 -2 -20
right_child=1 6 4 7 8 9 13 -9 18 11 12 19 -14 -15 15 -17 -18 -19 29 20 -22 -23 23 -25 -26 -27 -28 -29 -30 -31
leaf_value=-0.035786669979405307 0.030346509713881257 -0.01005658061235881 -0.0047263970339248337 -0.016691813203464648 0.023151259707205028 0.0089412430668527366 0.043290258645553269 -0.0027957810351218744 0.0072379798624010588 0.077975630051453484 0.006633063323009559 0.0042770491356465996 0.034998371845436686 0.093335301327225159 0.097449564015031492 0.069749584394508221 0.078120295369120005 0.023793888879776934 0.057737536301072499 0.062353716397145327 0.093568550103343917 0.10655883522912182 0.018271477570901147 0.033707233249887961 0.035040088847243481 -0.026167206708137467 0.071200510728743963 0.030424071011646823 -0.0033100820744458252 0.10248873947159884
leaf_weight=58896.397869750857 2260.3729843646288 3307.456894107163 21561.580790147185 101528.37328346819 13156.798438213766 57732.195048801601 13976.246056709439 48459.698608577251 1770.4325823932886 2297.36790471524 31703.154808185995 11932.545956324786 5000.1374940499663 1387.5763602182269 793.35156057775021 3204.5087244473398 5658.3533884994686 17252.952087979764 4405.3951963149011 1668.5492796935141 684.11355769634247 373.69379547983408 77947.176035448909 14130.476067554206 1890.2155322507024 58855.795075722039 455.35443412140012 2283.5778029821813 149491.81461993605 1711.4710532948375
leaf_count=346451 12417 18165 119894 583054 71661 320835 75394 275886 9685 12220 177015 65806 27586 7259 4203 17110 29773 93339 23725 9088 3724 1980 428271 76552 10400 344826 2424 12528 838548 9148
internal_value=7.64654e-06 0.0122393 0.00894504 -0.0204606 0.0170302 0.0148302 0.041004 -0.0122024 0.0367627 0.0171034 -0.00021645 0.0213504 0.010499 0.0446722 0.0430177 0.0334838 0.0533327 0.0270388 0.0584317 0.0199309 0.0219086 0.0246039 0.0213844 0.020641 -0.00151858 -0.0309791 -0.000199026 0.0542898 -0.00280837 0.0702783
internal_weight=715777 448037 402001 267740 213546 192128 46035.8 149988 21417.8 168676 188455 110944 36703.3 42273 40885.4 21250.8 19634.6 18046.3 8260.99 106363 94430.3 2144.13 93746.2 92077.7 23451.8 117752 3762.81 4580.95 151752 6116.87
internal_count=4028967 2478750 2231083 1550217 1175517 1059318 247667 858940 116199 929024 1055566 608189 204601 227078 219819 114652 105167 97542 44538 583441 517635 11665 513911 504823 130294 691277 20589 24748 850965 32873
is_linear=0
shrinkage=0.03


Tree=3
num_leaves=31
num_cat=0
split_feature=0 127 0 0 22 149 109 109 132 174 130 184 137 199 0 132 101 196 147 159 137 0 184 0 87 182 173 99 96 132
split_gain=220539 39694.8 30842.8 24192.9 12939 7437.25 7116.96 6432.5 5475.53 4850.03 4205.88 3855.52 3823.6 3529.98 3358.85 2931.4 3155.78 2930.05 2911.17 2730.43 2599.74 2588.01 2564.31 2552.72 2424.06 2349.48 2388.02 2357.31 2646.41 2335.87
threshold=5.5234570503234872 2.3300687074661259 4.5900437831878671 6.1537954807281503 0.088827285915613188 6.1688113212585458 0.079956289380788817 0.14525839686393741 3.185400247573853 -0.098769374191761003 2.5261963605880742 0.24286191910505298 0.022794089280068878 1.8385295271873476 3.9219243526458745 1.5205583572387698 12.326199531555178 0.18063656985759738 2.0897089242935185 -0.14062620699405667 0.011856966186314823 5.1149907112121591 -0.11614128947257994 5.1149907112121591 -1.5534262657165525 0.0021644851658493285 0.12902285158634189 1.7813361287117007 3.7507798671722417 3.103832602500916
decision_type=2 2 2 2 2 2 2 2 2 2 2 2 2 2 2 2 2 2 2 2 2 2 2 2 2 2 2 2 2 2
left_child=2 3 14 6 5 10 18 23 -3 -6 15 12 -10 22 -1 -5 20 -18 -2 -8 -17 -9 -14 -4 -13 26 27 -22 -29 -27
right_child=1 8 7 4 9 -7 19 21 11 -11 -12 24 13 -15 -16 16 17 -19 -20 -21 25 -23 -24 -25 -26 29 -28 28 -30 -31
leaf_value=-0.035593845499052083 -0.0018074950640730482 0.022053537052857231 -0.018446768216192004 0.030945657599689844 0.06733203087233848 0.055718200465821356 0.035463329945697425 -0.0080837741501598448 0.060533361640289246 0.030739606304355266 0.035196597708487716 0.075585116858419635 -0.0048299913207911788 0.083898033893433657 -0.025776768104181027 -0.00059214426222907901 0.017049755099628201 0.055219814190616723 0.010043705849681962 0.011539338162128217 0.041090715880092873 0.0089817673348964334 0.039385368730150028 -0.010436855709514033 -0.001122022368282293 0.0037196557707744682 0.089743278719502995 0.010064662631369497 0.037764213795822399 0.024679173519869077
leaf_weight=65403.381130162627 123046.6036224775 12795.483171001077 66539.65011221543 7010.9132676497102 3616.4182232990861 3819.5530571825802 4967.4468310624361 15484.82979631424 12804.027960948646 33232.632787443697 7471.3688961751759 438.51844351366162 1254.7691370695829 1533.4492099434137 60378.43658631295 22373.442169085145 27998.520330648869 1935.2789737358689 21987.031126547605 31706.931369535625 3115.2235053665936 16538.221958804876 19573.436454601586 77609.271600436419 2365.9836065508425 36731.051617771387 403.21858409047127 24489.071136698127 3555.5239692516625 5502.6581462100148
leaf_count=392600 688936 69485 386846 38138 18780 19907 27093 88974 66879 177080 40517 2319 6671 7729 358883 122432 152668 10435 121946 174053 17035 92980 103312 443797 12855 201312 2217 134449 19371 29862
internal_value=-4.10312e-05 0.014186 -0.0195346 0.0107106 0.0184655 0.014416 0.00297481 -0.0114327 0.0390331 0.0343334 0.0132932 0.0447535 0.0474534 0.0399603 -0.0308819 0.0120634 0.0110131 0.0195203 -1.05948e-05 0.0147815 0.00836472 0.000728749 0.0367201 -0.0141346 0.0108841 0.0110806 0.0172731 0.0163315 0.0135787 0.00645172
internal_weight=715682 413729 301954 362963 181255 144406 181708 176172 50765.7 36849.1 140586 37970.2 35165.7 22361.7 125782 133115 126104 29933.8 145034 36674.4 96170.2 32023.1 20828.2 144149 2804.5 73796.7 31563 31159.8 28044.6 42233.7
internal_count=4029561 2265481 1764080 1996231 984203 788343 1012028 1012597 269250 195860 768436 199765 184591 117712 751483 727919 689781 163103 810882 201146 526678 181954 109983 830643 15174 404246 173072 170855 153820 231174
is_linear=0
shrinkage=0.03


Tree=4
num_leaves=31
num_cat=0
split_feature=0 92 0 105 0 195 25 0 92 149 6 202 133 174 100 174 171 5 114 92 0 97 83 135 211 138 145 116 151 208
split_gain=208661 38329.5 25879.4 25075.3 12157.4 8131.07 6394.16 5847.11 5128.25 5026.84 4485.73 4110.75 4062.42 4147.82 4021.13 3914.63 3537.13 3121.24 3406.65 3119.73 3086.4 2987.5 2958.92 2746.21 2729.26 3823.99 2560.57 2866.3 2558.17 2579.12
threshold=5.4488878250122079 3.0362141132354741 4.49422311782837 16.243619918823246 6.105907917022706 0.098680015653371825 5.0328752994537362 6.2719328403472909 2.75413990020752 6.1688113212585458 6.2004354000091562 0.11614717915654184 2.9725922346115117 0.086357843130826964 2.9424637556076054 -0.10472519695758818 -0.030152821913361546 -0.40170364081859583 0.23801340162754062 5.6469459533691415 5.0205800533294687 2.1045818328857426 0.049937343224883086 3.6896090507507329 -5.0481636524200431 0.51395791769027721 -2.7422188520431514 -0.26869370043277735 6.3341579437255868 -2.9181706905364986
decision_type=2 2 2 2 2 2 2 2 2 2 2 2 2 2 2 2 2 2 2 2 2 2 2 2 2 2 2 2 2 2
left_child=2 3 -1 7 11 9 -3 26 20 10 16 -5 17 14 -14 -7 23 -8 19 -19 -4 -18 -9 -6 25 -16 27 -2 29 -20
right_child=1 6 8 4 5 15 12 22 -10 -11 -12 -13 13 -15 24 -17 21 18 28 -21 -22 -23 -24 -25 -26 -27 -28 -29 -30 -31
leaf_value=-0.031384939078456617 -0.01734024076805361 -0.00031797739791070801 -0.018668664830474316 0.0039141130724599871 0.023898798298716301 0.063784395729259744 0.070755546585020049 0.0044030236957009836 0.008720646434404478 0.05270170179016187 -0.0039889335913311924 0.017921219409338735 0.039554385082087029 0.018150228539495057 -0.030256350126555018 0.031561494857534608 0.038281675165773993 0.03527240748131133 0.077257991895807107 0.078050205946501569 -0.010230009422151696 0.012419346222418814 0.019411294719556643 0.051361420600349372 0.07751640198317003 0.067862711694150812 -0.002580929371452604 0.056870802952920005 0.062491770713041836 0.010375184096430205
leaf_weight=112602.99759623036 716.29469871520996 3464.6661230735481 71424.633650511503 61265.152718953788 21521.583589613438 3816.349895298481 1898.6782888248563 31162.436647776514 9425.0092548578978 3618.9351492077112 8573.4687455222011 27246.111562006176 6229.2286102101207 2700.1406727693975 540.89025665447116 30796.55185643211 4374.305049803108 9061.7518795765936 548.53899425268173 1849.5070060752332 86014.047270275652 49732.477375205606 19056.686264354736 3869.3012389205396 8111.907445024699 1048.6763718165457 122729.50876775011 1347.6302028298378 1089.9665146097541 9382.3648192994297
leaf_count=685548 3899 18629 420110 339650 115558 19367 9793 170605 53566 18474 46808 148064 32437 13985 2801 161524 23445 46980 2896 9168 494954 268755 103958 20619 41000 5470 689078 7402 5498 49214
internal_value=-3.78048e-05 0.0129389 -0.0202716 0.0098848 0.0167525 0.0227271 0.0388611 0.00145502 -0.0127718 0.0180493 0.0166245 0.00822636 0.0420586 0.0525574 0.0583858 0.0351169 0.018848 0.0338475 0.0306479 0.0425327 -0.0140586 0.0145114 0.0100991 0.0280868 0.0704688 0.0344583 -0.00202332 0.0311051 0.0188758 0.0140799
internal_weight=715220 435753 279467 389827 214814 126303 45926.3 175013 166864 91690.1 88071.1 88511.3 42461.7 18630.8 15930.7 34612.9 79497.7 23830.8 21932.1 10911.3 157439 54106.8 50219.1 25390.9 9701.47 1589.57 124793 2063.92 11020.9 9930.9
internal_count=4029255 2375077 1654178 2137206 1162264 674550 237871 974942 968630 493659 475185 487714 219242 95693 81708 180891 428377 123549 113756 56148 915064 292200 274563 136177 49271 8271 700379 11301 57608 52110
is_linear=0
shrinkage=0.03


Tree=5
num_leaves=31
num_cat=0
split_feature=105 98 92 92 98 105 15 101 19 15 105 135 101 174 92 122 151 18 101 134 137 30 116 116 150 147 115 149 6 96
split_gain=113895 40712.5 21420.1 20053.6 14628.7 12075.6 8778.36 8273.86 6901 6195.31 5399.48 4624.06 4455.47 4344.43 5096.04 4162.94 4025.03 4219.13 3993.42 3945 3840.89 5112.8 3484.48 3446.89 3959.58 3259.33 3308.73 3142.89 3079.13 3072.34
threshold=16.243619918823246 2.1530309915542607 2.75413990020752 3.0915244817733769 3.0693058967590336 6.7042539119720468 0.055386917665600784 5.3892180919647226 0.71431112289428722 0.099937964230775847 177.81771087646487 2.2331011295318608 7.6668918132781991 0.086357843130826964 4.222149372100831 1.3894270062446596 11.878379821777346 72.761459350585952 13.85415029525757 2.6363960504531865 0.011856966186314823 0.38990527391433721 0.47089006006717687 -0.025633800774812695 2.6423790454864506 3.1251571178436284 0.13347564637660983 2.9397720098495488 -0.981836438179016 3.9777338504791264
decision_type=2 2 2 2 2 2 2 2 2 2 2 2 2 2 2 2 2 2 2 2 2 2 2 2 2 2 2 2 2 2
left_child=1 9 4 5 6 -3 15 -4 25 -1 19 -8 -10 14 -9 16 17 -2 -13 -6 22 23 29 -22 -25 26 -7 -5 -27 -21
right_child=2 3 7 27 10 8 11 13 12 -11 -12 18 -14 -15 -16 -17 -18 -19 -20 20 21 -23 -24 24 -26 28 -28 -29 -30 -31
leaf_value=-0.018473272709253676 0.0085178135032641378 -0.020321229724271177 -0.01518060540165634 0.022217951996861274 -0.0015633102885215162 -0.0021816954683422903 -0.011359466666167741 0.031094144584022654 -0.015405280531195291 -0.031718433535085515 0.049209914745066245 -0.0022998930000624053 -0.0023739387439692685 0.01343874522450317 0.05402653823754041 0.028489084683828415 -0.010399340165753793 0.031758889113615095 0.017787552789595568 -0.00054964112832184525 0.021061812796525432 0.0044820810259219987 0.095955128164895653 0.023095971397150566 0.04956306794306807 0.10953868329382449 0.0092662434334370141 0.0539054293729333 0.019643039037889824 0.034720198727226162
leaf_weight=69243.781611517072 68181.63610907644 43419.356373354793 3206.8832788467407 9066.4082708545029 8451.5781648084521 87093.819109022617 32328.281945023686 26971.541804436594 48577.941636435688 58786.539480961859 5260.8111852928996 29859.056230369955 45960.648287825286 7371.7100130021572 12903.32170779258 10758.349713459611 8905.8879865147173 7838.8986743763089 12691.515855580568 13747.909907940775 31214.53869413957 10630.397364411503 388.42457868531346 9748.8200728669763 10659.037954434752 376.33144794777036 30740.908041033894 4091.9257728047669 3795.83842651546 2650.1689890734851
leaf_count=409057 372453 258525 17618 47893 46946 487622 186908 140978 283785 362441 26989 167469 260709 38675 64710 57673 49308 41663 68558 74789 167179 57529 2054 52614 56239 1961 172619 20887 20433 14107
internal_value=-6.45189e-06 -0.0105964 0.0135328 -0.00405283 0.0101014 -0.00588183 0.00488672 0.0314398 -0.00298638 -0.0245554 0.0196903 -0.00280649 -0.0090704 0.034605 0.0385169 0.0109074 0.0086795 0.0109151 0.00369114 0.0179144 0.0199975 0.0234319 0.00725894 0.0273334 0.036923 0.00172769 0.000804659 0.0320776 0.0277832 0.00515042
internal_weight=714922 401153 313769 273123 263315 259965 170564 50453.5 216545 128030 92751.7 74878.9 94538.6 47246.6 39874.9 95684.8 84926.4 76020.5 42550.6 87490.9 79039.3 62252.8 16786.5 51622.4 20407.9 122007 117835 13158.3 4172.17 16398.1
internal_count=4030391 2325932 1704459 1554434 1442478 1485654 944032 261981 1227129 771498 498446 422935 544494 244363 205688 521097 463424 414116 236027 471457 424511 333561 90950 276032 108853 682635 660241 68780 22394 88896
is_linear=0
shrinkage=0.03


Tree=6
num_leaves=31
num_cat=0
split_feature=0 194 0 0 149 0 93 105 146 114 116 75 132 198 133 151 132 75 184 151 0 25 3 0 209 174 0 166 163 113
split_gain=189358 34719.3 26242.8 19971.9 8173 6389.74 5122.55 4364.85 4258.31 4173.44 3970.48 3372.97 3301.24 4681.95 3269.75 3483.47 3125.62 2982.15 3198.36 2953.84 2853.92 2839.56 2792.4 2750.27 2730.6 2466.41 2435.67 2404.44 2399.22 2357.38
threshold=5.4743669033050546 0.15167421847581866 4.5271940231323251 6.1727433204650888 6.1688113212585458 6.112574815750123 3.4760857820510869 16.509716987609867 3.5404983758926396 0.18850522488355639 0.29050478339195257 -2.838849544525146 2.8753180503845219 -0.15794667601585385 3.7143738269805913 3.2899802923202519 1.5205583572387698 2.3093385696411137 0.09308259561657907 0.35846865177154547 5.8391859531402597 6.1144785881042489 0.045544115826487548 3.9219243526458745 -3.9708436727523799 -0.14398388564586637 6.4808106422424325 0.11107782647013666 0.041691239923238761 1.3467521071434023
decision_type=2 2 2 2 2 2 2 2 2 2 2 2 2 2 2 2 2 2 2 2 2 2 2 2 2 2 2 2 2 2
left_child=2 3 23 8 6 17 12 -4 11 -7 14 -2 16 21 15 29 -5 25 -19 -15 -13 -14 -6 -1 -21 -3 -18 -16 -28 -11
right_child=1 5 7 4 22 9 -8 -9 -10 10 -12 20 13 19 27 -17 26 18 -20 24 -22 -23 -24 -25 -26 -27 28 -29 -30 -31
leaf_value=-0.034676800747520296 0.028672872930646218 0.055435152565590652 -0.014987205316322201 0.029888033962007534 0.060689437592008823 0.071334374267943881 0.042607916318936019 -0.004556277652692166 0.02560680902314437 0.018961754825465162 0.06999234988475489 -0.0036291513257728229 0.0045893247784325377 0.00077519002374810313 0.034625219351947845 0.048108970727969644 0.0055532203099028735 0.041559885818346805 -0.0062501768998402783 0.045784497403475025 0.0039687860489205223 0.0426755484605566 0.006060003750381124 -0.025248989972801297 0.016408631314718081 0.012961518453979888 0.01423863603689378 0.072680746589508294 0.08296904028050954 0.043368386359152522
leaf_weight=61979.114201020449 3856.6639993302524 1301.6559775844216 115113.494795084 7205.3595295213163 4758.0766271986067 3245.7194518446922 5722.9987418651581 52619.014225389808 6512.349816095084 18747.330562520772 2850.7600165084004 85627.752985123545 2129.9813705459237 9895.1209242604673 3033.8099716566503 6748.2045633271337 59742.44979500398 8753.6972509399056 1469.3562718294561 3238.9422010928392 92615.368959289044 10248.819815836847 1024.951780512929 50670.539997871965 23659.300947982818 22411.996247187257 41246.781813241541 2958.8403581827879 461.47042376548052 4401.0480050444603
leaf_count=392608 19778 6720 680794 38000 23269 15514 29712 302654 34923 94881 13869 481836 11327 52479 15093 33841 322988 43881 7767 17091 512535 53265 5137 314293 125239 120051 221201 14420 2435 22045
internal_value=-2.20729e-05 0.0123953 -0.0192371 0.00848674 0.0159656 0.0308222 0.0147258 -0.0117152 0.0017721 0.0386479 0.0359068 0.000919409 0.0137143 0.0201647 0.0331966 0.0291384 0.0107947 0.0211388 0.0346853 0.0147931 0.000318579 0.0361255 0.0510151 -0.0304366 0.0199486 0.0152964 0.0094381 0.0534289 0.0150018 0.023605
internal_weight=714251 433869 280382 357946 169334 75922.4 163551 167733 188612 41985.7 38740 182100 157828 49172.2 35889.2 29896.6 108656 33936.7 10223.1 36793.4 178243 12378.8 5783.03 112650 26898.2 23713.7 101451 5992.65 41708.3 23148.4
internal_count=4029646 2339297 1690349 1951215 902143 388082 873737 983448 1049072 209663 194149 1014149 844025 259401 180280 150767 584624 178419 51648 194809 994371 64592 28406 706901 142330 126771 546624 29513 223636 116926
is_linear=0
shrinkage=0.03


Tree=7
num_leaves=31
num_cat=0
split_feature=0 132 0 0 92 22 147 150 114 172 92 24 109 115 151 114 192 135 135 115 159 0 16 186 185 98 172 143 114 151
split_gain=179632 31548.9 22504.7 16896.2 12077.4 6142.77 5458.08 5445.77 4719.84 4515.33 4319.94 4019.09 3619.13 3462.99 3283.65 4954.53 3232.43 3157.78 3078.74 2995.45 2930.37 2906.78 2873.35 2831.98 3441.34 3179.77 2801.07 2885.84 2761.86 2771.1
threshold=5.4094088077545175 3.0152686834335332 4.4127798080444345 6.2643496990203866 3.1580815315246586 0.094447486102581038 2.4491754770278935 6.5432918071746835 0.38975283503532415 -0.14604245126247403 2.7163819074630742 1.0436692833900454 0.075018335133790984 0.17641182243824008 6.6706383228302011 0.23801340162754062 1.8637171983718874 5.1752483844757089 2.9374521970748906 0.14218325912952426 -0.09433057531714438 4.9801702499389657 0.64003255963325512 0.80125910043716442 0.0060607620980590591 2.9818226099014287 0.030500129796564582 -2.8196913003921504 0.18850522488355639 11.878379821777346
decision_type=2 2 2 2 2 2 2 2 2 2 2 2 2 2 2 2 2 2 2 2 2 2 2 2 2 2 2 2 2 2
left_child=2 3 -1 6 7 17 9 11 -9 -2 21 18 -11 -7 15 22 -17 19 -3 26 -14 -4 -6 24 -13 -26 27 -5 -20 -30
right_child=1 4 10 5 14 13 -8 8 -10 12 -12 23 20 -15 -16 16 -18 -19 28 -21 -22 -23 -24 -25 25 -27 -28 -29 29 -31
leaf_value=-0.031091322779902012 0.027449662994381049 0.0024474011505285494 -0.018614751801860674 0.048169050957793565 0.040319576205676701 0.029748235094545515 0.015199120483081053 0.023854013517091689 0.068975208686912592 -0.002688331056352865 0.0066269609751528563 0.033583666177464 0.026945561322868117 0.078466250652464875 0.073643670458605953 0.020094077469828508 0.061314710425616946 0.04924689505721512 -0.00041916193624839064 0.022487463588568162 0.0037856223917936242 -0.01031504886451781 0.068131441102359691 -0.011208576855552528 0.0028994325310615896 0.030273782806863412 0.018997575695799209 0.004881104350603402 0.028892014828414827 -0.01164213519575193
leaf_weight=98941.005392514169 5194.3551457747817 24045.154514346272 70828.964991841465 1423.5686852447689 12749.62532902509 11649.479410402477 23462.678435813636 5701.8009650446475 3294.1890014745295 157103.44739302993 9555.2871065735817 19357.617591768503 6328.6473171450198 1480.7594575472176 2264.987360611558 15019.410680688918 1933.0016025826335 2161.1175368651748 5366.9949681311846 21309.934171624482 22051.355423554778 81950.771518465132 4542.6146900914609 2040.8779174871743 8908.0717214643955 6687.82321466133 20983.264256808907 51564.702284935862 14010.680431656539 1700.6880017593503
leaf_count=633954 28500 130134 429309 7298 61961 59113 127010 29129 16138 879548 54212 100392 33974 7195 10764 75341 9118 10968 28894 112511 120211 480209 21841 10890 46541 34290 111329 275429 74207 8973
internal_value=-8.8063e-06 0.0114305 -0.0198133 0.00646328 0.0240682 0.0159866 0.00154565 0.0182253 0.0403858 -0.000134311 -0.0129391 0.0157968 -0.000907089 0.0352502 0.038648 0.0363304 0.0247994 0.0133903 0.00978592 0.0125762 0.00895204 -0.0141631 0.0476309 0.0231273 0.0251333 0.0146412 0.0097202 0.00604552 0.0181554 0.024502
internal_weight=713613 452337 261276 324713 127624 110573 214140 91113.9 8995.99 190678 162335 82117.9 185483 13130.2 36509.6 34244.7 16952.4 97442.6 45123.5 95281.5 28380 152780 17292.2 36994.4 34953.5 15595.9 73971.5 52988.3 21078.4 15711.4
internal_count=4029383 2431699 1597684 1773086 658613 583843 1189243 479588 45267 1062233 963730 434321 1033733 66308 179025 168261 84459 517535 242208 506567 154185 909518 83802 192113 181223 80831 394056 282727 112074 83180
is_linear=0
shrinkage=0.03


Tree=8
num_leaves=31
num_cat=0
split_feature=0 127 0 0 196 171 97 105 187 103 174 151 0 186 174 125 103 174 0 0 113 184 114 147 112 150 0 75 150 114
split_gain=169622 29559.2 23257 20444.6 10178.4 5318.93 4975.36 4417.85 4282.2 3576.93 3513.65 3317.65 3134.57 3131.84 2822.91 2711.95 2625.97 2605.38 2602.07 2498.36 2481.34 2305.08 2253.77 2043.32 2196.07 2151.36 1991.58 1937.36 1931.08 2782.7
threshold=5.4359006881713876 2.2611492872238164 4.49422311782837 6.0649466514587411 0.15229727327823642 -0.037950297817587846 4.1972603797912607 16.993271827697757 0.22223968803882602 2.3358302116394047 -0.10472519695758818 5.0567522048950204 6.5517940521240243 0.60962647199630748 -0.16704106330871579 -2.0845828056335445 4.2603230476379403 0.076087318360805525 6.4869225025177011 3.8606742620468144 0.48313477635383612 0.055293731391429908 0.28505803644657141 2.5239732265472417 -0.40755257010459894 8.3417196273803729 4.9593360424041757 -0.91306212544441212 6.5432918071746835 0.26919034123420721
decision_type=2 2 2 2 2 2 2 2 2 2 2 2 2 2 2 2 2 2 2 2 2 2 2 2 2 2 2 2 2 2
left_child=2 3 19 7 5 13 11 -2 26 -8 21 18 15 20 -9 -7 -15 -11 28 -1 -5 -6 -14 25 -25 -17 -4 -16 29 -3
right_child=1 6 8 4 10 12 9 14 -10 17 -12 -13 22 16 27 23 -18 -19 -20 -21 -22 -23 -24 24 -26 -27 -28 -29 -30 -31
leaf_value=-0.034351122957339504 -0.0036666425130100276 0.022172887719682434 -0.018417965048536343 0.10576171879430292 0.010184409772769278 0.038546513223885255 -0.034572085809164439 0.043049501961111063 4.8996663923460154e-06 0.047267497714226295 0.026974622776262589 0.047343829458351423 0.0094021003534607624 0.0017636033068721211 -0.0062366629909821796 0.0028242032203927058 0.020488138027703433 0.020979771835670485 0.03818143545505704 -0.025082120191739238 0.032811084751692331 0.069579303600112039 0.024359148778753125 0.066656994121375768 0.013038548412118583 0.044076373944260616 -0.01098071266477005 0.0072202179086230892 0.043265977125715761 0.0012104876129619177
leaf_weight=56126.057729482651 98859.00063700974 13745.680756930262 53287.863255083561 442.01256068050861 730.90451384708285 2242.1504240594804 548.93088914453983 1806.8896384127438 23375.723633754998 19980.832969538867 24445.430333316326 4610.0644451826811 19932.244722966105 8445.2379319556057 11432.318217832595 81825.795517187566 33472.75008797273 4095.4979865178466 5828.7236239723861 49147.211999669671 8196.0831345692277 3042.4732723683119 16649.986683912575 725.03994646295905 13093.817303441465 1152.9654998742044 82809.105634912848 60936.719818238169 2137.8413031883538 9741.4304519556463
leaf_count=369705 559173 71470 325833 2239 3686 11755 2901 9453 134958 95651 122693 23178 105147 45398 63057 440802 174188 19952 29157 315759 42288 14463 86953 3697 68368 5937 488819 331192 10647 50688
internal_value=-4.16385e-05 0.0112063 -0.0190805 0.00815666 0.0143478 0.0118026 0.0306739 0.000485404 -0.0118557 0.0410709 0.0311381 0.0235728 0.00870616 0.0201082 0.00601948 0.00593369 0.0167165 0.0427981 0.0200865 -0.0300244 0.0365593 0.0580882 0.0162109 0.00517757 0.0158586 0.00339828 -0.0138931 0.00509393 0.015968 0.0134803
internal_weight=712867 448121 264746 387432 214397 186178 60689 173035 159473 24625.3 28218.8 36063.7 135622 50556.1 74175.9 99039.8 41918 24076.3 31453.7 105273 8638.1 3773.38 36582.2 96797.6 13818.9 82978.8 136097 72369 25625 23487.1
internal_count=4029207 2394133 1635074 2090489 1127614 986772 303644 962875 949610 118504 140842 185140 722659 264113 403702 530559 219586 115603 161962 685464 44527 18149 192100 518804 72065 446739 814652 394249 132805 122158
is_linear=0
shrinkage=0.03


Tree=9
num_leaves=31
num_cat=0
split_feature=0 194 0 0 150 0 92 130 109 0 116 63 115 27 63 166 100 122 25 183 5 115 98 146 183 0 82 0 82 182
split_gain=160829 29007.1 20399 18554.8 7671.27 7375.96 5339.24 4119.68 3769.19 3193.79 3126.02 3085.21 2909.02 2867.09 2862.79 2854.33 2835.32 2589.66 2504.81 2694.3 2453.06 2475.87 2822.3 2242.88 2176.21 2155.04 2034.79 1913.79 1883.04 1860.14
threshold=5.3821961879730233 0.12094110995531084 4.4127798080444345 6.0222353935241708 7.8640778064727792 6.0787878036499032 3.0915244817733769 2.4800412654876713 0.14525839686393741 6.4305253028869638 0.29050478339195257 3.1299246549606328 0.085028205066919341 3.7945367097854619 -2.7808066606521602 -0.12865481525659558 1.6823559999465945 1.7224314212799074 7.8316755294799814 -0.085919715464115129 0.8348793387413026 0.1283514201641083 3.0502067804336552 -0.21525751799345014 0.56507095694541942 5.6886675357818612 0.038349118083715446 3.7954261302948002 -0.58926284313201893 0.29863721132278448
decision_type=2 2 2 2 2 2 2 2 2 2 2 2 2 2 2 2 2 2 2 2 2 2 2 2 2 2 2 2 2 2
left_child=2 3 27 14 6 11 7 9 -4 -5 12 24 -7 26 -2 -15 -9 -14 -19 -20 21 -11 -23 -21 28 -16 -8 -1 -3 -18
right_child=1 5 8 4 -6 10 13 16 -10 20 -12 -13 17 15 25 -17 29 18 19 23 -22 22 -24 -25 -26 -27 -28 -29 -30 -31
leaf_value=-0.034319716561854105 0.030456863173226503 -0.023476036103730787 -0.015002062090821966 0.0052941419012541178 0.037292478017130176 0.0065079870716994786 0.02957105037381905 0.069007094603418764 -0.0030262538068668984 0.0095566681500617503 0.059747374166725029 0.041341318912693298 0.025962600608802983 0.052832410861876955 -0.006013984340937124 0.019831551210893816 0.0159551035997074 0.069828966396627321 -0.0034405777305924761 0.023688833518948745 -0.022977060591762889 0.014410290628319935 0.034102678098885029 0.046819551078700908 0.050742145480900704 0.0012004641165737882 -0.019895563315513332 -0.025780176335581231 0.013251165188933265 0.050822631212737661
leaf_weight=51482.390510857105 2504.4068360589445 1298.6554641351104 124342.37156977132 104698.73604876176 10524.327453151345 4185.9660194590688 1466.3119447939098 1309.0788466446102 29217.686696175486 40796.353569891304 3512.9437809363008 3881.7744487635791 24527.130941212177 5253.3910596743226 64929.390645392239 4290.6748745776713 8012.7455757930875 2299.7522083446383 1395.6900838278234 5422.8610288389027 1619.8851047120988 19693.129912868142 9823.1116611436009 12474.00142679736 1351.3407416790724 87443.122410807759 1526.1217157542706 43768.30307854712 37365.252798285335 1663.919422827661
leaf_count=346283 12732 7110 755112 563742 51721 20724 7357 6688 171055 214419 16335 18615 120933 25101 370726 20877 41910 10824 6819 26207 8508 103210 50716 58971 7140 485756 7947 287260 196198 8548
internal_value=-3.48485e-05 0.0104137 -0.0194894 0.00653236 0.0123274 0.0249332 0.0110144 0.00974745 -0.0127237 0.00863843 0.0323777 0.0158049 0.0304646 0.0299701 -0.00135042 0.0380032 0.0275733 0.0326382 0.0402181 0.0366834 0.0135055 0.0143468 0.0209659 0.0398142 0.013326 -0.0018736 0.00433516 -0.0303964 0.0120162 0.0219584
internal_weight=712081 463270 248811 365555 210678 97715.4 200153 187617 153560 176631 53818.3 43897 50305.4 12536.5 154877 9544.07 10985.7 46119.4 21592.3 19292.6 71932.5 70312.6 29516.2 17896.9 40015.2 152373 2992.43 95250.7 38663.9 9676.66
internal_count=4029544 2469834 1559710 1979958 1110744 489876 1059023 997741 926167 940595 260813 229063 244478 61282 869214 45978 57146 223754 102821 91997 376853 368345 153926 85178 210448 856482 15304 633543 203308 50458
is_linear=0
shrinkage=0.03


Tree=10
num_leaves=31
num_cat=0
split_feature=1 132 1 105 92 147 116 150 1 105 114 151 82 20 5 133 5 98 96 100 150 133 194 116 98 114 116 98 151 115
split_gain=131743 27894.4 18139.6 12071.8 9998.76 5859.06 5256.65 5092.91 5017.75 4786.77 4177.36 3621.43 3524.99 3482.13 3463.98 3196.89 3495.22 3154.11 3065.48 3673.54 2951.56 2943.13 2881.47 2870.76 3076.25 2807.9 2586.29 2697.14 2804.99 2506.54
threshold=0.066998850554227843 3.0152686834335332 0.026390389539301399 16.243619918823246 3.1580815315246586 2.6079783439636235 0.29050478339195257 6.5432918071746835 0.16440351307392123 16.011495590209964 0.38975283503532415 0.336373120546341 -0.98165822029113758 42.241128921508796 -0.56511774659156788 2.9725922346115117 -0.38515394926071161 4.0298855304718026 2.019201517105103 1.8137027025222781 6.5432918071746835 2.9451752901077275 0.0057301018387079248 0.20001826435327533 3.0803415775299077 0.24254692345857623 -1.3010212182998655 3.0603046417236333 0.34893976151943212 0.16759251058101657
decision_type=2 2 2 2 2 2 2 2 2 2 2 2 2 2 2 2 2 2 2 2 2 2 2 2 2 2 2 2 2 2
left_child=2 3 -1 5 7 13 8 11 17 -4 -9 -3 -7 -2 -10 16 -6 20 -16 23 -5 26 -8 24 -20 -18 -13 -28 -29 -21
right_child=1 4 9 6 15 12 22 10 14 -11 -12 21 -14 -15 18 -17 25 -19 19 29 -22 -23 -24 -25 -26 -27 27 28 -30 -31
leaf_value=-0.029259941467224073 -0.0044300479453518588 -0.0019281396194268702 -0.015754103876301804 0.00015327191066046754 0.066062448432306312 0.088702111784993765 0.01564772134803041 0.020684325935809777 -0.010979641992176971 -0.0036102652192512084 0.061797501152692114 0.077297381231052217 0.015299624351314335 0.0068344578848680455 -0.011096084736723301 0.04264579873459904 0.032944423087178362 0.025700458208515995 0.022913247659171701 0.01266617912182982 0.021846657863032318 0.023100770718159736 0.045314138112592335 -0.023309319456600346 0.060557790737140522 0.010389754449345156 0.0042752742773944172 0.075029294548797462 0.016750984793864318 0.033824340458115498
leaf_weight=91029.53475808911 140210.80622763187 12706.05275580287 93348.727605484426 69182.04013973102 1750.1861060969532 619.44384593144059 6357.8334347307682 5989.8539369814098 4571.7446314692497 42529.923168245703 3541.8697027340531 518.25419713929296 11657.565943542868 29976.19106528163 3571.2132912874222 17599.192888449878 10091.521958876401 5379.3642285130918 4084.6105988137424 52104.078853100538 6145.4388666339219 27846.402999889106 5500.609480895102 678.7144012004137 3753.8470116965473 9795.5547924861312 28198.081729765981 778.90120033174753 16043.156249009073 5580.7436662241817
leaf_count=612839 795301 67819 576055 377235 8184 3159 33651 29821 24001 248876 16620 2734 62714 163695 19098 82443 47909 28415 21581 269637 32064 142994 27414 3448 18936 47836 148770 4015 82959 28670
internal_value=-3.36296e-05 0.00880535 -0.0188965 0.00433172 0.0203947 -0.00100168 0.0101623 0.0151612 0.00868951 -0.0119534 0.0359695 0.0128566 0.0190126 -0.00244575 0.0143126 0.0331476 0.025419 0.00350921 0.0159704 0.017431 0.00192375 0.0154169 0.0294139 0.0358241 0.0409505 0.0218375 0.0107172 0.00994843 0.0194555 0.0147142
internal_weight=711141 484233 226908 349374 134859 182464 166910 95622.6 155052 135879 9531.72 86090.8 12277 170187 74345 39236.5 21637.3 80706.8 69773.2 66202 75327.5 73384.8 11858.4 8517.17 7838.46 19887.1 45538.4 45020.1 16822.1 57684.8
internal_count=4028893 2591123 1437770 1909019 682104 1024869 884150 495732 823085 824931 46441 449291 65873 958996 385371 186372 103929 437714 361370 342272 409299 381472 61065 43965 40517 95745 238478 235744 86974 298307
is_linear=0
shrinkage=0.03


Tree=11
num_leaves=31
num_cat=0
split_feature=0 194 0 0 149 0 130 112 8 92 105 11 92 97 24 143 97 183 212 0 30 182 114 149 13 206 112 25 137 92
split_gain=145920 25599 18361.5 18066.3 7577.47 5954.29 4277.23 3769.45 3490.87 3277.58 3312.12 4513.86 3269.93 3144.64 3187.05 2799.83 2697.92 2633.72 2557.29 2354.31 2288.25 2805.42 2288.24 2321.6 2306.03 2285.31 2269.01 2250.95 2654.81 2233.75
threshold=5.3399362564086923 0.14322588592767718 6.0075833797454843 4.3372693061828622 4.543302297592164 6.0856370925903329 2.4800412654876713 -0.40755257010459894 -0.2507073432207107 2.9302346706390385 16.243619918823246 -0.026826039887964722 2.7163819074630742 2.489881277084351 0.89877101778984081 1.9839047789573672 2.0267024040222172 -0.27568838000297541 -5.975400209426879 4.9163179397583017 0.33387902379035955 0.62725403904914867 0.5246964991092683 1.6897223591804507 -0.011271985713392494 0.50051578879356395 1.048524856567383 5.9779846668243417 -0.0062315950635820619 3.4020233154296879
decision_type=2 2 2 2 2 2 2 2 2 2 2 2 2 2 2 2 2 2 2 2 2 2 2 2 2 2 2 2 2 2
left_child=3 2 29 -1 6 16 9 -6 -7 10 -4 -12 19 -9 26 18 -3 -18 -10 -5 21 22 -13 -24 -25 -17 -15 28 -11 -2
right_child=1 5 4 12 7 8 -8 13 15 27 11 20 -14 14 -16 25 17 -19 -20 -21 -22 -23 23 24 -26 -27 -28 -29 -30 -31
leaf_value=-0.030422856345674477 -0.0020676862781609999 -0.0088632068661676829 0.003433687203055908 -0.018352947469071096 0.084328418017608625 0.018884799975831808 0.027167081157667396 0.058895263682173141 0.012490537275255573 0.061434078350855868 -0.0050645158235615596 0.013636560829202194 0.0050446139126941467 0.057960783356183231 0.012996790319432487 0.010265625799885533 -0.013634027078232304 0.020000843649604399 0.043875760797673378 -0.010555254010369254 0.0016478552276161186 0.05672170240088463 0.07154521237336138 0.00099564669353053919 0.04360486652569185 0.052297176723635208 0.012069347025109324 0.029451329604241842 -0.016159489745435386 0.019555770367085685
leaf_weight=85277.72932619974 158692.73878247663 3689.5800983756781 81239.073183566332 65295.16924284026 1081.6754121929407 14621.211615495384 12387.689090531319 2359.8670837953687 2590.7165594995022 487.18279173970222 12691.665234621614 66605.612112261355 8430.7635370306671 3004.1583901047707 10949.877893451601 5388.1657376438379 2225.2360228672624 35412.206668607891 24167.761697009206 74808.677134569734 11483.509908344597 1494.8412743359804 1147.4455312602222 2135.5771266818047 2462.6413941010833 1485.4513748288155 1435.170419357717 10685.506123267114 2119.6863606013358 4418.1180196739733
leaf_count=589171 896026 19948 439473 413846 4884 70237 63086 11543 12522 2361 67600 344681 48475 14220 54276 25542 11913 180726 112440 450801 59474 7499 5985 10807 12737 6806 7119 51391 11040 22220
internal_value=-5.99052e-06 0.0095194 0.00617319 -0.0194169 0.0117531 0.0239705 0.0100793 0.0299656 0.0311291 0.00897973 0.00791357 0.0116261 -0.0130977 0.0266464 0.0216957 0.0364506 0.015611 0.0180111 0.0408388 -0.0141897 0.014109 0.0160463 0.0152047 0.0333724 0.0238267 0.0193597 0.0431376 0.023354 -0.00162897 -0.00148168
internal_weight=710275 476462 386882 233812 223771 89580.3 204940 18830.7 48253.3 192553 179260 98021.3 148535 17749.1 15389.2 33632.1 41327 37637.4 26758.5 140104 85329.6 73846.1 72351.3 5745.66 4598.22 6873.62 4439.33 13292.4 2606.87 163111
internal_count=4028849 2526556 2086422 1502293 1168176 440134 1076134 92042 227547 1013048 948256 508783 913122 87158 75615 157310 212587 192639 124962 864647 441183 381709 374210 29529 23544 32348 21339 64792 13401 918246
is_linear=0
shrinkage=0.03


Tree=12
num_leaves=31
num_cat=0
split_feature=1 132 1 105 92 135 147 112 105 1 133 184 150 137 115 87 20 98 97 185 186 105 112 5 144 115 136 182 203 184
split_gain=118953 24804.9 16561.9 10877.3 8642.93 5778.43 5251.7 4477.98 4289.61 4235.94 4220.28 4018.24 3869.33 3319.84 4287.01 3583.77 3170.64 3021.61 2930.24 2868.94 2759.42 2750.13 2664.87 2638.82 2494.54 2487.8 2474.68 2906.55 3446.37 3095.91
threshold=0.065336659550666823 3.0152686834335332 0.025707855820655826 16.243619918823246 2.585995197296143 4.9769442081451425 2.7487312555313115 -0.40755257010459894 16.011495590209964 0.15421909093856814 2.9725922346115117 -0.11614128947257994 6.5432918071746835 0.024520662613213066 0.13808299601078036 -1.1018024682998655 42.241128921508796 2.9744802713394169 5.5977814197540292 0.0073291440494358548 0.58121150732040416 16.136643409729007 -0.22536438703536985 -0.40170364081859583 0.63587969541549694 0.14629774540662768 2.690283060073853 -0.0057695945724844924 0.13721262663602832 0.13518360257148745
decision_type=2 2 2 2 2 2 2 2 2 2 2 2 2 2 2 2 2 2 2 2 2 2 2 2 2 2 2 2 2 2
left_child=2 3 -1 6 12 9 16 -8 -4 24 23 -12 17 14 -11 -15 -2 19 -14 21 -9 -3 -19 -6 -5 -13 27 -17 -29 -30
right_child=1 4 8 5 10 -7 7 20 -10 13 11 25 18 15 -16 26 -18 22 -20 -21 -22 -23 -24 -25 -26 -27 -28 28 29 -31
leaf_value=-0.028841401703579558 -0.0042099824018213402 -0.0047793909535505646 -0.015507412046837969 -0.00021242341943549119 0.048420630909043298 0.042686614484303095 0.070749831622718751 0.053910271385945369 -0.0037735394137899383 -0.003165330086334944 -0.015920370488610131 0.043671988439996756 0.039713836214333248 0.0022010891090503688 0.035711907512247253 0.029645735315875492 0.0063959685079312953 -0.015253690243021751 -0.020779327122649054 -0.0044327284090565321 0.005572589514435458 0.019003788070029708 0.01913186060969636 0.018149301252426069 0.011008748927859949 0.014921843475919024 0.026915166455380158 0.0013665625299326949 0.0080164251969495268 0.059695206416126884
leaf_weight=85484.197972292081 144143.19478591159 6183.3172201178968 90386.759103974327 53353.565284021199 2834.8527081124485 4568.8445364721119 1336.1297899894416 1225.0905611515045 40662.54864089936 17310.172282040119 1221.4933133497834 20428.314909681678 6617.6629477776587 12726.037276141346 2993.143535617739 7554.9459627531469 30783.587026733905 2165.7094159610569 807.41522637009621 17289.62132345885 8005.2761095017195 14950.073016714305 31639.499396819621 30354.386119045317 26774.888186447322 3128.2851496934891 24443.163560904562 15776.802910558879 2255.5954392403364 1943.2112369127572
leaf_count=597490 820668 34249 568982 289988 13240 22356 6674 6504 240244 90187 5951 94660 31710 66215 15315 39321 167297 11368 3834 91462 42571 76595 161810 146828 143822 14912 122872 81263 11409 9227
internal_value=-3.48952e-05 0.00810834 -0.0185684 0.00391876 0.0189212 0.00940748 -0.00110252 0.0194347 -0.0118669 0.00848628 0.0277345 0.0371047 0.0125067 0.0131514 0.00256601 0.0164727 -0.00234335 0.0103858 0.0331298 0.00462901 0.0119966 0.0120439 0.0169277 0.0207372 0.00353684 0.0398561 0.0199665 0.0137952 0.00779768 0.0319491
internal_weight=709348 492814 216534 355194 137621 169700 185493 10566.5 131049 165132 57967.3 24778.1 79653.3 85003.1 20303.3 64699.8 174927 72228.2 7425.08 38423 9230.37 21133.4 33805.2 33189.2 80128.5 23556.6 51973.7 27530.6 19975.6 4198.81
internal_count=4029024 2622308 1406716 1935689 686619 891975 1043714 55749 809226 869619 275591 115523 411028 435809 105502 330307 987965 375484 35544 202306 49075 110844 173178 160068 433810 109572 264092 141220 101899 20636
is_linear=0
shrinkage=0.03


Tree=13
num_leaves=31
num_cat=0
split_feature=1 92 105 1 25 1 133 105 1 187 194 197 172 113 20 147 172 149 182 111 101 149 147 151 149 23 135 75 142 30
split_gain=112641 23486.9 17818.4 15077.7 7107.46 5489.81 4213.69 3868.97 3834.26 3646.11 2882.95 2827.73 2788.67 2657.17 2655.63 2643.08 2628.26 2480.36 2458.32 3030.77 2326 2222.08 2201.35 2180.43 2130.13 2078.6 1975.85 1954.93 1952.56 1937.06
threshold=0.062768813222646727 2.6471413373947148 16.243619918823246 0.023605130612850193 5.0328752994537362 0.12529432028532031 2.9725922346115117 16.011495590209964 0.11506804078817369 0.11009180918335916 0.98789885640144359 0.22806216776371005 -0.10565463453531264 0.56690311431884777 53.686676025390632 4.4739589691162118 0.21059178560972217 6.1688113212585458 -0.30940003693103785 0.3153012096881867 5.6931524276733407 4.543302297592164 2.5668996572494511 6.6706383228302011 3.2542160749435429 -1.4586501121520994 2.7820744514465336 -3.090304851531982 6.2368626594543466 0.32717791199684149
decision_type=2 2 2 2 2 2 2 2 2 2 2 2 2 2 2 2 2 2 2 2 2 2 2 2 2 2 2 2 2 2
left_child=3 2 8 -1 15 21 13 -5 -2 11 25 16 -11 -6 18 -3 17 29 19 22 -9 -4 -10 27 26 -8 -16 -15 -27 -7
right_child=1 4 5 7 6 9 10 20 14 12 -12 -13 -14 23 24 -17 -18 -19 -20 -21 -22 -23 -24 -25 -26 28 -28 -29 -30 -31
leaf_value=-0.029231621241946327 -0.0066586525952586637 -0.012570680630604568 0.0024961626362337273 -0.015867686090938301 0.047434699896368802 0.0096240783047420852 0.071508100740229688 -0.018650376506952022 0.003963794461806917 0.044565549633991487 0.059788243999544806 0.0264596599496905 0.018424227558999626 0.035694690251531797 -0.0021865793639496084 0.055516659590113385 0.069426716507602473 0.033922254716968941 -0.00094316887073316784 0.09679934637832914 -0.00070793759727509804 0.025061487401589602 0.069972764825847814 0.042132658187092303 0.037889211455541923 0.031366739070202786 0.02074333485889153 0.013019102956742728 -0.0028261747415979596 -0.0024377923813263878
leaf_weight=77072.995036356151 81713.990355400369 6078.1705274917185 67758.296717833728 90056.142678538337 2866.3802728876472 75861.410272818059 1086.7705306820571 8263.8496096450835 3062.5969068780541 3994.7695727720857 3556.4394905716181 9258.9699740484357 45794.772209066898 3833.064081247896 7392.108483619988 559.33194482326508 644.29743887484074 3372.8932837359607 98342.619295250624 444.01972745731473 30516.424901051447 4168.7297801040113 533.27048105373979 2985.8731782622635 2609.3849161602557 22451.444533187896 6230.2477842308581 32020.705293487757 1609.0070637874305 14225.567225500941
leaf_count=551162 477510 32480 369147 575859 13635 390839 4901 50251 17128 18962 15723 45322 229547 18115 39689 2585 3162 15836 543897 2244 181060 21540 2713 13937 13325 106002 33153 157700 7541 73749
internal_value=-4.80116e-05 0.0076102 0.00484976 -0.0187355 0.0228511 0.0106421 0.0256487 -0.0124561 -0.00165814 0.013853 0.0344967 0.0106396 0.0205231 0.0195578 0.00178651 -0.00682105 0.00908245 0.00866538 -5.77929e-07 0.022932 -0.00453252 0.00380475 0.0137781 0.0174985 0.0130598 0.0309165 0.00829907 0.0154451 0.0290789 0.00771906
internal_weight=708365 502455 425408 205909 77047.2 225080 70409.7 128836 200328 153153 28703.7 103363 49789.5 41706 118614 6637.5 94104.2 93459.9 102383 4039.89 38780.3 71927 3595.87 38839.6 16231.7 25147.2 13622.4 35853.8 24060.5 90087
internal_count=4028714 2670382 2297763 1358332 372619 1168104 337554 807170 1129659 777417 134167 528908 248509 203387 652149 35065 483586 480424 565982 22085 231311 390687 19841 189752 86167 118444 72842 175815 113543 464588
is_linear=0
shrinkage=0.03


Tree=14
num_leaves=31
num_cat=0
split_feature=1 132 1 149 92 1 151 116 135 172 98 138 92 137 116 133 137 198 149 133 116 98 133 150 101 112 151 82 183 116
split_gain=106871 22883 14581.2 9505.53 8538.53 7991.34 5212.13 4717.61 4106.39 3761.52 3574.14 3413.44 3340.44 2979.85 2800.84 2796.79 2686.7 2768.09 2458.76 2530.76 2417.71 2377.15 3363.05 2365.07 2356.47 2353.59 2834.1 2211.22 3246.3 2197.26
threshold=0.061984619125723846 2.8753180503845219 0.023605130612850193 4.543302297592164 3.1580815315246586 0.12176804617047311 0.336373120546341 -0.094486970454454408 4.8253540992736825 -0.15964443236589429 2.8878531455993657 0.48730878531932836 2.1392434835433964 0.086963701993227019 -1.3010212182998655 3.2209506034851079 0.020536391064524654 2.0502142906188969 2.450480699539185 4.3346092700958261 -0.13734723627567288 4.1918027400970468 3.9125822782516484 0.55378407239913952 8.1963768005371112 -0.40755257010459894 0.37342914938926702 0.69704285264015209 0.011707393452525141 -0.81597587466239918
decision_type=2 2 2 2 2 2 2 2 2 2 2 2 2 2 2 2 2 2 2 2 2 2 2 2 2 2 2 2 2 2
left_child=2 3 -1 5 6 20 -3 11 25 -9 14 18 -4 -13 -8 27 -6 -18 19 -7 -2 23 -23 -11 29 -5 -27 -16 -29 -17
right_child=1 4 12 8 16 7 10 9 -10 21 -12 13 -14 -15 15 24 17 -19 -20 -21 -22 22 -24 -25 -26 26 -28 28 -30 -31
leaf_value=-0.028917288782828027 -0.0094146356638435368 -0.0021908681102612054 -0.014099127060063157 0.074341978243752313 0.0387217596853087 -0.001665088340769709 0.0672165807259235 0.044040107715888163 0.075387646966113664 0.07021448597548495 0.020475150336265027 -0.0089155743858502761 0.00066983373615991785 0.0058919812987597775 -0.00012173720532824851 0.060858534924788245 0.020610563910094037 0.062953410738859295 0.01664851955098343 0.065427036891763518 -0.00094721147986248351 0.017221867649397885 0.075450207301468772 0.0074631164402681948 0.033642339131509102 -0.0077742567305466364 0.02361471472335288 0.026320033239810997 -0.0043602991528991619 -0.018497115189931048
leaf_weight=75699.0527595561 46263.160526128486 18441.637792069465 109620.78551298007 685.46020587533712 14249.414378050715 16809.464561998844 736.750827729702 2855.9434500895441 1287.2850276455283 542.90982010215521 53547.593086328357 36618.950068894774 15760.786358216777 18362.060444384813 25926.541884787381 385.96879670768976 27211.145869590342 1464.4520464837551 16057.019441492856 520.69856555759907 88250.150144703686 5945.3848846405745 1050.3055591695011 91326.234169788659 6100.5398431941867 3194.3258479200304 13617.230924014002 8355.9763875864446 4935.1523421853781 1664.1098586916924
leaf_count=551723 267982 96895 696422 3132 64146 91004 3800 14093 5835 2879 266906 197966 95726 97439 137502 1986 126901 6249 84058 2687 502760 30511 5119 485091 30389 16263 67878 42069 25062 8764
internal_value=-1.65044e-05 0.00733076 -0.0185201 0.00293667 0.0165863 0.00173582 0.0124809 0.00569555 0.0236852 0.0101005 0.0151429 0.000624555 -0.0122424 -0.00396972 0.00920646 0.00830215 0.028071 0.0227762 0.00819106 0.000352676 -0.00385968 0.00911938 0.0259779 0.00783504 0.0242922 0.0198755 0.0176487 0.00497764 0.0149263 -0.00351979
internal_weight=707486 506406 201081 343387 163019 324602 120094 190089 18784.3 101721 101653 88368.2 125382 54981 48105 47368.3 42925 28675.6 33387.2 17330.2 134513 98864.8 6995.69 91869.1 8150.62 17497 16811.6 39217.7 13291.1 2050.08
internal_count=4029237 2685366 1343871 1874697 810669 1781589 613373 1010847 93108 537693 516478 473154 792148 295405 249572 245772 197296 133150 177749 93691 770742 523600 35630 487970 41139 87273 84141 204633 67131 10750
is_linear=0
shrinkage=0.03


Tree=15
num_leaves=31
num_cat=0
split_feature=0 0 0 196 109 133 122 88 8 199 109 0 115 172 134 103 30 115 172 100 63 207 136 212 97 110 212 80 212 29
split_gain=121063 21372.5 15759.8 12755.1 8932.61 4978.26 4285.45 3946.51 3190.23 2748.48 2591.71 2559.25 2408.48 3159.97 2384.69 2273.9 2256.61 3306.22 2164.23 2106.35 2091.06 2070.54 2982.72 2345.78 2155.53 2167.12 2958.07 2723.82 2120.84 2031.98
threshold=5.3107368946075448 6.0438191890716562 4.3107767105102548 0.15229727327823642 0.14525839686393741 5.07092308998108 -2.5519911050796504 -1.4081243276596067 -0.38525211811065668 0.467587560415268 0.14525839686393741 5.708768606185914 0.13496728241443637 0.045967018231749542 4.7904088497161874 2.8289815187454228 0.52427399158477794 0.087978322058916106 -0.090252198278903947 1.6453385353088381 3.1299246549606328 -1.0827843546867368 3.043871402740479 -5.334700107574462 2.5707899332046513 -0.012579074595123528 -4.5115888118743888 -0.13815508782863614 -5.317903757095336 4.4844653606414804
decision_type=2 2 2 2 2 2 2 2 2 2 2 2 2 2 2 2 2 2 2 2 2 2 2 2 2 2 2 2 2 2
left_child=2 4 -1 5 11 6 15 18 14 16 -4 -2 13 -9 -5 -3 17 -10 -8 -15 -6 23 -23 -14 28 27 -27 -26 -25 -24
right_child=1 3 10 8 20 -7 7 12 9 -11 -12 -13 21 19 -16 -17 -18 -19 -20 -21 -22 22 29 24 25 26 -28 -29 -30 -31
leaf_value=-0.029504354168525551 -0.0051973511040391681 -0.029084010736965545 -0.014654499986598643 0.00014875256205504429 0.012081423237935063 0.053049099787878751 0.039285272484070481 0.0029239305548406764 -0.001507305495775203 0.045196311240536025 -0.0043947620536892006 0.0019365850444268897 0.034071127716679452 0.067461021244172872 0.026313989628063306 0.038158998161872716 0.0051492393129097145 0.034165624030819124 0.016013982689083002 0.013800824780698518 0.03500278254858262 -0.003465372434077736 0.047710752524990706 -0.040716405927515888 0.036849995442834321 -0.0047634284628312153 0.078926132552687725 0.0069769967090650793 0.026724245265449035 -0.0093619942991318324
leaf_weight=77331.228163849562 86379.81403645128 485.4048065841198 113041.48469630815 5746.64277953282 34364.166864007711 2478.9327671825886 4074.5379179008305 96600.523061186075 2620.7575055398047 10155.587302848697 27574.716124799103 95059.116722516716 5771.2422133088112 678.37191952392459 6902.9299502670765 6471.7537567950785 3706.4145510829985 21564.663294456899 30810.690426267684 21724.34356194362 4000.4006439000368 11708.206406440586 1951.5836151763797 435.2443718239665 4063.8511794917285 10364.392486050725 393.56355580687523 8485.8846897482872 10913.973342683166 786.48577574267983
leaf_count=574259 499591 2503 723558 27653 175542 11492 19562 501855 12563 45037 166841 522167 29309 3326 32181 29342 17396 100072 153857 112176 18323 60354 9875 2233 20588 53112 2037 43114 56374 3865
internal_value=-3.18875e-05 0.00826049 -0.0186258 0.0139327 0.00132122 0.0107829 0.0102968 0.00952463 0.0274882 0.0318282 -0.0126428 -0.0014596 0.00767669 0.00527859 0.0144306 0.0334596 0.0269583 0.0302989 0.0187339 0.01543 0.0144731 0.0128766 0.00312516 0.0163602 0.0134091 0.00818576 -0.00169193 0.016655 0.0241319 0.0313087
internal_weight=706647 488699 217947 268896 219803 218199 215720 208763 50697 38047.4 140616 181439 173878 119003 12649.6 6957.16 27891.8 24185.4 34885.2 22402.7 38364.6 54874.4 14446.3 40428.2 34656.9 23307.7 10758 12549.7 11349.2 2738.07
internal_count=4030157 2565499 1464658 1349876 1215623 1114974 1103482 1071637 234902 175068 890399 1021758 898218 617357 59834 31845 130031 112635 173419 115502 193865 280861 74094 206767 177458 118851 55149 63702 58607 13740
is_linear=0
shrinkage=0.03


Tree=16
num_leaves=31
num_cat=0
split_feature=1 132 1 1 92 105 105 99 11 105 208 98 184 185 98 146 101 109 114 114 6 92 73 19 166 138 96 105 105 134
split_gain=96466.6 20474.1 13599.5 8471.15 7361.58 5012.43 4177.05 4746.54 3641.63 3541.5 3246.91 3425.44 3273.61 3077.43 3020.9 2944.22 2881.23 2870.4 2839.4 3954.56 4028.06 2793.34 2555.56 2489.66 2571.28 2479.82 2416.28 2369.9 2337.98 2288.03
threshold=0.061161078512668617 2.8753180503845219 0.022184211760759357 0.12176804617047311 2.9824899435043339 16.993271827697757 22.005107879638675 1.8742297291755678 -0.026527239009737965 16.011495590209964 -2.470654964447021 2.9144135713577275 0.26529644429683691 0.0060607620980590591 6.3424730300903329 0.36660040915012365 13.85415029525757 -0.035519581288099282 0.24254692345857623 0.38975283503532415 1.400871276855469 4.7743031978607187 0.11448609828948976 1.2545628547668459 -0.001156772661488503 0.48680011928081518 3.1656483411788945 206.9572448730469 14.873817920684816 3.1924054622650151
decision_type=2 2 2 2 2 2 2 2 2 2 2 2 2 2 2 2 2 2 2 2 2 2 2 2 2 2 2 2 2 2
left_child=2 3 -1 28 5 26 14 15 -9 -4 11 12 13 -7 16 -8 17 -5 21 22 -21 -6 -20 24 -10 -15 -3 -25 -2 -18
right_child=1 4 9 6 18 10 7 8 23 -11 -12 -13 -14 25 -16 -17 29 -19 19 20 -22 -23 -24 27 -26 -27 -28 -29 -30 -31
leaf_value=-0.028821264703462274 -0.0063972122809893249 -0.0042818056350455705 -0.015472314678608594 0.0052698741204929263 0.025730984497032466 0.021107246568980293 0.014782428187684497 -0.0083804201895700293 0.013411054472530052 -0.0044347021646388629 -0.0098801530641078449 0.022887745293712916 -0.016635768490323055 0.017534798522693119 0.068984439260060135 0.040343177416725738 0.026137132158643571 -0.0042908751472199753 0.005251631520977856 0.010682710679154829 0.049081252513286135 0.047913009111208479 0.055810320452692498 0.0049782906038156544 0.039851445526211803 -0.0081586390114357435 0.011993913256857188 0.047737394274303825 0.0014068653200500346 0.0018527876192101648
leaf_weight=68472.644911324605 80050.610748002306 21753.741210523993 88141.531701181084 72368.163525961339 16403.24187265709 18868.246018588543 8812.2281083576381 9848.8367916531861 10943.312506780028 37219.647877432406 4310.4315644726157 40405.763250991702 3676.0408291891217 5780.6979736611247 627.7426224052906 7524.174144398421 8201.1904807239771 46367.229193024337 14126.901870761067 4280.5770071446896 5785.4736891686916 7432.5620948635042 960.24500943720341 29096.211458731443 4749.6837670914829 8139.1067280359566 13182.692284449935 1214.5745109580457 60772.700175635517 6085.4921863302588
leaf_count=519758 472541 118059 581975 392174 75448 94103 44743 51755 54676 226218 21640 195977 18842 29533 3247 36702 42848 248516 66121 19862 25550 32033 4315 146963 23229 41203 70179 5622 335050 31541
internal_value=-4.49272e-05 0.00678169 -0.0180689 0.00264047 0.0154765 0.0113613 0.00651945 0.0123344 0.00817303 -0.0121956 0.0154502 0.0168711 0.0102028 0.0132131 0.00337827 0.0265587 0.00306792 0.00153606 0.0252296 0.0181949 0.032758 0.0326508 0.00847499 0.0117177 0.0214175 0.00250982 0.00185888 0.00669419 -0.00302914 0.015796
internal_weight=705602 511768 193834 346662 165106 116117 205839 72189 55852.6 125361 81180.3 76869.9 36464.1 32788.1 133650 16336.4 133022 118735 48989 25153.2 10066.1 23835.8 15087.1 46003.8 15693 13919.8 34936.4 30310.8 140823 14286.7
internal_count=4030423 2702472 1327951 1889607 812865 589536 1082016 363690 282245 808193 401298 379658 183681 164839 718326 81445 715079 640690 223329 115848 45412 107481 70436 230490 77905 70736 188238 152585 807591 74389
is_linear=0
shrinkage=0.03


Tree=17
num_leaves=31
num_cat=0
split_feature=1 132 1 149 1 127 174 135 105 133 174 15 114 105 20 184 184 137 96 101 150 135 136 185 150 114 82 101 134 137
split_gain=91424.4 19623.7 12476.7 8596.44 7249.68 6771.47 3948.02 3613.48 3477.94 3390.25 3326.13 3141.15 3252.44 3046 3017.49 2689.24 2745.34 2554.48 2460.09 2445.21 2280.98 2244.64 2455.95 2201.17 2230.57 5080.51 2614.89 2596.01 2460.83 2182.29
threshold=0.05875299125909806 2.8753180503845219 0.021454668603837494 4.543302297592164 0.12176804617047311 2.1467770338058476 -0.13610222190618512 4.8253540992736825 16.993271827697757 2.8978600502014165 0.19735006988048556 0.081374533474445357 0.18006175011396411 16.243619918823246 45.197357177734382 -0.11614128947257994 0.12105278670787813 -0.012351716868579386 3.1656483411788945 3.7972912788391118 0.55378407239913952 3.612903475761414 4.2321238517761239 -0.038073115050792687 5.3479604721069345 0.31922473013401037 2.4773277044296269 7.5593750476837167 3.0112172365188603 -0.0080186855047941191
decision_type=2 2 2 2 2 2 2 2 2 2 2 2 2 2 2 2 2 2 2 2 2 2 2 2 2 2 2 2 2 2
left_child=2 3 -1 4 -2 8 -6 -5 17 11 14 -7 -13 -4 20 -11 -17 -3 29 -10 -8 22 -16 -21 28 27 -27 -26 -25 -19
right_child=1 5 13 7 6 9 10 -9 19 15 -12 12 -14 -15 21 16 -18 18 -20 23 -22 -23 -24 24 25 26 -28 -29 -30 -31
leaf_value=-0.028802701006440615 -0.0038759649444213319 -0.020529670529759084 -0.015472882133945483 0.018327802315468662 0.026003785255320364 0.022643473647160239 0.055936011671914677 0.069562117203503873 -0.03254899565138706 -0.010311821674546116 0.060516304711119226 0.055817353915017756 -0.00051164322402482288 -0.0048173828777394534 0.0068007891715364558 0.036107747092357284 0.0087168344205788475 0.057743569785835863 0.016620894216049023 0.025163665266161303 0.0016354170766905811 0.027671026394015766 0.059920908467823115 -0.011731191570786993 0.056752218222045465 0.066956160129601358 0.024459779993822876 -0.0010051607375187808 0.011117633876519518 -0.0037091771972309982
leaf_weight=64958.566859584302 142415.68587082997 4024.5556090660393 85188.824778741226 17895.505332432687 7772.1967859230936 24180.286246828735 698.66187919676304 1330.8618097938597 1010.1130279377103 1404.2594936713576 937.30551857128739 1002.9088056869805 11371.034939961508 33709.309875449166 31266.040014591068 23338.966141279787 3838.647428099066 535.50502861663699 10360.598679542542 13787.569806601852 143765.50700819492 6340.1330527290702 802.66409400850534 4762.7603916600347 794.33866679295897 2575.3991529233754 2646.7572050690651 5858.521648094058 38679.421407401562 16959.430033348501
leaf_count=503667 823762 21502 570369 88187 39311 115082 3679 5847 5077 6792 4952 4774 55947 206443 160316 105328 18199 2870 54226 67202 766590 31814 4033 24706 3943 11616 12207 27706 191000 91293
internal_value=-4.44274e-05 0.00638078 -0.0182293 0.00237325 0.00125024 0.0148503 0.00506104 0.0218793 0.010024 0.022407 0.0041752 0.0163524 0.00405554 -0.0124522 0.00388594 0.0301486 0.0322405 0.00180722 0.00503614 0.0137595 0.00189862 0.0113597 0.00813312 0.0144373 0.0117628 0.0232862 0.0454322 0.00589394 0.00861171 -0.00182325
internal_weight=704212 520356 183857 353225 333998 167131 191583 19226.4 101995 65136.1 183810 36554.2 12373.9 118898 182873 28581.9 27177.6 31880.1 27855.5 70114.9 144464 38408.8 32068.7 69104.8 55317.2 11875 5222.16 6652.86 43442.2 17494.9
internal_count=4028440 2747961 1280479 1928491 1834457 819470 1010695 94034 513348 306122 971384 175803 60721 776812 966432 130319 123527 169891 148389 343457 770269 196163 164349 338380 271178 55472 23823 31649 215706 94163
is_linear=0
shrinkage=0.03


Tree=18
num_leaves=31
num_cat=0
split_feature=1 132 1 1 127 116 172 115 208 182 147 137 191 116 115 110 114 6 184 183 147 114 12 29 114 101 116 182 7 179
split_gain=86508.3 19146 11132.1 8840.36 6409.07 4725.29 3947.67 3388.75 4063.66 4011.77 3372.71 3161.85 2812.54 2749.51 2686.98 3805.03 2634.9 3206.97 2611.85 2582.28 2647.21 2523.83 2515.4 2491.04 2467.03 2484.27 2309.57 2291.76 2353.47 2256.44
threshold=0.055444939061999328 2.8753180503845219 0.020072772167623047 0.11085259914398195 2.1467770338058476 -0.12579365074634549 -0.15483514964580533 0.12899272888898852 -2.4049432277679439 -0.1950012072920799 2.1849509477615361 0.022794089280068878 2.1701229810714726 -0.30158071219921107 0.12976303696632388 0.0089287953451275843 0.24017927795648578 0.1546244025230408 0.25546947121620184 0.028421596623957161 3.9915485382080083 0.19604954868555072 0.00088209082605317246 4.8183467388153085 0.22265203297138217 3.7972912788391118 -0.74924597144126881 -0.28692930936813349 -0.17511045187711713 -0.10050083696842192
decision_type=2 2 2 2 2 2 2 2 2 2 2 2 2 2 2 2 2 2 2 2 2 2 2 2 2 2 2 2 2 2
left_child=2 3 -1 -2 24 7 -7 8 19 13 21 18 16 -10 15 -9 -13 -18 -6 27 -21 -8 -4 -11 -3 -26 -27 28 -5 -16
right_child=1 4 22 5 11 6 10 14 9 23 -12 12 -14 -15 29 -17 17 -19 -20 20 -22 -23 -24 -25 25 26 -28 -29 -30 -31
leaf_value=-0.029054494915951738 -0.0040892783551271412 0.0039215594538076822 -0.016381526075486229 0.080470725732943532 0.032671590514101456 0.03722467835394374 -0.0071484896878447248 0.081382491758147046 0.071842220843547869 -0.02848670599060079 0.018869305670887283 0.025412223269033724 0.052896295018351053 0.0029627672618710897 -0.0072665011895726075 -0.0084647238776176179 -0.0065361177401055022 0.016215191397496047 -0.013015460573180239 0.00081790691298059084 0.052992652736708903 0.0076931969213594803 -0.0070197461477496488 0.049011321912697185 -0.032823705319499338 0.060913938095729057 0.013424818544516862 -0.01237530706047549 0.0041017479671236218 0.011197150396697116
leaf_weight=59531.790869602934 133807.71416287683 41599.382290646434 71484.518558407202 412.51037163287401 22303.538037769496 4394.4076351411641 11565.991094097495 1032.5734997577965 1655.0785571411252 1409.2417250573635 22481.822705384344 14351.270678821951 1845.7976854331791 762.84904690459371 8095.4520257264376 718.30708105862141 7921.3586537688971 18815.735459795222 1184.5778841562569 18403.17460661009 917.98717506974936 94901.81549071148 40470.333472028375 506.53575713559985 1028.8305679224432 935.60116612911224 59789.609821304679 35462.77670616284 2994.0231214277446 22528.797224864364
leaf_count=472304 781784 214130 486549 2010 102582 21405 63141 5297 8201 7426 112711 67334 7729 3869 43476 3887 39506 87709 5844 98651 4395 499251 258467 2626 5288 4435 295265 190321 15528 118454
internal_value=-4.34452e-05 0.00593107 -0.0185722 0.00203309 0.0142434 0.00562246 0.00926395 0.00050539 -0.00357362 0.0244472 0.00831058 0.0215146 0.0166711 0.0501336 0.00838373 0.0445213 0.0150418 0.00947358 0.0303657 -0.00566135 0.003301 0.00608056 -0.0129977 -0.00796553 0.00956994 0.0133742 0.014158 -0.0101171 0.0133793 0.00631527
internal_weight=703313 531827 171487 362051 169776 228243 133344 94899.3 62524.2 4333.71 128950 66422.3 42934.2 2417.93 32375.1 1750.88 41088.4 26737.1 23488.1 58190.5 19321.2 106468 111955 1915.78 103353 61754 60725.2 38869.3 3406.53 30624.2
internal_count=4029575 2812255 1217320 1982433 829822 1200649 696508 504141 333027 22122 675103 310704 202278 12070 171114 9184 194549 127215 108426 310905 103046 562392 745016 10052 519118 304988 299700 207859 17538 161930
is_linear=0
shrinkage=0.03


Tree=19
num_leaves=31
num_cat=0
split_feature=0 0 0 24 109 93 8 133 150 147 0 184 134 115 116 113 184 100 11 116 0 82 109 115 150 8 204 138 184 29
split_gain=100469 18958.3 13482.5 9907.7 8170.48 4137.09 3600.16 3096.58 2963.31 3026.53 2768.5 2383.39 2366.38 2359.63 2587.61 3404.7 2292.92 2255.6 2290.59 2238.63 2188.8 2134.46 2152.66 2133.54 2374.72 2993.6 2129.64 2371.78 2252.2 1950.21
threshold=5.2652740478515634 6.0787878036499032 4.2121002674102792 1.0436692833900454 0.14103961735963824 3.4760857820510869 -0.060899404808878892 3.9875999689102177 7.8640778064727792 6.3863093852996835 5.728473663330079 -0.17454161494970319 3.2153861522674565 0.12899272888898852 -0.090276841074228273 1.0058661103248598 -0.0052091130055487147 3.8411480188369755 0.0037333812797442083 -0.080624625086784349 4.8713660240173349 2.8239696025848393 -0.499597817659378 0.12957324087619784 3.1478428840637211 -2.0221740007400508 0.42926637828350073 0.45264299213886267 -0.017798972316086289 2.3717322349548344
decision_type=2 2 2 2 2 2 2 2 2 2 2 2 2 2 2 2 2 2 2 2 2 2 2 2 2 2 2 2 2 2
left_child=2 4 -1 5 10 8 7 17 9 13 -2 -8 -10 14 -3 29 -14 18 -5 -17 -4 22 -15 -24 25 -25 27 -13 -29 -16
right_child=1 3 20 6 -6 -7 11 -9 12 -11 -12 26 16 21 15 19 -18 -19 -20 -21 -22 -23 23 24 -26 -27 -28 28 -30 -31
leaf_value=-0.029296135937145439 -0.0051086677140712499 -0.00050233414587086216 -0.016513702721348975 0.021501652187689683 0.012722791007642653 0.031829267824400327 -0.0075004164003763391 0.046318219201444084 0.054810635789405114 0.062680266428000328 0.0019690796854350489 0.0398718387965286 0.037280037863213836 -0.0043435498469612732 0.0070148657631453658 0.053736822640319683 0.0050024611387869669 0.028199130629600173 0.0019626136065111536 0.0013773977694260552 -0.0088598451056645568 -0.00593085775541808 0.048180324278906547 0.028971476102936093 0.022704660775261461 0.0059183644272841106 0.045214239987184913 0.041363249999754673 0.015181047465374893 0.025942564858962177
leaf_weight=64955.259511658922 98204.431042201817 51607.009146973491 66686.312854139134 8121.0982292927802 44292.74772715196 7006.6985055990517 1523.7885248884559 2691.0428113639355 1841.9066356793046 886.42225249484181 100775.44502564147 8557.0870780162513 3193.6483094729483 5871.6496342197061 8100.3372114300728 752.5695552714169 5220.6802918761969 6681.4551850445569 16123.867716416717 29781.749550495297 67893.146465962753 5870.4367343895137 1664.9375134520233 6006.8861184678972 18048.892467346042 32512.805388636887 7279.0770757831633 3740.8165447339416 14150.467691168189 12420.083788588643
leaf_count=521652 573188 263957 458692 39130 221067 32851 7161 12080 8308 3816 549443 39008 14547 30053 42192 3785 24009 30750 76529 152366 425742 29362 8300 30691 89475 165478 31082 17197 65159 63332
internal_value=-5.8682e-05 0.0070876 -0.018071 0.0127255 0.0010699 0.0092043 0.0224795 0.015453 0.00834138 0.0074149 -0.00152393 0.0291789 0.0240112 0.0071306 0.00423442 0.00902292 0.0172599 0.0127649 0.00850927 0.00267058 -0.0126528 0.011379 0.0129647 0.0147105 0.013724 0.00951478 0.0308371 0.0268776 0.0206591 0.0184731
internal_weight=702463 502928 199535 259655 243273 190787 68868.7 33617.5 183780 173524 198980 35251.2 10256.2 172637 102662 51054.7 8414.33 30926.4 24245 30534.3 134579 69975.6 64105.2 58233.5 56568.6 38519.7 33727.4 26448.4 17891.3 20520.4
internal_count=4030402 2624316 1406086 1280618 1343698 962522 318096 158489 929671 882807 1122631 159607 46864 878991 525632 261675 38556 146409 115659 156151 884434 353359 323997 293944 285644 196169 152446 121364 82356 105524
is_linear=0
shrinkage=0.03


Tree=20
num_leaves=31
num_cat=0
split_feature=0 0 0 194 109 149 81 125 0 97 116 115 113 183 186 112 186 186 76 0 116 172 115 127 113 173 0 97 109 98
split_gain=95453.1 17631.4 13295.5 10598.2 6626.19 5208.07 3159 3102.75 3107.81 2788.61 2582.5 2521.3 2656.69 2525.95 2337.19 2295.12 2315.07 3615.33 2194.45 2114.64 2017.62 2333.69 1842.5 1816.42 1810.31 2077.93 1781.02 1769.67 1748.72 1742.14
threshold=5.2652740478515634 5.9851942062377939 4.2121002674102792 0.11772817745804788 0.13000698387622836 4.9398393630981454 0.71075847744941723 -2.0211088657379146 6.4433357715606698 1.8893598318099978 0.29050478339195257 0.085028205066919341 0.74492824077606212 -0.071132387965917573 0.60601922869682323 -0.40755257010459894 0.67956751585006725 0.66962891817092907 2.2812300920486455 4.8242976665496835 0.34599019587039953 -0.071333993226289735 0.1283514201641083 1.9861371517181399 0.63019093871116649 -0.049070060253143304 5.6784632205963144 2.3884928226470952 0.14525839686393741 3.9847928285598759
decision_type=2 2 2 2 2 2 2 2 2 2 2 2 2 2 2 2 2 2 2 2 2 2 2 2 2 2 2 2 2 2
left_child=2 4 -1 5 20 6 7 14 -9 -5 11 -11 13 24 -3 -7 17 27 22 -4 26 -22 23 -10 25 -13 -2 -17 -21 -24
right_child=1 3 19 9 -6 15 -8 8 18 10 -12 12 -14 -15 -16 16 -18 -19 -20 28 21 -23 29 -25 -26 -27 -28 -29 -30 -31
leaf_value=-0.029033710370719615 -0.0063278214070932714 0.048569324514248793 -0.016580481670283177 -0.021513509898332332 0.011022090712074028 0.066555602710707581 -0.012432555586893617 0.0042906952589953484 0.0044781066279683899 0.0010080365410488233 0.045826177050269368 -0.0035755483139932403 0.020492428754875988 0.052197573007117713 0.015445236406393371 0.057949264076156907 -0.0011219153053718808 0.064374119346280304 0.040328720224177154 -0.011252344524372952 0.038944081431966614 0.0020066901132953434 0.015142217716133669 0.022891943346210572 -0.022678303359094806 0.051123782486639124 2.976959115019312e-06 0.015429267072516704 0.00038932576592983761 0.049439244636140016
leaf_weight=63655.416740862653 80214.623276904225 2665.2932493276894 59516.417572015896 1290.9764932952821 40799.006887190044 1139.9005623012781 7041.3281392008066 124039.54873423278 35545.364118307829 5000.607553627342 4173.029719915241 1007.5892273634672 47573.905122548342 5054.5036400258541 6846.1828746162355 993.95685055479407 2984.8321460671723 2068.9520076923072 2392.022256154567 59532.721805363894 2174.6521623507142 5271.0020634047687 28959.680172059685 5578.7864632159472 741.70740769058466 1640.5642355754972 79742.5361780487 7755.8797869794071 14420.526857513934 1397.4553726091981
leaf_count=521773 472988 12847 416170 6254 205253 4727 35737 645432 180095 23552 18014 4863 214912 22173 33777 4475 13946 9239 11439 382939 12316 29679 143084 26520 3563 7461 439374 35947 84859 6428
internal_value=-5.16482e-05 0.00686988 -0.0177517 0.0115762 0.000181154 0.00851948 0.00732603 0.00799697 0.00719231 0.0221233 0.0229882 0.0214251 0.0232471 0.0387583 0.0247345 0.0256438 0.0222586 0.0287114 0.0120638 -0.0123706 -0.00246084 0.0128028 0.011117 0.0069773 0.0187013 0.0303066 -0.0031716 0.0202689 -0.00898189 0.0167236
internal_weight=701219 504094 197125 295892 208202 229409 214466 207424 197913 66482.9 65191.9 61018.9 56018.3 8444.36 9511.48 14943.5 13803.6 10818.8 73873.3 133470 167403 7445.65 71481.3 41124.2 3389.86 2648.15 159957 8749.84 73953.2 30357.1
internal_count=4029836 2624095 1405741 1464485 1159610 1163693 1095359 1059622 1012998 300792 294538 276524 252972 38060 46624 68334 63607 49661 367566 883968 954357 41995 356127 206615 15887 12324 912362 40422 467798 149512
is_linear=0
shrinkage=0.03


Tree=21
num_leaves=31
num_cat=0
split_feature=0 0 0 196 187 88 127 0 183 209 8 111 115 207 185 97 29 96 137 24 136 24 141 0 159 209 63 87 97 209
split_gain=91098.7 17523.9 12320.2 8312.59 8069.48 3785.28 3286.78 3114.25 2832.08 2602.45 2537.28 2439.03 3118.55 3183.36 2728.55 2291.45 2250.72 2782.02 2119.5 2034.52 2024.5 2106.86 1908.85 1891.37 1889.94 1725.68 1707.36 1672.03 1626.3 1595.05
threshold=5.2337753772735605 6.140960931777955 4.1666352748870858 0.14834893494844439 0.20505309104919436 -1.4345722794532774 2.6358592510223393 5.7186696529388437 -0.12208972126245497 -3.2929925918579097 -0.38525211811065668 -0.037315674126148217 0.17641182243824008 -1.691245377063751 0.29514051973819738 1.9825322031974795 8.1414027214050311 3.3625955581665044 0.023288212716579441 0.89699676632881176 2.848441600799561 0.97311779856681835 -1.869498550891876 4.8481087684631357 -0.11032610014081 -3.5590285062789913 -2.4508904218673702 0.30754220485687261 2.9950298070907597 -3.8089531660079952
decision_type=2 2 2 2 2 2 2 2 2 2 2 2 2 2 2 2 2 2 2 2 2 2 2 2 2 2 2 2 2 2
left_child=2 4 -1 5 7 24 11 26 -6 10 -5 18 14 -14 16 -10 17 -13 -7 -19 21 -20 -9 -4 -3 27 -2 -15 -22 -16
right_child=1 3 23 9 8 6 -8 22 15 -11 -12 12 13 25 29 -17 -18 19 20 -21 28 -23 -24 -25 -26 -27 -28 -29 -30 -31
leaf_value=-0.029138474420171631 0.019724194152197134 0.033728729879604853 -0.016249362239245054 0.012670518260599135 -0.0082876504149479446 -0.009460641408781275 0.026588172570382762 0.018477129040726476 -0.0081443348421744478 -0.0083355168487587502 0.029478164216283589 0.0054384233267826864 -0.013147432029092193 0.060635533485614339 0.0028263145685920392 0.016804222709410479 -0.0055578424923895574 0.042030405198744271 -0.0099689856230283421 0.014313650734515616 0.02563451817995311 0.011068878061143515 0.0013135594742299313 -0.0089796295050261071 0.015498478656997399 0.0022960867139127207 -0.0055356436181121776 0.010742606752331831 0.0024628352041776193 0.043941980043713122
leaf_weight=59569.627354802564 2466.5134937055409 6392.0882655642927 64911.334005055949 10646.071952883154 5366.4819525927305 12870.408765017986 7990.5187645331025 6140.6087449230254 3603.6515014097095 2150.362839281559 33704.010635394603 64952.61778204143 1183.320460062474 3003.7455974295735 1201.1604251712561 40828.625503968447 11360.331424858421 2697.307682171464 10189.131530653685 20561.445138860494 6096.1175108850002 7390.698375351727 115771.48389786109 64000.300953730941 25776.223537463695 811.09909303486347 99583.648504693061 759.29569027200341 4936.4103763774037 2911.3728239126503
leaf_count=499802 13155 29829 459534 48575 28209 65877 35679 31650 19544 10060 148952 330076 5839 14496 5912 203433 56219 13226 51705 102854 30305 37283 624420 407681 123518 4073 585146 3657 24499 13986
internal_value=-2.69056e-05 0.00654448 -0.017855 0.012506 0.00137063 0.00973743 0.0078373 -0.001058 0.0122934 0.0238817 0.0254446 0.00684418 0.00919216 0.0306828 0.00799823 0.01478 0.0070086 0.00862736 0.000648867 0.0175309 0.00519755 -0.00112267 0.00217846 -0.0126405 0.0191228 0.0420286 -0.00492464 0.0505818 0.0152704 0.0319441
internal_weight=699826 511345 188481 237584 273761 191083 158915 223962 49798.8 46500.4 44350.1 150924 109442 5757.46 103684 44432.3 99571.7 88211.4 41482.8 23258.8 28612.4 17579.8 121912 128912 32168.3 4574.14 102050 3763.04 11032.5 4112.53
internal_count=4029194 2662177 1367017 1156620 1505557 949033 795686 1254371 251186 207587 197527 760007 550338 28065 522273 222977 502375 446156 209669 116080 143792 88988 656070 867215 153347 22226 598301 18153 54804 19898
is_linear=0
shrinkage=0.03


Tree=22
num_leaves=31
num_cat=0
split_feature=0 0 0 109 24 0 93 149 97 149 113 0 172 208 133 208 174 174 133 185 19 163 185 98 172 186 183 5 63 5
split_gain=86300.8 16175.1 12092.8 9117.39 6125.42 4707.05 3246.58 3059.24 2326.28 2105.04 2026.17 2014.32 1898.15 1792.69 1752.55 2434.23 1727.77 1620.61 1661.35 1604.57 1595.84 1634.03 1588.97 2005.28 1681.41 1766.96 1696.84 1604.58 1580.53 1567.86
threshold=5.2337753772735605 6.3071868419647226 4.135134458541871 0.12329519167542459 1.0450716614723208 5.7573218345642099 3.4760857820510869 3.3926630020141606 2.0168004035949711 6.1688113212585458 0.50497519969940197 4.8481087684631357 -0.15964443236589429 -2.6013360023498531 4.0519323348999032 -2.5662492513656612 0.19735006988048556 -0.079785697162151323 3.1774023771286015 0.028746782802045349 20.811334609985355 0.024190130643546585 0.0031643670517951254 2.9505856037139897 -0.021535587497055527 0.78109624981880199 0.013798507396131756 -0.024398544803261753 -2.4508904218673702 0.78784888982772838
decision_type=2 2 2 2 2 2 2 2 2 2 2 2 2 2 2 2 2 2 2 2 2 2 2 2 2 2 2 2 2 2
left_child=2 3 -1 5 6 28 9 12 10 16 -5 -4 -7 19 22 -16 29 -6 -19 -11 21 -20 24 -24 -10 26 -26 -25 -2 -3
right_child=1 4 11 8 17 7 -8 -9 14 13 -12 -13 -14 -15 15 -17 -18 18 20 -21 -22 -23 23 27 25 -27 -28 -29 -30 -31
leaf_value=-0.029115129498214518 0.017725590392068478 0.0090871776737597755 -0.016146570644402249 0.037971687346680702 0.036820509851431732 0.031976011210632697 0.034795583229750508 0.012795896965551227 0.025853151627066279 0.029235973828095299 -0.013309138059314071 -0.0086705281972841008 0.001110012611792261 0.048302137049800013 0.039285571968760091 -0.031525022138106963 0.069507325035330983 0.016575344662821047 0.019697603073834453 -0.019253725918425939 0.054303737758864649 0.050713009829179534 0.00050726235707288111 0.02973198777979277 0.019903061911557052 -0.024422478096191424 -0.00062536432098343785 0.006982135724390613 -0.0053998274372490896 -0.010949163092561234
leaf_weight=56436.937285706401 2727.8463818505406 112355.11547413841 66184.754373315722 806.75152004137635 6806.0508784390986 1815.8708828613162 4743.5257399044931 25587.565580688417 12271.557361643761 1730.4260518476367 4892.7662286944687 63670.732129760087 137805.71366142109 2266.4268407635391 4121.133918043226 487.50381782650948 417.92076510936022 25841.865104965866 8657.8753925003111 950.2461565323174 2022.8807544857264 1858.8753072209656 16123.075970832258 4977.6572301089764 12428.573169209063 1151.3958190791309 5111.2036003768444 6360.03462318331 104522.76482719183 3626.2567307315767
leaf_count=484340 14353 556770 475235 4260 29553 9189 21414 128512 59607 7489 26168 407610 737498 9735 18720 2264 1869 117476 38829 4173 8346 8295 79300 23621 59581 5864 24816 30207 616487 17954
internal_value=-3.43521e-05 0.00632225 -0.0175207 0.00254587 0.0138447 8.26256e-05 0.0104478 0.0032598 0.0123098 0.00949554 -0.00603982 -0.0124812 0.00151189 0.0286628 0.0139696 0.0317835 0.00868041 0.0233222 0.0209269 0.0120354 0.0298903 0.0251868 0.0125634 0.00730755 0.0172234 0.0115548 0.0139195 0.0169745 -0.00481121 0.00846038
internal_weight=698761 512469 186292 341191 171277 272460 126090 165209 68731.7 121346 5699.52 129855 139622 4947.1 63032.1 4608.64 116399 45187.5 38381.5 2680.67 12539.6 10516.8 58423.5 27460.8 30962.7 18691.2 17539.8 11337.7 107251 115981
internal_count=4029535 2662350 1367185 1840447 821903 1506039 619404 875199 334408 597990 30428 882845 746687 21397 303980 20984 576593 202499 172946 11662 55470 47124 282996 133128 149868 90261 84397 53828 630840 574724
is_linear=0
shrinkage=0.03


Tree=23
num_leaves=31
num_cat=0
split_feature=0 0 0 196 187 127 125 186 137 0 8 151 138 63 186 92 183 116 0 103 63 126 63 133 205 137 208 116 16 13
split_gain=81832.4 15005.9 12244.7 9190.53 5654.75 4508.91 3413.67 2846.16 2827.58 2599.8 2582.58 2950.97 2683.29 2170.39 2085.45 2027.16 1987.63 1825.24 1767.76 1694.51 1682.51 1668.5 1657.12 1656.01 1870.63 2426.39 1809.55 2326.27 2123.16 1660.52
threshold=5.2496488094329843 5.962292194366456 4.1666352748870858 0.15229727327823642 0.22829581797122958 2.1203724145889287 -1.8193860650062559 0.60489198565483104 -0.0013400320895016191 6.4622488021850595 -0.37806461751461024 1.4689926505088808 0.48987333476543432 -2.7808066606521602 0.57196882367134105 3.3104242086410527 -0.12208972126245497 0.29050478339195257 4.8713660240173349 2.3358302116394047 -3.6651741266250606 0.21609487384557727 2.5732692480087285 2.8196414709091191 0.55196321010589611 0.24154053628444674 -2.8280148506164546 -0.12065299227833746 0.8290412724018098 -0.26126220822334284
decision_type=2 2 2 2 2 2 2 2 2 2 2 2 2 2 2 2 2 2 2 2 2 2 2 2 2 2 2 2 2 2
left_child=2 4 -1 5 13 6 7 -3 -8 -10 11 -5 -13 -2 21 18 -6 22 -4 -7 -21 -12 -18 26 25 29 -16 -28 -29 -25
right_child=1 3 15 10 16 19 8 -9 9 -11 14 12 -14 -15 23 -17 17 -19 -20 20 -22 -23 -24 24 -26 -27 27 28 -30 -31
leaf_value=-0.028587060392511864 0.024368267046239133 0.041940357693210403 -0.015943784058756471 -0.00091352145668672862 -0.010570011993961053 -0.037861419412879488 -0.0038556332585099316 0.012451136983746237 0.0040686264174747194 0.011666646107414531 -0.0090986310502366944 -0.0010949843040486637 0.040266278917131505 -0.0027921588450768677 0.043380775912531255 0.011937446324487991 0.0080039877068526621 0.042174739580737884 -0.0088559063681766994 0.046296247529635279 0.017958492003809799 0.030012718260530615 0.026116647016154852 -0.011505050680109428 0.049241439503319599 -0.0047856615868835349 0.029535265760873231 0.012133786594683036 -0.031073841600648099 0.034493012319076762
leaf_weight=57152.834778806195 2689.3528786301613 3949.6530429385602 65459.47353650257 8746.86805960536 3393.9620467871428 461.50527258589864 26112.992714434862 11606.125366244465 116520.5589075014 62165.110427826643 2746.2980719543993 2147.8813837133348 4109.1482185088098 167222.39519645087 2649.294468883425 3124.9735086169094 22189.895375110209 1891.1352916099131 61415.058141928166 2034.5225640907884 25988.620704762638 1526.0282324962318 5720.3272678889334 744.51425013318658 4787.8445890955627 1816.1351881064475 6982.8676262013614 7683.2397285327315 1179.5813956707716 13286.319922011346
leaf_count=499861 13072 18470 472493 40559 18138 2390 134901 56405 600953 303362 12905 9868 18511 955072 11891 18380 113881 9556 395414 8523 121008 6939 26012 3417 19973 8000 31054 34806 5219 58262
internal_value=-4.49691e-05 0.0061776 -0.0170136 0.0103601 -0.000149241 0.00784613 0.00639394 0.0199427 0.00536459 0.00671221 0.0210701 0.0103364 0.0260653 -0.00236195 0.0247797 -0.0119251 0.0111754 0.0136532 -0.0125131 0.0190784 0.0200185 0.00486825 0.0117181 0.0269527 0.0327986 0.027826 0.0204275 0.0165854 0.0063769 0.0320494
internal_weight=697505 510352 187152 307245 203107 248839 220354 15555.8 204799 178686 58406 15003.9 6257.03 169912 43402.1 130000 33195.3 29801.4 126875 28484.6 28023.1 4272.33 27910.2 39129.8 20634.8 15847 18495 15845.7 8862.82 14030.8
internal_count=4029295 2643147 1386148 1507416 1135731 1246012 1114091 74875 1039216 904315 261404 68938 28379 968144 192466 886287 167587 149449 867907 131921 129531 19844 139893 172622 89652 69679 82970 71079 40025 61679
is_linear=0
shrinkage=0.03


Tree=24
num_leaves=31
num_cat=0
split_feature=1 105 1 92 96 8 116 127 19 145 99 165 101 1 112 150 7 169 116 150 113 18 182 184 113 208 208 209 115 116
split_gain=64029.7 16196 8503.35 7907.3 6344.24 4526.8 4520.92 3958.41 3707.71 3679.27 3566.71 3235.37 3212.84 3169.33 2991.47 2791.18 2644.29 2642.42 2538.19 2522.96 2977.39 3135.41 3023.78 3072.26 2733.37 3397.62 2442.03 2339.18 2211.1 2153.71
threshold=0.049730969592928893 16.243619918823246 0.018023344688117508 3.0915244817733769 4.2772028446197519 -0.17808873951435086 0.47089006006717687 2.4886491298675542 1.0694857239723208 -2.9096165895462032 1.8742297291755678 1.8268598914146426 3.7374881505966191 0.10443517565727235 -0.30866646766662592 3.5479837656021123 0.36083157360553747 -0.056806119158864014 -0.26869370043277735 6.1345059871673593 0.74492824077606212 17.173818588256839 -0.018496069125831124 -0.043658996000885957 1.25890588760376 -2.6335368156433101 -2.6987220048904415 -3.7169057130813594 0.14379433542490008 0.0069694966077804574
decision_type=2 2 2 2 2 2 2 2 2 2 2 2 2 2 2 2 2 2 2 2 2 2 2 2 2 2 2 2 2 2
left_child=2 3 -1 9 5 8 7 10 27 18 15 19 -12 -11 -5 -7 -8 -10 -2 20 21 -6 -22 -24 25 -25 -21 -3 -9 -15
right_child=1 4 -4 14 11 6 16 28 17 13 12 -13 -14 29 -16 -17 -18 -19 -20 26 22 -23 23 24 -26 -27 -28 -29 -30 -31
leaf_value=-0.028375097293115284 -0.0033390770412305947 0.0013992216524147557 -0.012806090801278334 0.051849128229061944 -0.031497934165843511 0.0086594675885929406 0.047600712553162727 0.027592399055763443 -0.015813029493971436 -0.0071990087014446522 -0.028450258682580169 0.00084215715292158431 0.0061722348245150712 -0.0028678838182074561 0.014389193888571225 0.027620919106080912 -0.01629499870695476 0.0014359894748575109 0.04790205290570438 -0.01741020346084507 -0.0072040340898681145 0.042631208516253176 -0.02317623248915282 0.069960547915987714 -0.0082654054277854529 0.0229702168664036 0.040959011344489343 0.018541478126142614 -0.00016402025112345991 0.0049010243530647783
