tree
version=v4
num_class=1
num_tree_per_iteration=1
label_index=0
max_feature_idx=151
objective=binary sigmoid:1
feature_names=log_t t_over_nhist cum_mean_z cum_mean_dev cum_logvar_ratio cum_skew cum_kurt cum_skew_diff cum_kurt_diff ewma_z_fast ewma_z_slow tail2_excess tail3_excess online_acf1 acf1_diff ks_stat ecdf_l1 below_hist_med_excess cusum_var_absmax cusum_var_absmax_n ph_mean ph_mean_n dvar_ratio_cum dvar_ratio_win dabs_ratio_cum cusum_absmax_k025 cusum_absmax_k025_n cusum_absmax_k05 cusum_absmax_k05_n cusum_absmax_k10 cusum_absmax_k10_n w25_mean_z w25_logvar w25_skew w25_kurt w25_ks w25_acf1_diff w25_l1 w25_nmz w25_nlv w25_nacf w25_nks w25_nl1 w50_mean_z w50_logvar w50_skew w50_kurt w50_ks w50_acf1_diff w50_l1 w50_nmz w50_nlv w50_nacf w50_nks w50_nl1 w100_mean_z w100_logvar w100_skew w100_kurt w100_ks w100_acf1_diff w100_l1 w100_nmz w100_nlv w100_nacf w100_nks w100_nl1 w200_mean_z w200_logvar w200_skew w200_kurt w200_ks w200_acf1_diff w200_l1 w200_nmz w200_nlv w200_nacf w200_nks w200_nl1 w400_mean_z w400_logvar w400_skew w400_kurt w400_ks w400_acf1_diff w400_l1 w400_nmz w400_nlv w400_nacf w400_nks w400_nl1 scan_nmz scan_nlv scan_nacf scan_nks scan_nl1 rm_scan_nmz rm_scan_nlv rm_scan_nacf rm_scan_nks rm_scan_nl1 pw_cusum_absmax_k025 pw_cusum_absmax_k025_n pw_cusum_absmax_k05 pw_cusum_absmax_k05_n pw_cusum_var_absmax pw_cusum_var_absmax_n pw_ewma_z pw_cum_mean_z pw_cum_logvar pw_acf1 acf1_h kurt_h null_smz64 null_slv64 null_sacf64 null_mem_slope a_nmz_w50 a_nacf_w50 d_nmz_w50 d_nacf_w50 x_nmz_w50 a_nmz_w200 a_nacf_w200 d_nmz_w200 d_nacf_w200 x_nmz_w200 a_scan_mz a_scan_acf d_scan_mz d_scan_acf x_scan_mz rm_a_scan_mz rm_a_scan_acf rm_d_scan_mz rm_d_scan_acf rm_x_scan_mz acf1_h_abs cross_rate_h hm100_nskew hm100_nkurt hm200_nskew hm200_nkurt hm400_nskew hm400_nkurt hm800_nskew hm800_nkurt hm_scan_skew hm_scan_kurt rm_hm_scan_skew rm_hm_scan_kurt null_skurt128
feature_infos=[0:6.9047508239746094] [0:0.97205591201782227] [-36.419296264648438:45.400802612304688] [-4.0904154777526855:3.491746187210083] [-27.632020950317383:4.5394353866577148] [-9.0617704391479492:20.753900527954102] [-1.9976813793182373:547.0517578125] [-69.016120910644531:25.404621124267578] [-4782.40478515625:546.938720703125] [-18.897451400756836:28.358081817626953] [-11.285308837890625:22.808021545410156] [-0.045499999076128006:0.95450001955032349] [-0.0027000000700354576:0.99730002880096436] [-1:1] [-1.9601897001266479:1.0758746862411499] [0.0090187592431902885:0.94999998807907104] [0.056615017354488373:9.5] [-0.5:0.5] [0:17489.021484375] [0:949.873291015625] [0.0080637186765670776:920.6370849609375] [0.0080637186765670776:45.400802612304688] [-9.5037517547607422:4.178255558013916] [-9.5037517547607422:5.3199901580810547] [0.057010319083929062:7.9415760040283203] [0:801.0794677734375] [0:40.838729858398438] [0:680.977783203125] [0:36.276657104492188] [0:501.73782348632812] [0:27.229318618774414] [-14.666685104370117:34.071701049804688] [-27.632020950317383:5.346001148223877] [-4.537625789642334:4.613189697265625] [-1.9976813793182373:19.554801940917969] [0.029999999329447746:0.94999998807907104] [-1.9601897001266479:1.1587830781936646] [0.0147368423640728:0.5] [-10.432184219360352:25.82887077331543] [-12.32830810546875:15.194316864013672] [-8.3930864334106445:8.5752887725830078] [-2.0959219932556152:6.7362351417541504] [-1.6505297422409058:8.652928352355957] [-20.071441650390625:27.272920608520508] [-27.632020950317383:4.739227294921875] [-6.3405075073242188:6.6832146644592285] [-1.9976813793182373:43.471755981445312] [0.019999999552965164:0.94999998807907104] [-1.9601897001266479:1.0758746862411499] [0.0084210522472858429:0.5] [-13.552493095397949:23.810699462890625] [-16.860940933227539:20.299150466918945] [-7.7284121513366699:26.261579513549805] [-2.0435142517089844:9.1317024230957031] [-1.7486581802368164:11.603152275085449] [-27.710336685180664:35.283843994140625] [-27.632020950317383:4.5394353866577148] [-8.3914680480957031:9.4178037643432617] [-1.9976813793182373:89.430816650390625] [0.01875000074505806:0.94999998807907104] [-1.9601897001266479:1.0758746862411499] [0.0057894736528396606:0.5] [-14.323705673217773:26.254812240600586] [-18.168037414550781:30.632596969604492] [-12.000192642211914:16.280454635620117] [-2.5823845863342285:12.07726001739502] [-2.3346865177154541:15.57506275177002] [-33.621353149414062:43.368007659912109] [-27.632020950317383:4.5394353866577148] [-9.8017940521240234:13.045253753662109] [-1.9976813793182373:176.77879333496094] [0.0099999997764825821:0.94999998807907104] [-1.9601897001266479:1.0758746862411499] [0.0039473683573305607:0.5] [-12.120919227600098:29.408695220947266] [-17.79893684387207:41.545303344726562] [-17.028118133544922:15.509370803833008] [-4.4140701293945312:18.071693420410156] [-3.6177310943603516:18.094705581665039] [-36.419296264648438:45.400802612304688] [-27.632020950317383:4.5394353866577148] [-9.1088390350341797:16.902603149414062] [-1.9976813793182373:316.92947387695312] [0.0099999997764825821:0.94999998807907104] [-1.9601897001266479:1.0758746862411499] [0.0035526314750313759:0.5] [-11.490579605102539:30.966110229492188] [-18.162759780883789:54.315177917480469] [-18.063854217529297:17.047943115234375] [-8.789738655090332:21.781059265136719] [-7.6429281234741211:28.024379730224609] [0:30.966110229492188] [0:54.315177917480469] [0:26.261579513549805] [0:21.781059265136719] [0:28.024379730224609] [0:44.790115356445312] [0:54.315177917480469] [0:34.737815856933594] [0:23.467130661010742] [0:28.636960983276367] [0:330.1849365234375] [0:17.868640899658203] [0:273.10678100585938] [0:13.354774475097656] [0:18674.642578125] [0:1014.2673950195312] [-11.358800888061523:25.124774932861328] [-18.304445266723633:22.382509231567383] [-13.725041389465332:4.5058846473693848] [-1:1] [-0.98020482063293457:0.9905402660369873] [-1.5601110458374023:4781.78955078125] [0.094582691788673401:7.387911319732666] [0.075311079621315002:1.7599741220474243] [0.0099999997764825821:0.47504070401191711] [-1.8279253244400024:1.3045296669006348] [-6.2818207740783691:50.100719451904297] [-6.8708682060241699:5.579063892364502] [-12.640300750732422:22.556516647338867] [-9.7596855163574219:7.6590642929077148] [-9.6481952667236328:8.0344047546386719] [-9.6957817077636719:72.676841735839844] [-11.888724327087402:8.4631357192993164] [-15.049823760986328:17.755289077758789] [-15.27488899230957:14.463567733764648] [-16.268218994140625:12.243315696716309] [0:72.676841735839844] [0:11.888724327087402] [0:22.556516647338867] [0:15.27488899230957] [0:16.268218994140625] [0:72.676841735839844] [0:12.518227577209473] [0:50.381908416748047] [0:18.132160186767578] [0:19.840866088867188] [-0.33435523509979248:0.98120212554931641] [0.047962125390768051:0.9398496150970459] [-18.40892219543457:36.993812561035156] [-3.3359601497650146:211.0513916015625] [-24.039693832397461:78.686515808105469] [-4.4278244972229004:552.1556396484375] [-32.777317047119141:167.22222900390625] [-5.8753705024719238:1695.7816162109375] [-24.039693832397461:244.46841430664062] [-9.2598495483398438:3240.11474609375] [0:244.46841430664062] [0:3240.11474609375] [0:244.80157470703125] [0:3246.145263671875] [0.062032785266637802:33.305770874023438]
tree_sizes=3470 3549 3566 3567 3552 3567 3561 3571 3566 3583 3556 3577 3602 3555 3564 3568 3597 3588 3565 3579 3581 3587 3573 3595 3589 3574 3585 3567 3587 3594 3580 3573 3596 3560 3569 3587 3572 3585 3583 3577 3574 3588 3585 3591 3590 3581 3588 3586 3581 3617 3597 3584 3577 3583 3610 3580 3590 3597 3620 3596 3587 3606 3589 3597 3593 3605 3610 3639 3600 3594 3608 3587 3600 3611 3590 3619 3599 3609 3608 3609 3600 3609 3608 3621 3619 3610 3602 3599 3594 3593 3635 3579 3609 3627 3587 3588 3610 3611 3595 3602 3616 3620 3566 3611 3608 3595 3610 3600 3595 3568 3607 3603 3609 3625 3587 3578 3580 3601 3600 3612 3635 3600 3599 3574 3589 3609 3582 3620 3576 3599 3584 3586 3576 3624 3576 3613 3612 3591 3580 3605 3617 3592 3598 3618 3593 3572 3596 3585 3596 3601 3626 3586 3573 3577 3598 3617 3584 3606 3605 3611 3589 3598 3615 3621 3568 3573 3589 3594 3561 3568 3615 3600 3625 3564 3583 3583 3581 3573 3572 3605 3583 3579 3627 3571 3635 3576 3600 3586 3594 3567 3589 3612 3576 3574 3596 3586 3571 3593 3585 3554 3606 3597 3616 3590 3573 3552 3572 3602 3591 3579 3597 3591 3587 3566 3594 3603 3594 3593 3578 3589 3578 3590 3575 3590 3574 3589 3590 3605 3582 3576 3590 3594 3604 3611 3576 3546 3618 3592 3601 3581 3544 3597 3566 3559 3559 3568 3609 3597 3590 3600 3567 3572 3584 3578 3571 3557 3570 3602 3573 3561 3561 3563 3587 3583 3562 3612 3644 3580 3582 3625 3594 3593 3614 3552 3586 3584 3616 3587 3592 3615 3559 3593 3555 3581 3580 3599 3608 3569 3618 3566 3579 3598 3561 3563 3564 3612 3598 3547 3602 3567 3600 3564 3594 3583 3582 3574 3590 3585 3585 3584 3613 3564 3597 3622 3574 3582 3569 3563 3565 3605 3587 3564 3574 3554 3587 3587 3567 3580 3574 3595 3590 3581 3577 3572 3555 3610 3562 3554 3606 3559 3572 3594 3594 3572 3589 3584 3565 3590

Tree=0
num_leaves=31
num_cat=0
split_feature=0 127 0 0 22 109 149 109 8 147 88 0 113 8 87 17 92 134 114 125 113 12 135 149 151 102 27 27 115 0
split_gain=206239 44936.2 27222 25607.6 12501.2 8993.87 7005.11 6167.31 5628.9 3737.72 3725.23 3303.12 3264.38 3699.7 3229.15 3203.6 3163.95 3163.38 5333.94 3023.12 3014.44 2890.06 2853.68 3651.43 3299.24 2496.58 2496.33 2385.73 2269.42 2240.72
threshold=5.5274410247802743 2.633878350257874 4.6491756439208993 6.2412495613098153 0.083962261676788344 0.079287916421890273 6.3587453365325937 0.16129401326179507 -0.026184494607150551 2.2570197582244877 4.1618382930755624 3.9981586933135991 1.5903612971305849 -0.17741061002016065 -3.2778708934783931 -0.020340797491371628 4.4492626190185556 6.3588922023773202 0.24008287489414218 -2.4369215965270992 2.43333911895752 0.00093086267588660132 3.8148926496505742 3.0790423154830937 22.180957794189457 0.20520972460508349 18.956934928894047 16.178812980651859 0.11042375862598421 5.1445789337158212
decision_type=2 2 2 2 2 2 2 2 2 2 2 2 2 2 2 2 2 2 2 2 2 2 2 2 2 2 2 2 2 2
left_child=2 3 11 5 6 9 10 29 17 20 14 -1 -6 21 -5 -8 -10 18 -3 -18 -2 -14 24 27 -16 -25 -22 -24 -27 -4
right_child=1 8 7 4 12 -7 15 -9 16 -11 -12 -13 13 -15 22 -17 19 -19 -20 -21 26 -23 23 25 -26 28 -28 -29 -30 -31
leaf_value=-1.2005270927669274 -1.1657439184634908 -1.1101609246386166 -1.1829999174495283 -1.1097597349935027 -1.1281520902188389 -1.1458717109650305 -1.1779543382022835 -1.1614572224294033 -1.1114785418452895 -1.1499079849703389 -1.0643605287407987 -1.1901848272909807 -1.1036750485374249 -1.0852842373730753 -1.1514753843616952 -1.0802441140034582 -1.1268112122512317 -1.0928764801658502 -1.1523732990867763 -1.0738755001422531 -1.1126444279197483 -1.1925263086156743 -1.1521024339997257 -1.0612093145386945 -1.0637073295457184 -1.1508569501973198 -1.1577336859395924 -1.0913554837160928 -1.1043329621949622 -1.1746272335657308
leaf_weight=59598.011418987066 113356.91040313244 4972.5923584364355 54610.668416887522 1937.5910185351968 21525.547034077346 35453.363536316901 356.21262618526816 22617.202857811004 8542.8082619793713 17513.410344026983 480.7264128960669 52079.977093737572 728.88374201208353 3598.6728838011622 78420.518944427371 1984.1345685906708 1190.7149817943573 2108.8586640879512 5879.5461523346603 5260.9767163135111 1730.0668317824602 601.25883318856359 7809.5878046713769 679.12391528859735 387.36736141517758 1607.4458262883127 3059.1179761886597 628.69690124690533 2285.0359364971519 60789.567631341517
leaf_count=338959 636723 27678 309844 10845 120391 199120 1983 128518 47832 98737 2663 297643 4076 20052 439472 11133 6686 11834 32988 29315 9804 3348 43731 3765 2176 9010 17138 3515 12802 343444
internal_value=-1.16423 -1.14837 -1.18469 -1.15182 -1.14138 -1.15933 -1.14639 -1.17578 -1.11202 -1.16284 -1.14766 -1.1957 -1.12311 -1.10109 -1.14809 -1.09512 -1.0995 -1.1265 -1.13303 -1.08365 -1.16476 -1.14384 -1.1489 -1.13588 -1.15104 -1.11429 -1.14145 -1.14758 -1.12355 -1.17859
internal_weight=571795 322099 249695 294144 123031 171113 96576.4 138017 27955.5 135660 94236.1 111678 26454.4 4928.82 93755.4 2340.35 14994.5 12961 10852.1 6451.69 118146 1330.14 91817.8 13009.9 78807.9 4571.61 4789.18 8438.28 3892.48 115400
internal_count=3225225 1806817 1418408 1650484 688962 961522 541095 781806 156333 762402 527979 636602 147867 27476 525316 13116 83833 72500 60666 36001 663665 7424 514471 72823 441648 25577 26942 47246 21812 653288
is_linear=0
shrinkage=1


Tree=1
num_leaves=31
num_cat=0
split_feature=0 92 0 105 150 22 109 145 27 0 114 135 29 97 116 0 0 0 146 137 0 5 85 114 106 127 116 109 113 116
split_gain=194139 39883.5 28522.8 20798.6 10346.1 8182.88 6266.63 6145.09 5786.55 5072.7 4889.15 4821.4 4565.49 4531.21 4642.45 3892.59 3798.93 3476.38 3394.97 3479.48 3393.93 3314.48 2711.47 2665.97 2548.79 2478.38 2391.28 2386.44 2338.4 3125.08
threshold=5.56260108947754 3.0596140623092656 4.7050054073333749 16.276908874511722 7.5912766456604013 0.060836914926767356 0.16628095507621768 -2.8415956497192378 4.222198724746705 6.3430011272430429 0.38699239492416387 2.8477653264999394 7.146231174468995 1.928009629249573 0.29857268929481512 6.3071868419647226 4.0517470836639413 6.0672669410705575 7.2875876426696786 0.022710713557899002 6.2624449729919442 0.6654224991798402 0.023577627725899223 0.32136626541614538 1.327242434024811 4.1312675476074228 -0.1256790682673454 0.12155143544077875 5.5070724487304696 0.32781787216663366
decision_type=2 2 2 2 2 2 2 2 2 2 2 2 2 2 2 2 2 2 2 2 2 2 2 2 2 2 2 2 2 2
left_child=2 3 16 7 5 15 -4 -2 18 -9 -6 12 -12 -7 17 26 -1 -15 19 -3 25 27 -11 -16 -13 -10 -5 -17 29 -25
right_child=1 8 6 4 10 13 -8 9 20 22 11 24 -14 14 23 21 -18 -19 -20 -21 -22 -23 -24 28 -26 -27 -28 -29 -30 -31
leaf_value=-0.035600695948598299 0.054050890766279905 0.042574696847792422 -0.013123009029488488 -0.0025991836488037387 0.030415051052887412 -0.013601977066369685 0.0043078079586446614 -0.0014456540590969363 0.033087523219112812 0.0061772060924046839 -0.019755538066826086 -0.0039703737930192407 0.087811763828911579 0.015812961623430752 0.086074720274204597 0.019564881671423815 -0.024719025982283795 0.032028236573574627 0.11433123485302793 -0.006611815335178536 0.063337840229816367 -0.016047316845735935 0.024824152675673616 0.11392318953667405 0.096420525243553629 0.061797882310115348 0.010961907858452016 0.078456516832969919 0.1188643321365891 0.00084243015356270847
leaf_weight=61696.550294071436 2082.6170229800045 2223.1137932054698 116706.00896071643 18613.347676113248 7326.0913529507816 2469.6567137800157 22073.620402839035 92414.176361627877 8817.3026299476624 20562.213774181902 873.17761183157563 245.52801211178303 598.53629913553596 19768.277654055506 1840.6416167505085 37796.352871201932 54275.805293161422 29893.174311358482 321.46078256517649 3098.4066301174462 13914.148897018284 2367.0055984780192 10655.11470175907 266.43360172212124 3118.6085512265563 3904.2420276552439 31520.057914994657 629.59420192241669 254.06560554727912 1260.7311292290688
leaf_count=357722 11571 12149 664870 104167 40477 13737 125082 517936 48685 114160 4823 1355 3278 110145 10066 209773 314075 164596 1711 17054 75668 13052 59250 1438 17199 21188 176891 3464 1409 6998
internal_value=-2.87845e-05 0.0156488 -0.019527 0.0120639 0.0192794 0.0170747 -0.0103505 0.00294708 0.0472518 0.00208622 0.0458689 0.0692808 0.0239914 0.0261237 0.027965 0.0115262 -0.030508 0.0255736 0.0196554 0.0139363 0.0530983 0.0184074 0.0125418 0.0607551 0.0890936 0.0418987 0.005927 0.0205298 0.0345909 0.0205708
internal_weight=571586 316834 254752 284555 158841 146679 138780 125714 32278.7 123632 12161.9 4835.85 1471.71 55753 53283.3 90926.4 115972 49661.5 5642.98 5321.52 26635.7 40793 31217.3 3621.87 3364.14 12721.5 50133.4 38425.9 1781.23 1527.16
internal_count=3223989 1762240 1461749 1585785 882868 815736 789952 702917 176455 691346 67132 26655 8101 308389 294652 507347 671797 274741 30914 29203 145541 226289 173410 19911 18554 69873 281058 213237 9845 8436
is_linear=0
shrinkage=0.03


Tree=2
num_leaves=31
num_cat=0
split_feature=0 127 0 0 22 105 149 105 8 109 88 116 151 114 96 113 96 115 97 116 150 113 87 150 17 51 113 135 115 106
split_gain=183932 38333.4 24047.2 23391.7 10698.5 7805.11 5824.28 5257.83 4883.32 3699.33 3326.81 2982.3 2907.99 4240.83 3221.89 2834.51 2934.68 2949.94 2781.19 2776.19 4207.9 3774.18 3164.93 2695.32 2644.59 2614.21 2598.89 2986.26 2721.64 3883.54
threshold=5.4909996986389169 2.633878350257874 4.5591125488281259 6.2255475521087655 0.086649645119905486 16.181350708007816 6.3587453365325937 16.403944015502933 -0.020832749083638188 0.076804868876934065 4.1618382930755624 0.29857268929481512 6.7131502628326425 0.24008287489414218 9.4313192367553729 1.5317820906639101 2.5836139917373662 0.14329810440540316 3.7339848279953007 -0.12770936638116834 0.91242566704750072 2.0471518039703374 -4.168320655822753 10.278404235839846 -0.019057730212807652 2.7938735485076909 1.0308942198753359 2.446616649627686 0.14207813888788226 0.36480210721492773
decision_type=2 2 2 2 2 2 2 2 2 2 2 2 2 2 2 2 2 2 2 2 2 2 2 2 2 2 2 2 2 2
left_child=2 3 -1 5 6 -2 10 -4 12 11 19 -7 13 -3 23 -6 -17 -18 -19 20 -5 -22 -21 -15 -8 -9 27 -24 -28 -30
right_child=1 8 7 4 15 9 24 25 -10 -11 -12 -13 -14 14 -16 16 17 18 -20 22 21 -23 26 -25 -26 -27 28 -29 29 -31
leaf_value=-0.031511862815735876 -0.0021335863484841641 0.048670656125280584 -0.016113280109678781 0.08765144592068648 0.032540419475674438 0.0038013302024490687 -0.009838772695279583 -0.0050480448236571831 0.058062266367279444 0.018697516990863153 0.089704472133350602 0.03240144296888376 0.07168699603681504 0.0055837904157661671 0.11408910191251813 0.086409595992067975 0.065149949408746938 -0.0046309481332672637 0.11465499997941449 0.093370855110714371 0.0059844939337420182 0.088188272196264489 0.0066736983826576933 0.11543550548326675 0.074495356985287156 0.03146160586763809 0.0074978815152950944 0.031165033783084842 0.095505773290895254 0.020918398353812265
leaf_weight=99020.160347159952 90616.722488887608 5412.7954007349908 94060.838821399957 593.06991450488567 22236.024446498603 49357.754898715764 396.96012882143259 41671.348321650177 15970.564349066466 31440.581221275032 535.87953991442919 3515.0887009315193 1608.486107993871 6414.9004299603403 273.54711711779237 1929.074793022126 1962.6533605568111 1403.9503264278173 201.11005157977343 506.67824972420931 36768.067211907357 509.63614592328668 5837.9059111773968 207.52328670024872 2132.0744251981378 1843.1660264059901 25090.470660530031 19273.22864902392 671.05622103437781 9851.3981453366578
leaf_count=583972 509181 28852 541163 3254 119972 276172 2175 238392 84567 173342 2798 19538 8683 35062 1439 10068 10398 7602 1085 2707 202844 2822 32087 1079 11241 10475 138307 106377 3702 54151
internal_value=8.07029e-06 0.0143193 -0.0202384 0.0111403 0.0207842 0.00397897 0.0162986 -0.0121243 0.0467422 0.0105485 0.0151574 0.00570272 0.033752 0.0287948 0.0131938 0.037309 0.0565992 0.0404807 0.0103153 0.0147543 0.00836966 0.00710833 0.0187032 0.00902615 0.0612582 -0.00350159 0.0180802 0.0254712 0.0128687 0.0256751
internal_weight=571313 334717 236596 304829 129899 174930 102166 137575 29887.8 84313.4 99637.4 52872.8 13917.3 12308.8 6895.97 27732.8 5496.79 3567.71 1605.06 99101.5 37870.8 37277.7 61230.7 6622.42 2529.03 43514.5 60724.1 25111.1 35612.9 10522.5
internal_count=3223507 1849505 1374002 1689823 711590 978233 562465 790030 159682 469052 549049 295710 75115 66432 37580 149125 29153 19085 8687 546251 208920 205666 337331 36141 13416 248867 334624 138464 196160 57853
is_linear=0
shrinkage=0.03


Tree=3
num_leaves=31
num_cat=0
split_feature=1 92 105 1 135 11 105 145 103 135 1 25 133 97 114 96 16 114 112 92 116 146 113 14 101 111 116 20 20 102
split_gain=150359 36857.6 23938.8 20575.8 7675.27 6568.26 5988.31 5408.85 5039.64 4869.05 4743.29 4073.54 3883.19 3780.3 3358.54 3310.49 3442.93 3132.66 3787.1 3459.22 3119.46 3094.79 2810.13 2677.8 2593.7 2511.2 2469.18 2424.09 2405.07 2376.09
threshold=0.07312325015664102 3.1918472051620488 16.276908874511722 0.029892476275563244 5.1351914405822763 -0.027104252949357029 16.403944015502933 -2.8415956497192378 3.7147412300109868 2.93092954158783 0.13880614191293719 17.756276130676273 2.9943150281906132 2.7725012302398686 0.49728845059871679 3.8841885328292851 1.2561479806900027 0.24311078339815143 6.3835914134979257 5.1671347618103036 0.34408263862133032 7.2875876426696786 1.6642243862152102 -0.036644954234361642 5.2957763671875009 0.019562656991183761 -0.022723313421010968 26.120130538940433 49.901363372802741 0.39092665910720831
decision_type=2 2 2 2 2 2 2 2 2 2 2 2 2 2 2 2 2 2 2 2 2 2 2 2 2 2 2 2 2 2
left_child=3 2 7 -1 5 20 -5 -2 21 15 -9 26 17 -6 -14 23 22 19 -19 -10 -4 -3 -17 25 -8 -7 29 -15 -12 -11
right_child=1 8 4 6 13 9 24 10 12 11 28 -13 14 27 -16 16 -18 18 -20 -21 -22 -23 -24 -25 -26 -27 -28 -29 -30 -31
leaf_value=-0.030661161949633895 0.044624592603683955 0.0018040370420072975 -0.0051122795548074812 -0.016367055375135626 0.097388630366589096 0.0062065301685925896 -0.019764094774337944 -0.0060246829184040602 0.038555658595305423 0.023683823473161243 0.002226086960992617 0.037436220120426092 0.0541589350465762 0.0012864879097762444 0.10629386625328302 0.036063334884310315 -0.011647378221979299 0.015053776052323839 0.072561941747837824 0.082630273482633243 0.040498327024728345 0.10658096506522384 -0.021045816593738088 0.005997054241922946 0.0015595269865699558 0.025684837665019805 0.027974046876240135 0.056612185889709572 0.016475498336695794 0.0069721798992603296
leaf_weight=92564.83294955641 2413.2487061470747 3446.4108726680279 17088.674949787557 82226.626250557601 1338.1015831679106 9746.6202871650457 6133.904131334275 74287.959104403853 6192.8823502659798 13639.345736809075 62242.13445327431 14791.472963687032 10975.399295542389 1100.318102736026 1237.4650837779045 11146.717805292457 1873.0331720821559 6829.2221021912992 1213.771401334554 2162.2388373948634 1465.2703411914408 273.87476713955402 833.43738219514489 47619.474349733442 31487.466784074903 15320.361487526447 19245.873905804008 2023.5208171382546 12863.66456194967 17458.19599731639
leaf_count=553391 13076 18864 94810 477344 7137 53619 35281 421355 32686 74658 346667 79697 57345 5987 6362 60745 10222 36187 6351 11046 7993 1373 4538 262601 179393 83554 104796 10696 70875 95554
internal_value=-3.2281e-05 0.0118096 0.00878403 -0.0200368 0.0163566 0.0153385 -0.0118311 6.99607e-05 0.0423638 0.0173996 -0.000649757 0.0235953 0.0466348 0.0551974 0.0594415 0.0127364 0.0261768 0.0370967 0.0237324 0.0499618 -0.00151025 0.00951736 0.0320904 0.0101748 -0.00191714 0.0181112 0.0195286 0.0371247 0.00466664 0.0143019
internal_weight=571242 358829 326497 212413 174690 170228 119848 151807 32331.3 151675 149394 65134.9 28611 4461.94 12212.9 86539.6 13853.2 16398.1 8042.99 8355.12 18553.9 3720.29 11980.2 72686.5 37621.4 25067 50343.4 3123.84 75105.8 31097.5
internal_count=3224203 1978794 1808580 1245409 956607 932787 692018 851973 170214 829984 838897 354705 149977 23820 63707 475279 75505 86270 42538 43732 102803 20237 65283 399774 214674 137173 275008 16683 417542 170212
is_linear=0
shrinkage=0.03


Tree=4
num_leaves=31
num_cat=0
split_feature=0 92 0 0 109 109 27 92 150 105 0 146 137 116 97 132 5 99 151 143 105 135 150 96 137 96 116 116 100 135
split_gain=165106 33143.3 20192 19927.6 9076.75 8385.25 4753.15 4326.35 4289.59 3299.72 2973.23 2717.54 3062.09 2656.25 2612.57 2964.58 2574.03 2523.99 2515.8 2527.75 2437.35 2361.66 3208.96 2880.32 2548.84 2503.29 2393.56 2322.39 2267.17 2214.27
threshold=5.427147865295411 3.0596140623092656 4.49422311782837 6.1851787567138681 0.058615706861019141 0.12855406850576404 4.222198724746705 2.7337160110473637 7.2271745204925546 17.323109626770023 6.1601512432098398 5.47989845275879 0.022710713557899002 -0.99565184116363514 2.0188608169555669 1.7442675828933718 0.73121750354766857 1.2052866220474245 22.180957794189457 -3.2416083812713619 16.403944015502933 3.0958381891250615 2.1079316139221196 2.4723842144012456 0.02055101748555899 3.7102104425430302 0.17667935788631442 0.29857268929481512 5.0025362968444833 2.8360863924026494
decision_type=2 2 2 2 2 2 2 2 2 2 2 2 2 2 2 2 2 2 2 2 2 2 2 2 2 2 2 2 2 2
left_child=2 3 -1 5 8 9 11 20 13 -2 -8 12 -3 -5 -7 -16 17 -15 19 -19 -4 22 28 -24 26 29 -23 -11 -6 -25
right_child=1 6 7 4 21 14 10 -9 -10 27 -12 -13 -14 16 15 -17 -18 18 -20 -21 -22 24 23 25 -26 -27 -28 -29 -30 -31
leaf_value=-0.031348889932361505 -0.0030966562930795803 0.036259234854930066 -0.016875962523581586 -0.01482613592820523 -0.00025358879698951845 -0.0085429911017660641 0.033465085053385198 0.0094066211985525342 0.039419599661915973 0.0044774370451567116 0.052840779661495779 0.088206914811590889 -0.0080696875014721198 0.085230659387910496 0.077408431763544019 0.020029470777411004 -0.014994228523338636 0.05761321718547132 0.075706490452117678 0.012670737474941332 -0.0074696521882955504 0.015266744393858981 0.074037651391028719 0.025589828889336832 0.048136323702113501 0.045821971226802052 0.07280113898185421 0.029242963345803712 0.09768726816797646 -0.012445308579590137
leaf_weight=90021.729195460677 96317.528178602457 2428.675249312073 86920.782693255693 3165.5322641991079 4964.3560990579426 2803.6734632104635 11911.518680989742 7417.691680315882 5505.8456166833639 50996.714410163462 17748.435674574226 437.70108203962445 3319.0361489318311 445.20338952541351 841.35442535206676 22029.025919403881 2845.9963809549809 1140.5445933565497 583.79846783727407 90332.767621345818 34686.23260916397 4785.4307195097208 1304.3109877109528 6523.7186194062233 10764.748416408896 4279.9118437841535 753.20540250837803 3651.9021936058998 222.23808419704437 1746.2800870612264
leaf_count=548943 543566 12740 509484 17354 26545 15540 62291 42350 29165 282690 89983 2162 18006 2317 4549 119563 15564 6073 3052 492688 199728 25161 6620 34701 56473 22553 3949 19815 1171 9209
internal_value=2.84231e-06 0.0127324 -0.0204444 0.00963135 0.0181128 0.00293971 0.0400707 -0.0128362 0.01365 0.000244192 0.0450594 0.0161487 0.0106613 0.0122098 0.0187896 0.0221403 0.0131073 0.0139719 0.0136273 0.0132311 -0.014193 0.0312472 0.0240715 0.031607 0.0396278 0.0271972 0.0230909 0.0061324 0.00394304 0.0175584
internal_weight=570896 351849 219046 316004 139364 176640 35845.4 129025 104020 150966 29660 6185.41 5747.71 98513.8 25674.1 22870.4 95348.3 92502.3 92057.1 91473.3 121607 35344.2 19040.8 13854.2 16303.4 12549.9 5538.64 54648.6 5186.59 8270
internal_count=3224005 1923500 1300505 1738318 752595 985723 185182 751562 566213 846071 152274 32908 30746 537048 139652 124112 519694 504130 501813 498761 709212 186382 100799 73083 85583 66463 29110 302505 27716 43910
is_linear=0
shrinkage=0.03


Tree=5
num_leaves=31
num_cat=0
split_feature=0 127 0 0 22 149 105 97 105 114 134 130 4 6 114 97 103 150 2 122 92 133 85 113 113 87 5 100 0 8
split_gain=156582 31407.1 21264.5 18632.3 9063.38 5757.98 5616.25 4686.54 3915.4 3217.63 3569.57 3125.55 3080.49 2788.81 4675.59 2540.99 2387.71 2340.4 2305.09 2259.14 2212.65 2201.61 2120.96 2086.96 2044.84 2031.06 1968.04 1865.48 1864.33 1855.29
threshold=5.4004201889038095 2.4855500459671025 6.1344814300537118 4.4601275920867929 0.089416742324829115 6.3587453365325937 17.323109626770023 4.4777820110321054 16.403944015502933 0.24008287489414218 7.6071503162384042 2.440747976303101 0.0018847700557671489 0.57572993636131298 0.26161044836044317 1.8947515487670901 14.328231334686281 7.2271745204925546 1.1408390402793886 -0.63388121128082264 2.7337160110473637 3.8188896179199223 0.028496786952018741 1.5434283614158633 2.43333911895752 -3.2778708934783931 0.69586876034736644 1.6647589206695559 3.8815106153488164 -0.84222713112831105
decision_type=2 2 2 2 2 2 2 2 2 2 2 2 2 2 2 2 2 2 2 2 2 2 2 2 2 2 2 2 2 2
left_child=3 2 6 28 5 11 24 13 -5 22 21 16 -6 14 -3 -14 25 19 -7 23 -10 -11 -9 -8 -2 -4 -27 -13 -1 -18
right_child=1 7 4 8 12 18 17 9 20 10 -12 27 15 -15 -16 -17 29 -19 -20 -21 -22 -23 -24 -25 -26 26 -28 -29 -30 -31
leaf_value=-0.035149312317760882 -0.0040432178876380074 0.034653133541679669 0.039811794027159536 -0.016618815898763916 0.062042928989656972 0.066774260878962446 -0.0073380211355541947 0.045406788370678401 -0.0077611197974984539 0.01331095480459058 0.067404081965273893 0.076814433261708059 -0.022201823027735348 0.044145340079008034 0.00018623398175099319 0.029843023543090624 -0.0093322853506369249 0.027956512194312558 -0.0042997294670734177 0.0097753555574542194 0.014528017196792706 0.058868049321910115 0.079566293810670388 0.022493773468804559 0.018964138854309975 0.010412518207116306 -0.012772961449570781 0.026155891748419972 -0.026211553798207991 0.047097029118232596
leaf_weight=48639.856232602149 92206.005991946906 9697.0390108861029 2051.3685710206628 87875.430176671594 2655.8264008499682 2437.9525974430144 14403.88623996079 2690.3040194921196 33294.365875631571 4049.9942981004715 2523.0299306996167 725.05477839708328 869.64373718574643 7762.1678377576172 5580.8201127909124 28954.927999638021 652.19421760365367 4913.3708174303174 493.88212470710278 48538.287363693118 4557.0072118788958 1249.1802409626544 4173.8673074729741 2472.9079003445804 3612.9406748823822 103764.10496553406 3402.9805194623768 6697.1274426318705 36968.648608483374 2675.6605832949281
leaf_count=302596 521864 50429 10461 520253 13322 12209 80011 13362 192774 20608 12306 3773 4677 40095 29816 150073 3489 26505 2564 266020 25591 6205 20385 13530 20229 563454 18671 35859 229129 14156
internal_value=-4.53578e-06 0.012049 0.00901059 -0.0204947 0.0169885 0.0132637 0.00154968 0.0379443 -0.0131442 0.051188 0.0380339 0.0122486 0.0310824 0.0295024 0.0220628 0.0283255 0.011005 0.00798779 0.0548015 0.00648792 -0.00507768 0.0240502 0.066178 -0.00296685 -0.0031757 0.0102423 0.00967629 0.0311046 -0.0312897 0.036038
internal_weight=570590 359255 321528 211335 155381 122900 166147 37726.4 125727 14686.4 7822.2 119968 32480.4 23040 15277.9 29824.6 112546 70328.5 2931.83 65415.1 37851.4 5299.17 6864.17 16876.8 95818.9 109218 107167 7422.18 85608.5 3327.85
internal_count=3224416 1954073 1760867 1270343 832708 664636 928159 193206 738618 72866 39119 649863 168072 120340 80245 154750 610231 386066 14773 359561 218365 26813 33747 93541 542093 592586 582125 39632 531725 17645
is_linear=0
shrinkage=0.03


Tree=6
num_leaves=31
num_cat=0
split_feature=0 127 0 0 22 97 105 149 92 98 151 14 116 150 114 134 149 0 116 138 96 113 115 106 116 132 132 114 103 0
split_gain=148304 28418.8 20144.2 17384.1 7179.78 5446.19 5213.56 4744.69 4245.5 2907.27 2898.32 2872.17 2828.87 3649.57 2746.37 3115.18 2686.03 2603.52 2570.66 2570.49 2819.44 2463.39 2765.92 3210.52 3152.26 2754.45 2713.38 2629.67 2564.51 2424.79
threshold=5.4531798362731942 2.2606152296066289 4.5271940231323251 6.1789803504943857 0.083962261676788344 4.4777820110321054 17.323109626770023 6.3587453365325937 2.7337160110473637 5.2143888473510751 5.1330220699310312 0.079812083393335356 -0.12325903400778769 0.91242566704750072 0.24008287489414218 7.6071503162384042 4.4769744873046884 6.3500125408172616 0.29857268929481512 0.46825358271598821 2.608959555625916 1.0308942198753359 0.14207813888788226 0.37088869512081152 -0.080310784280300127 2.1392822265625004 2.4729795455932622 0.32136626541614538 14.328231334686281 5.0336952209472665
decision_type=2 2 2 2 2 2 2 2 2 2 2 2 2 2 2 2 2 2 2 2 2 2 2 2 2 2 2 2 2 2
left_child=2 3 -1 6 7 10 -2 9 29 12 17 -11 13 -5 -7 -16 18 -3 -8 20 -6 26 24 -24 25 -23 -14 -28 -26 -4
right_child=1 5 8 4 19 14 16 -9 -10 11 -12 -13 21 -15 15 -17 -18 -19 -20 -21 -22 22 23 -25 28 -27 27 -29 -30 -31
leaf_value=-0.030302302428808995 -0.0025921361437845881 0.016649777402946288 -0.017831578033826696 0.073368861305324926 0.066944205088427008 0.0608414584191471 0.0048389348346725676 0.052378595636482672 0.0096986773241091607 0.026922775800276435 0.050660623975135384 0.10372455883258108 0.013932529360632264 0.0036993799457175846 0.023547674901559294 0.062857342256990661 0.027652029985060295 0.036762223920311615 0.028469332889692486 0.022939557559308255 0.032017361009029043 -0.011120870850549483 0.082499483896681811 0.018189064409785616 0.00028570105617709615 0.058964534241429244 0.024571077902643679 0.057631682674119264 0.084564902995139385 -0.0093251745776671852
leaf_weight=89723.59507156536 92926.527946110815 18549.602288916707 55141.00784894079 688.50493354350328 2824.8631468005478 7726.6967939957976 60519.858715962619 2674.9827637225389 7766.2539456710219 2105.6706858277321 3880.2095155641437 553.4155273810029 15559.571075525135 39484.453370757401 5710.2745920158923 2659.3580780625343 5867.0921261608601 8422.8462949953973 4447.7976713478565 19528.3437384516 7889.9374725408852 725.55435125157237 746.98290475085378 10796.071018919349 23552.672663755715 1657.915997710079 8159.9742105305195 2947.4454687163234 329.48729426786304 66570.344766307622
leaf_count=566567 525078 97792 329490 3587 13754 37210 331314 13160 43911 11099 19820 2813 83704 213602 28635 12640 31392 42861 23535 100185 40187 3942 3900 57424 127158 8939 43511 15678 1705 389679
internal_value=-1.75457e-05 0.012075 -0.0193774 0.00871993 0.0164728 0.0337982 0.0020813 0.0129131 -0.0118067 0.0119293 0.0264179 0.042907 0.0111421 0.00489341 0.0479443 0.0360379 0.00821228 0.0229304 0.00645671 0.0294181 0.0412255 0.0150356 0.0101108 0.0223508 0.00473172 0.0376298 0.0220178 0.033344 0.00144845 -0.013179
internal_weight=570137 350936 219201 303987 140226 46949 163761 109983 129478 107308 30852.7 2659.09 104649 40173 16096.3 8369.63 70834.7 26972.4 64967.7 30243.1 10714.8 64475.7 37808.7 11543.1 26265.6 2383.47 26667 11107.4 23882.2 121711
internal_count=3224272 1894625 1329647 1655667 744348 238958 911319 590222 763080 577062 160473 13912 563150 217189 78485 41275 386241 140653 354849 154126 53941 345961 203068 61324 141744 12881 142893 59189 128863 719169
is_linear=0
shrinkage=0.03


Tree=7
num_leaves=31
num_cat=0
split_feature=0 0 127 0 22 105 109 0 135 99 8 97 116 109 143 151 114 134 148 145 114 6 85 138 96 100 51 23 5 137
split_gain=139878 25351.3 24816.8 13389.3 6073.08 5601.07 5537 4192.24 3889.93 3859.12 4525.35 3603.87 2904.56 2529.3 2449.67 2356.01 2330.87 2819.93 2195.07 2255.01 2098.52 3476.08 2061.8 2046.83 2334.86 2242.29 2013.3 2011.94 1946.05 1916.46
threshold=5.5853724479675302 4.7492611408233651 2.3637355566024785 6.2850661277771005 0.081134226173162474 16.181350708007816 0.14798913151025775 4.0517470836639413 5.1351914405822763 1.8774681091308596 -0.18823038786649701 4.4777820110321054 0.34408263862133032 0.074535433202981963 -2.6035362482070918 5.1330220699310312 0.24100673943758014 7.6071503162384042 1.8525642752647402 -3.0785741806030269 0.26019264757633215 0.45098690688610082 0.028496786952018741 0.47078764438629156 2.5836139917373662 3.5338310003280644 1.9098574519157412 -1.6590870618820188 0.77145528793334972 1.0000000180025095e-35
decision_type=2 2 2 2 2 2 2 2 2 2 2 2 2 2 2 2 2 2 2 2 2 2 2 2 2 2 2 2 2 2
left_child=1 7 3 5 8 14 -3 -1 18 10 -7 15 -12 -11 -2 20 22 27 19 -5 -4 -22 -13 24 -6 -25 -8 -18 29 -21
right_child=2 6 11 4 23 9 26 -9 -10 13 12 16 -14 -15 -16 -17 17 -19 -20 28 21 -23 -24 25 -26 -27 -28 -29 -30 -31
leaf_value=-0.033637888328455427 0.036649559192561972 -0.01125825306503816 0.032866075740139132 0.062417761263165734 0.068398291665958663 0.0053856724507515838 -0.00020151364144681212 -0.02192886680708294 0.054310316909539288 0.0015334512019830012 0.028166965699142774 0.039603169995140047 0.077199639140920359 0.013862889621625345 -0.0017972067988260782 0.051598741926649851 0.07190709815754899 0.061053899351263721 0.021258696202702206 -0.003692670762416317 -0.0033326034763530034 0.032445404633699819 0.071930855981710187 0.017294633365824836 0.033308591840513276 0.042214542771705992 0.020224333167835635 0.016099763035022151 -0.022178757540452749 0.012438155699113567
leaf_weight=55211.404379412532 1519.1155203394592 110637.48140142485 11746.923558901995 737.46549865975976 2231.9874840825796 9495.1378389857709 18754.269033994526 54869.423901759088 2100.840979706496 40135.715712353587 10724.69069956243 3014.6904850453138 1209.9774988368154 23886.768166795373 82114.313521124423 3283.7716950178146 662.45304356515408 2577.0118998251855 21736.352360725403 7528.363409306854 5028.6849289312959 4754.9579047709703 4319.858781311661 11964.53308718279 7250.9171358682215 4461.4609121009707 5651.8244174011052 4751.8102155029774 1682.8084396645427 55469.55786645785
leaf_count=357211 8217 651455 59469 3792 10482 51874 106672 342988 10490 219273 57722 14381 6195 126106 461605 16250 3151 11921 114385 40466 26547 23942 19940 60731 36378 22465 31390 23647 9198 295625
internal_value=-1.22247e-05 -0.0171157 0.012912 0.0097938 0.0176832 0.00442032 -0.00840514 -0.0278016 0.0139715 0.00982203 0.0208415 0.0349931 0.0331381 0.00613356 -0.00109886 0.0279287 0.0464312 0.0352228 0.0129991 0.0102548 0.0243186 0.0140559 0.0586433 0.0304699 0.0415676 0.0240631 0.00452859 0.022928 0.00966001 0.0105105
internal_weight=569515 245124 324390 284250 115164 169086 135044 110081 89255.4 85452.3 21429.8 40140.2 11934.7 64022.5 83633.4 24814.3 15325.8 7991.28 87154.5 65418.2 21530.6 9783.64 7334.55 25908.9 9482.9 16426 24406.1 5414.26 64680.7 62997.9
internal_count=3223968 1489716 1734252 1535004 604012 930992 789517 700199 473956 461170 115791 199248 63917 345379 469822 126208 73040 38719 463466 349081 109958 50489 34321 130056 46860 83196 138062 26798 345289 336091
is_linear=0
shrinkage=0.03


Tree=8
num_leaves=31
num_cat=0
split_feature=0 127 0 0 22 149 135 105 105 8 116 137 4 8 100 113 134 114 63 6 99 96 115 114 98 13 148 73 151 115
split_gain=133045 25552.8 19166.6 16053.8 8551.78 5175.47 4112.3 3953.43 3410.56 3318.66 2858.24 3625.34 2843.53 2498.31 2808.49 2368.95 2351.99 3754.18 2279.95 2244.67 2282.84 2643.79 2482.05 2205.07 2158.08 2155.52 2149.98 2134.97 2118.68 2044.61
threshold=5.3589394092559823 2.633878350257874 6.0318858623504648 4.4005842208862314 0.081134226173162474 3.751673817634583 5.1351914405822763 17.323109626770023 16.403944015502933 -0.026184494607150551 -0.12325903400778769 0.067187156528234496 -0.013211119454354046 -0.061348754912614815 3.8816701173782353 1.5903612971305849 6.3588922023773202 0.24008287489414218 -0.7522931396961211 -0.14647482335567472 1.8584292531013491 2.549890518188477 0.17490942031145099 0.67001366615295421 5.2143888473510751 -0.23272680491209027 2.2077721357345585 0.020002907142043117 2.2321057319641118 0.16553426533937457
decision_type=2 2 2 2 2 2 2 2 2 2 2 2 2 2 2 2 2 2 2 2 2 2 2 2 2 2 2 2 2 2
left_child=3 2 7 -1 5 10 19 -2 -5 16 11 24 -6 14 -14 23 17 -3 -9 27 22 -22 -21 -15 -4 -11 -12 -7 -19 -13
right_child=1 9 4 8 12 6 -8 18 -10 25 26 29 13 15 -16 -17 -18 28 -20 20 21 -23 -24 -25 -26 -27 -28 -29 -30 -31
leaf_value=-0.03074647464500483 -0.0041367253218110535 0.036854604545352353 -0.0060514414018363995 -0.016419445893169252 0.053689174930783574 0.0069053790799353566 0.08375171710514355 -0.0052075226490481789 -0.0053075859448224131 0.0099000340035140695 0.01020577275359918 0.0091244484506685548 0.0098649287084829704 0.024222662192729959 0.04155102010104568 0.052661631059136273 0.050635960087002364 -0.004351256585125818 0.0088247187209181885 0.054944231394735553 -0.012473137271620117 0.019169864218221561 -0.039347849128728164 0.077767224749688377 0.05402079276807159 0.046661231445206584 0.026012458123087626 0.06387879621439338 0.033706329425950358 0.042655731003137985
leaf_weight=76499.53083200939 87683.924297846854 6225.71406910941 25661.869939766824 84634.260809566826 3106.5583152323961 852.61721016466618 995.77647544443607 13299.971851695329 35198.539753094316 1566.6479769796133 67547.90010657534 18594.842564400285 14460.72813494876 18405.822933424264 3048.2353564761579 3633.2686851210892 2679.583595816046 5379.3696784153581 48143.668711539358 2215.3319448269904 2904.8118183538318 13062.691454313695 283.38779507577419 719.25494707375765 549.75395496562123 17153.570733398199 8747.4590908326209 1936.2917116358876 1743.1134999282658 1794.5933477841318
leaf_count=502166 500415 30233 139054 515492 14975 4529 4710 73174 206365 7613 362431 100405 74056 92716 15293 17673 12883 28304 262055 11473 15282 67944 1452 3566 2838 81689 45973 9991 8841 9536
internal_value=-2.6062e-05 0.0105096 0.0079886 -0.0200097 0.0143457 0.0108529 0.0241662 -4.78106e-05 -0.0131556 0.0350061 0.00844244 0.00258844 0.0260343 0.0239007 0.0153813 0.030455 0.0249864 0.0198374 0.00578733 0.0213747 0.017586 0.0134134 0.0442503 0.0262364 -0.00479151 0.0435848 0.012018 0.046461 0.00496273 0.0120757
internal_weight=568729 372397 337649 196332 188521 145147 22250.9 149128 119833 34748 122896 46601.1 43373.9 40267.3 17509 22758.3 16027.8 13348.2 61443.6 21255.1 18466.2 15967.5 2498.72 19125.1 26211.6 18720.2 76295.4 2788.91 7122.48 20389.4
internal_count=3223127 1999104 1829541 1224023 993897 775618 115381 835644 721857 169563 660237 251833 218279 203304 89349 113955 80261 67378 335229 110671 96151 83226 12925 96282 141892 89302 408404 14520 37145 109941
is_linear=0
shrinkage=0.03


Tree=9
num_leaves=31
num_cat=0
split_feature=1 92 105 1 150 98 145 105 25 1 114 116 88 134 25 98 133 112 151 116 113 100 138 122 98 150 109 101 116 30
split_gain=109166 24547.7 17227.3 16033.6 7864.16 5318.58 4513.79 4480.2 4033.04 3922.04 3719.19 3634.08 3750.35 3204.68 2896.84 2894.99 2857.68 2854.67 2770.06 2724.33 2688.16 3240.67 2754.54 2599.48 2555.07 2780.85 2539.35 2358.89 2339.17 3017.06
threshold=0.06879132986068727 3.1240997314453129 16.276908874511722 0.026986296288669113 7.2271745204925546 2.9636769294738774 -2.8415956497192378 16.403944015502933 5.0107944011688241 0.12004416808485986 0.38699239492416387 0.29857268929481512 -0.97211548686027516 2.9707615375518803 8.8599033355712908 4.2695891857147226 2.9943150281906132 -0.34796510636806482 22.180957794189457 -0.68818891048431385 0.90407362580299389 2.9074527025222783 0.48340512812137609 0.89582237601280224 5.0012688636779794 2.1358559131622319 -0.38179518282413477 5.2957763671875009 -0.80013611912727345 0.13934643566608432
decision_type=2 2 2 2 2 2 2 2 2 2 2 2 2 2 2 2 2 2 2 2 2 2 2 2 2 2 2 2 2 2
left_child=3 2 6 -1 5 11 -2 -5 -3 -8 -6 19 -13 18 15 -12 17 -10 -7 -4 22 -22 -18 -24 -11 -26 -15 -9 -28 -30
right_child=1 8 4 7 10 13 9 27 16 24 14 12 -14 26 -16 -17 20 -19 -20 -21 21 -23 23 -25 25 -27 28 -29 29 -31
leaf_value=-0.029391321596289769 0.038914724479613992 -0.0024825925254830707 0.029275963569281995 -0.015530341399468113 0.021290013154611303 0.0036613123589386491 -0.0070125709240705754 -0.020131966192858612 0.07722486611278806 0.0019715400617333267 -0.014468450902103117 0.067028455241437981 0.014702704895670072 -0.010049081082873466 0.061480521847687097 0.087040161634886468 -0.023892850221634857 0.02519143904181069 0.10846553101163128 0.0032558813384096471 0.033596444079546192 0.068293817308206911 -0.0012947507208115453 0.053460913230876386 -0.01995539452911799 0.059909301834179099 -0.0093797011241163134 0.00093060234232877166 0.034764339267835939 0.018507025972935513
leaf_weight=75742.375611193478 2561.7837362997234 2792.9000405594707 3791.4988179318607 77766.497912971303 9507.0301152728498 16361.408927131444 62911.732815101743 5735.414100587368 997.79198733717203 90566.287228390574 985.35437047481537 1624.2430353723466 5114.9176379628479 2431.5698924921453 4984.3280390836298 340.15229933336377 816.63594065234065 19377.390019293875 230.16566599905491 80753.61260926351 4147.1142516732216 5825.9495216347277 1116.5866373442113 2591.0446823276579 550.47309610247612 1366.2882906571031 2162.2619515731931 28894.351615533233 13527.730246689171 42710.795720394701
leaf_count=502698 13219 14466 20386 477514 48300 86892 364704 34156 4688 498638 5180 8045 26712 13091 24436 1584 3971 94838 1152 433042 20203 27032 5499 12111 3024 7214 11432 166999 70263 222874
internal_value=-3.24383e-05 0.00921762 0.00668946 -0.0187228 0.0129147 0.0110183 -0.000582808 -0.0115334 0.0322055 -0.00123395 0.0331415 0.00611275 0.027314 0.0168021 0.0509981 0.0115807 0.0349836 0.0277396 0.0051152 0.00442277 0.0451646 0.0538656 0.0259848 0.0369708 0.00269696 0.036973 0.0199896 -0.0025578 0.0212403 0.0224176
internal_weight=568286 380147 342482 188139 184525 168708 157957 112396 37665.4 155395 15816.9 91284.3 6739.16 77423.9 6309.83 1325.51 34872.5 20375.2 16591.6 84545.1 14497.3 9973.06 4524.27 3707.63 92483 1916.76 60832.4 34629.8 58400.8 56238.5
internal_count=3224363 2042996 1860188 1181367 973389 893889 886799 678669 182808 873580 79500 488185 34757 405704 31200 6764 168342 99526 88044 453428 68816 47235 21581 17610 508876 10238 317660 201155 304569 293137
is_linear=0
shrinkage=0.03


Tree=10
num_leaves=31
num_cat=0
split_feature=0 92 0 0 109 109 27 149 92 0 88 113 147 5 133 113 100 87 5 0 151 81 111 135 14 115 111 6 24 96
split_gain=120214 22019.2 15832.5 14710.2 6928.1 5613.2 3950.26 3669 3199.14 2917.48 2687.38 2504.35 2395.02 2374.84 2289.53 2625.77 2268.88 2219.06 2273.24 2212.03 2070.07 2045.53 2033.02 1962.31 3020.46 2459.99 1960.99 1854.88 2085.7 1827.56
threshold=5.3729581832885751 3.0009452104568486 4.3630783557891855 6.2176032066345224 0.081746231764554991 0.05638507008552552 4.1936147212982187 6.3587453365325937 2.6975705623626713 5.7604765892028817 -1.5622344613075254 0.432320386171341 2.0831731557846074 0.30634243786334997 2.8781521320343022 0.93937009572982799 2.9074527025222783 -4.168320655822753 -0.25311279296874994 4.9522936344146737 22.180957794189457 0.6961057484149934 -0.67197483777999867 3.8148926496505742 -0.041157493367791169 0.039902724325656898 0.038695195689797408 0.51616230607032787 1.1094843745231631 2.9997978210449223
decision_type=2 2 2 2 2 2 2 2 2 2 2 2 2 2 2 2 2 2 2 2 2 2 2 2 2 2 2 2 2 2
left_child=2 3 -1 4 9 7 13 20 19 -2 -7 -8 -11 -3 17 26 -17 -13 -19 -4 21 23 -12 -5 -25 -26 -16 -6 -29 -27
right_child=1 6 8 5 27 10 11 -9 -10 12 22 14 -14 -15 15 16 -18 18 -20 -21 -22 -23 -24 24 25 29 -28 28 -30 -31
leaf_value=-0.030412542578474044 -0.0059747707660229819 0.0046547300959962441 -0.018213522212550712 0.0091877028119320744 0.0077976619431068817 0.042567359147969823 0.073250267308643591 0.04807392495918849 0.0066100529927295756 0.00028661221263222362 0.06861586261116305 0.062210570029084769 0.013177790500978512 0.066372298184571688 0.032910652832933235 0.035117342315521646 0.063468619929196307 0.054230222922246669 0.017785993313341259 -0.00992228105229284 0.066614932544333483 -0.013766107264006813 0.019956971672091126 0.051924421894663064 0.06918007917187885 -0.0037392813280213329 -0.013613830762689908 0.011421344092805034 0.032901418393536955 0.023000993407346532
leaf_weight=71112.170737508684 61033.919804487377 6375.9372679293156 55069.209569033235 81698.118919596076 26767.956458292902 6521.9942194744945 1461.9644835665822 2385.7007346749306 7308.3986929301172 75601.834898967296 794.30744152516127 1342.6630117595196 15657.034946773201 615.27322842925787 5063.0710662826896 4720.8773641847074 5500.3071183003485 1740.2135586254299 13414.906847715378 61080.746551778167 586.41761402413249 3133.1580197550356 28521.318428628147 2438.5383586660028 693.04895950853825 4295.6290270537138 971.88425340130925 9572.3036185540259 7075.6850017718971 4952.1250850334764
leaf_count=484044 349791 32568 345603 430830 143655 31184 6771 11195 41939 419620 3859 6224 84706 2964 23743 22648 24986 8315 65072 367119 2855 16792 141790 12288 3329 22398 4726 50234 36597 25648
internal_value=-2.10004e-05 0.00995221 -0.0191368 0.00738301 0.00211634 0.0149608 0.0306351 0.0113158 -0.012642 -0.000897417 0.0251503 0.0348337 0.00249832 0.0100863 0.033119 0.0411094 0.050374 0.0252457 0.0219708 -0.0138533 0.0104191 0.0100801 0.0212754 0.0108743 0.0220049 0.0146655 0.0254182 0.0126879 0.0205507 0.01058
internal_weight=567507 372936 194571 331729 195709 136020 41207.1 100183 123458 152293 35837.6 34215.9 91258.9 6991.21 32753.9 16256.1 10221.2 16497.8 15155.1 116150 97797 97210.6 29315.6 94077.5 12379.3 9940.8 6034.96 43415.9 16648 9247.75
internal_count=3223493 1984788 1238705 1786771 1084603 702168 198017 525335 754661 854117 176833 162485 504326 35532 155714 76103 47634 79611 73387 712722 514140 511285 145649 494493 63663 51375 28469 230486 86831 48046
is_linear=0
shrinkage=0.03


Tree=11
num_leaves=31
num_cat=0
split_feature=0 92 0 0 109 109 149 25 135 105 115 135 150 24 4 150 97 0 151 146 96 97 112 148 151 18 150 141 17 136
split_gain=114157 21086.8 14770.2 14295.2 7557.86 4797.51 4140.85 3946.25 3211.1 2958.2 2747.95 3197.1 3106.47 4238.63 2625.71 2538.12 2447.71 2404.44 2323.58 2279.98 2416.12 2124.53 2047.89 1967.43 1924.21 1861.58 1858.37 2070.43 1835.99 1811.41
threshold=5.3302974700927743 3.0596140623092656 5.995206594467164 4.3241107463836679 0.074535433202981963 0.089313931763172164 3.751673817634583 5.0107944011688241 5.1351914405822763 16.403944015502933 0.13048618286848071 2.2095801830291752 3.1187472343444829 0.83534887433052074 0.022746587172150615 8.5764746665954608 1.8947515487670901 6.3144531250000009 0.282117709517479 -0.42232446372508997 1.958252012729645 1.9996951222419741 -0.071359947323799119 10.044708728790285 22.180957794189457 12.910681247711183 7.5912766456604013 1.7067512869834902 -0.078908205032348619 2.6719709634780888
decision_type=2 2 2 2 2 2 2 2 2 2 2 2 2 2 2 2 2 2 2 2 2 2 2 2 2 2 2 2 2 2
left_child=3 2 5 -1 6 28 10 23 25 -5 15 -12 19 -14 -6 24 -16 -9 -18 20 -13 -7 -15 -3 -4 -8 -20 -28 -2 -22
right_child=1 7 4 9 14 21 8 17 -10 -11 11 12 13 22 16 -17 18 -19 26 -21 29 -23 -24 -25 -26 -27 27 -29 -30 -31
leaf_value=-0.030478628948879552 0.019881004562963489 -0.011562622438705244 0.0029949370996957283 -0.016150875035400223 0.049025026123926521 -0.010964747895878035 0.042191902768846115 0.025781656441565916 0.076492611885216708 -0.0056481124768445606 -0.0035201327358321925 0.06048755315697707 -0.025635910849174524 0.0096159310495364664 -0.021333485225201242 0.074597992148624143 -0.017682361606050231 0.041153033739427518 0.021249181942689495 0.0024252299192059133 0.0064421897208157388 0.012828389250128811 0.045309752527715137 0.079420995546672771 0.075343776540305371 0.015350789301380003 0.051610864636103149 0.0005993573659981398 -0.0038720922981146243 0.027513383638009814
leaf_weight=67059.193755669519 3008.3462754525244 2617.9453388676047 81054.129589356482 83699.497699115425 3266.4440258443356 3842.6749363578856 2658.7271320335567 20974.732527382672 902.53334851935506 33916.02850118652 8904.2699730321765 1179.9366593919694 1060.7413058280945 1828.1838067397475 1189.1639657244086 451.73742172494531 1264.1037579812109 16257.471804853529 34159.116413015872 13471.463601920754 8193.2338764555752 27903.731722313911 6931.7776827923954 232.93483071029186 332.20740123465657 18556.735980000347 3666.0990726836026 889.91309458389878 110595.08180827647 6653.6643637046218
leaf_count=465723 17152 13603 432881 525733 15223 21228 13605 101008 4087 201758 47671 6158 5619 9487 6273 2293 6415 74440 169764 71378 43621 148827 36299 1014 1652 94718 17279 4257 629024 35212
internal_value=-5.86501e-05 0.00930256 0.00688955 -0.0194247 0.0122503 -0.000361882 0.00907196 0.0298888 0.0210722 -0.0131223 0.00703122 0.0127119 0.0163878 0.0310022 0.0231353 0.00368387 0.0210811 0.0324936 0.0223427 0.0115224 0.019169 0.0099484 0.0378605 -0.00412869 0.00329025 0.0187145 0.0236496 0.0416469 -0.00324308 0.0158853
internal_weight=566722 382047 341964 184675 196614 145350 152179 40083.1 22118 117616 130061 48223.3 39319 9820.7 44434.8 81838.1 41168.4 37232.2 39979.2 29498.3 16026.8 31746.4 8759.96 2850.88 81386.3 21215.5 38715.1 4556.01 113603 14846.9
internal_count=3223402 2030188 1840123 1193214 1023892 816231 804681 190065 112410 727491 692271 255445 207774 51405 219211 436826 203988 175448 197715 156369 84991 170055 45786 14617 434533 108323 191300 21536 646176 78833
is_linear=0
shrinkage=0.03


Tree=12
num_leaves=31
num_cat=0
split_feature=1 132 1 105 92 147 112 149 116 105 97 19 134 98 114 132 115 116 133 113 114 61 112 100 116 96 111 114 111 137
split_gain=93611.2 21025.3 13682.5 9965.56 7682.08 5409.19 4858.76 4555.95 4403.09 3861.06 3738.71 3380.68 3327.89 3031.75 3532.17 2972.61 2939.66 3281.44 2664.27 3595.56 2653.32 3602.74 3107.7 2520.08 2471.27 2489.38 2460.89 2704.81 2315.82 2244.12
threshold=0.065459500998258605 3.023398876190186 0.024144068360328678 16.181350708007816 3.6735261678695683 2.7049576044082646 -0.40672233700752253 4.5937683582305917 0.29857268929481512 16.403944015502933 2.3407601118087773 1.1012821197509768 3.2070174217224126 2.9839627742767338 0.16201099008321765 2.7753382921218877 0.11553926765918733 -0.68818891048431385 2.9039669036865239 0.94206297397613536 0.23797107487916949 0.13810728490352633 2.6933157444000249 1.4257872104644778 -0.12325903400778769 3.8522204160690312 0.026774669997394088 0.53055495023727428 -0.028331731446087357 0.070889852941036238
decision_type=2 2 2 2 2 2 2 2 2 2 2 2 2 2 2 2 2 2 2 2 2 2 2 2 2 2 2 2 2 2
left_child=2 3 -1 5 13 24 -7 8 11 -4 -9 26 -13 16 -15 -14 -3 28 -19 -20 -6 22 -22 -10 -2 -26 -5 -28 -18 -25
right_child=1 4 9 7 20 6 -8 10 23 -11 -12 12 15 14 -16 -17 17 18 19 -21 21 -23 -24 29 25 -27 27 -29 -30 -31
leaf_value=-0.029368000038058874 -0.007927838515822681 -0.0030742068046403256 -0.015589161322334642 0.0065083772159515423 0.045382461634532786 0.080827843624873816 0.012917208816414713 0.069739659118771349 0.05436773731128941 -0.0032541623242673423 0.020495938524129398 -0.0068358289129766903 0.003792879558896184 -0.020253787239252332 0.023103212846239621 0.025246085940812599 0.073153219351366663 0.0059173325431673193 -0.0028617865700249342 0.036661299477495364 0.009066767967450937 0.058953240503824132 0.052899940536592624 0.042579125285616325 -0.00052299247269638259 0.035464015819519613 0.018844895614759074 0.08440780034853089 0.0051637133237270212 0.0061712203805298228
leaf_weight=64182.776935344562 55742.024982862175 11726.659069828689 76650.022638140246 24508.993585683405 11008.594368495047 1086.5805855505168 7444.4120611138642 1576.0600053481758 2385.0052856132388 32531.835187330842 11603.77677398175 24117.585127614439 40994.965115491301 1769.1610586494207 38318.518825706095 6773.3912223167717 1390.2205869778991 20949.465898405761 2957.6928344108164 6914.8899485580623 7974.9867135062814 2280.1824522390962 1780.7628866694868 2306.2639643363655 80808.475063811988 1767.8282575458288 18733.392735280097 583.97551453486085 667.30796911939979 4490.3448261581361
leaf_count=451527 317836 61270 486814 128963 49538 5516 39747 7932 11671 192203 57373 131244 218698 9155 193092 35260 7273 108766 15210 35077 37951 10053 8132 11733 454906 9714 97638 3045 3443 22944
internal_value=-1.47015e-05 0.00809188 -0.0183757 0.0038231 0.019381 -0.00161727 0.0215669 0.00960923 0.00783896 -0.0119138 0.0263846 0.00625224 0.00224838 0.0152024 0.0211898 0.00683487 0.00982159 0.0144209 0.0119723 0.0248207 0.0347384 0.0250029 0.0170678 0.0278357 -0.00304719 0.000247433 0.0128196 0.0208269 0.0511025 0.0185254
internal_weight=566026 392662 173365 284923 107738 146849 8530.99 138074 124894 109182 13179.8 115712 71885.9 84693.9 40087.7 47768.4 44606.2 32879.6 30822 9872.58 23044.5 12035.9 9755.75 9181.61 138318 82576.3 43826.4 19317.4 2057.53 6796.61
internal_count=3223724 2093180 1130544 1554220 538960 827719 45263 726501 661196 679017 65305 614848 385202 433286 202247 253958 231039 169769 159053 50287 105674 56136 46083 46348 782456 464620 229646 100683 10716 34677
is_linear=0
shrinkage=0.03


Tree=13
num_leaves=31
num_cat=0
split_feature=0 0 0 127 109 109 149 0 4 92 97 130 134 132 63 88 5 0 97 20 132 149 3 135 14 96 137 112 0 132
split_gain=103248 19468 12668.4 11193 8407.41 4710.27 3096.87 2790.6 2494.89 2365.07 2331.32 2280.69 2193.36 2075.42 2052.43 1921.3 1831.75 1965.63 1814.62 1848.87 2131.6 1695.67 1675.87 1672.02 2270.87 1756.69 1569.03 1526.47 1522.86 1425.74
threshold=5.2857353687286386 6.0946972370147714 4.2555875778198251 2.0665086507797246 0.14798913151025775 0.074535433202981963 6.3587453365325937 5.7509827613830575 0.022746587172150615 2.1489958763122563 1.9996951222419741 2.7757291793823247 7.6071503162384042 1.7538325786590578 3.0894714593887334 3.4558389186859135 0.6654224991798402 6.4559841156005868 1.8947515487670901 29.736659049987797 2.1073918342590336 3.3759261369705205 0.039705211296677596 3.8148926496505742 -0.048575822263956063 2.9997978210449223 0.03881064988672734 -0.21081165224313733 4.8481087684631357 2.6366051435470585
decision_type=2 2 2 2 2 2 2 2 2 2 2 2 2 2 2 2 2 2 2 2 2 2 2 2 2 2 2 2 2 2
left_child=2 4 -1 5 7 6 11 -2 -7 28 -6 16 15 -12 -15 26 17 -3 -10 20 -20 -9 -8 -19 -25 -26 29 -27 -4 -5
right_child=1 3 9 12 10 8 22 21 18 -11 13 -13 -14 14 -16 -17 -18 23 19 -21 -22 -23 -24 24 25 27 -28 -29 -30 -31
leaf_value=-0.030419603173966813 -0.0049796620396972743 0.0049653754701401761 -0.019116139206136029 0.0030590577624893056 -0.011129431381236588 0.048986994930990846 0.051970729958911506 0.0012253361357897653 -0.021693807601257352 -0.0021771738558626708 0.06014632892436618 0.029519027397838408 0.051652997447983927 0.013467591871341533 0.037590205601466732 0.064887188930455586 -0.012411535815119621 0.010680704016762698 0.052473670207973014 0.026834987656082221 0.0084593176657910465 0.014246227106335451 -0.0061383672650453212 0.065821796552125778 -0.0022182542761723378 -0.031602076440263277 0.020041147205355013 0.038955164080685799 -0.011611130997176668 0.03663805004529274
leaf_weight=60354.28612492606 81498.881265055388 67082.318530980498 45159.714532105252 1249.1010810732841 2714.6370664909482 2750.9529053233564 2233.123004142195 69452.234619516879 947.10050118342042 14725.851687235758 1011.0944691188633 4436.8059005066752 3864.2123678140342 25820.43406907469 3619.368468336761 1204.646517239511 3973.9542286768556 42391.118214696646 1077.5126582831144 17628.627389971167 12232.441486347467 10341.552602466196 558.3628588616848 1120.5119597129524 2147.0704091787338 303.50021970272064 16671.379182606936 3041.3241695389152 52763.729810662568 12795.886033464223
leaf_count=435662 470496 354990 296731 6441 14953 12343 10072 382688 4997 89417 5132 22360 17100 132594 16714 5451 21338 219274 5300 84401 59701 54747 2660 5434 11022 1511 79635 15283 325378 59597
internal_value=-2.32357e-05 0.00849332 -0.0193287 0.0151223 0.00175352 0.0117666 0.00909754 -0.0010751 0.0215754 -0.0133866 0.0155099 0.00839684 0.0303062 0.0178847 0.0164333 0.0277221 0.00761627 0.00830188 0.0192104 0.0204626 0.0120225 0.00291289 0.0403475 0.0128693 0.0269003 0.0189591 0.0262645 0.032553 -0.0150722 0.0336517
internal_weight=565172 392168 173004 197710 194458 161925 127288 161293 34636.6 112649 33165.5 124497 35785.2 30450.9 29439.8 31921 120060 116086 31885.7 30938.6 13310 79793.8 2791.49 49003.5 6612.41 5491.89 30716.4 3344.82 97923.4 14045
internal_count=3223422 2076234 1147188 998910 1077324 830686 663944 907931 166742 711526 169393 651212 168224 154440 149308 151124 628852 607514 154399 149402 65001 437435 12732 252524 33250 27816 145673 16794 622109 66038
is_linear=0
shrinkage=0.03


Tree=14
num_leaves=31
num_cat=0
split_feature=0 0 0 127 109 135 22 0 113 97 147 109 97 115 136 115 29 98 103 134 114 76 82 115 132 115 29 18 29 138
split_gain=98406.3 18514.1 11946.4 10291.9 8146.05 4460.82 3951.98 2795.95 2537.92 2259.24 2200.18 2151.2 2035.15 1990.61 2846.62 2214.66 2484.53 2082.94 1930.7 1912.88 3086.42 2065.78 1973.89 1860.72 1828.67 1984.96 2444.48 1932.12 1816.15 1803.11
threshold=5.2704288959503183 6.1081352233886728 4.2555875778198251 2.0925499200820927 0.14373656362295154 5.1351914405822763 0.065886016935110106 5.7219483852386483 2.2079465389251713 1.9996951222419741 2.0831731557846074 0.14798913151025775 2.7556264400482182 0.13437657803297046 2.6719709634780888 0.13692382723093036 2.2000415325164799 3.0650650262832646 13.711326122283937 7.6071503162384042 0.26503510773181921 2.9421449899673466 0.57155126333236705 0.12605904042720797 1.7538325786590578 0.15943270176649096 4.664884328842164 27.139736175537113 14.919851303100588 0.11748984083533288
decision_type=2 2 2 2 2 2 2 2 2 2 2 2 2 2 2 2 2 2 2 2 2 2 2 2 2 2 2 2 2 2
left_child=2 4 -1 5 7 6 13 -2 -8 -6 -9 -4 -7 17 -15 16 -16 -3 -19 20 -5 22 -22 -14 -11 26 -26 -27 -10 -30
right_child=1 3 11 19 9 12 8 10 28 24 -12 -13 23 14 15 -17 -18 18 -20 -21 21 -23 -24 -25 25 27 -28 -29 29 -31
leaf_value=-0.030116704731037298 -0.0052376670860730052 0.00027218588120437844 -0.015449115255728455 0.035198145456551151 -0.010631721442053155 0.075780304782783262 0.016316352242024441 0.00041804849496036742 0.054890845538529173 0.05470219656275227 0.012917114662622017 -0.0048143382206311206 0.012105458358496924 0.0065692752804799642 -0.032950152179586689 0.019082252437238722 0.066250309902703475 0.0092671693772321644 0.070440404045456595 0.0495388714081854 0.0018788521582903221 0.079183664005376825 0.025773647370499603 0.060763985516999276 0.0063532946291464153 0.051969958783265754 0.02531164917200995 -0.010317888785595785 0.07898861713343934 -0.0048176197706282543
leaf_weight=59177.658792169765 76987.888936087489 38718.968319747597 87890.002362197265 17738.658751942217 2887.4767226837575 1155.6236429102719 34596.713087733835 73480.257091667503 2808.8325099460781 1121.3451028876007 15317.037182290107 21259.237434344366 2019.1479500643909 21607.958466950804 262.06079994514585 13862.26644070074 1709.4626838713884 40698.830947306007 469.69680543243885 3840.6102678589523 6325.0399340502918 448.27014750614762 6123.9157979674637 1088.6576024219394 9366.4006625860929 507.2058223336935 17666.089519917965 3852.4609903022647 293.05963090062141 1092.0210640579462
leaf_count=435858 447760 204876 565412 81865 16026 5191 167857 405533 12800 5577 81079 130271 9632 111987 1394 70893 8717 210802 2319 16767 30883 2036 28463 5012 48161 2610 88083 19543 1256 5151
internal_value=-4.73313e-05 0.0081195 -0.0192626 0.0147103 0.00173595 0.0115137 0.0106869 -0.00105357 0.0189881 0.0147995 0.00257407 -0.0133778 0.0417897 0.00794241 0.0136503 0.0233135 0.0530643 0.00526725 0.0099651 0.0295808 0.0270788 0.0159116 0.0136332 0.0291504 0.017058 0.0157133 0.0187428 -0.00307129 0.0410277 0.0129144
internal_weight=564373 396046 168327 194860 201186 160383 156120 165785 38790.6 35401 88797.3 109149 4263.43 117329 37441.7 15833.8 1971.52 79887.5 41168.5 34476.5 30635.9 12897.2 12449 3107.81 32513.5 31392.2 27032.5 4359.67 4193.91 1385.08
internal_count=3223814 2092273 1131541 977901 1114372 817887 798052 934372 187064 180000 486612 695683 19835 610988 192991 81004 10111 417997 213121 160014 143247 61382 59346 14644 163974 158397 136244 22153 19207 6407
is_linear=0
shrinkage=0.03


Tree=15
num_leaves=31
num_cat=0
split_feature=0 0 0 127 109 109 149 116 150 113 146 105 4 98 14 63 113 135 115 135 150 87 113 134 114 6 76 14 115 106
split_gain=93508.1 17910.9 11163.8 10337 6739.03 5213.21 3194.07 2972.67 2731.29 2449.53 2293.96 2279.42 2222.13 2178.71 2380.5 2177.17 2050.53 2634.56 2968.13 2429.82 2040.14 1977.21 1894.66 1826.04 3265.89 2036 1850.26 1811.41 1771.46 2736.33
threshold=5.2443854808807382 6.0173752307891855 4.2121002674102792 2.2606152296066289 0.14373656362295154 0.074535433202981963 6.3587453365325937 -0.12770936638116834 0.8785005807876588 2.0471518039703374 6.2371408939361581 16.403944015502933 0.020752902142703537 5.2143888473510751 0.016224862076342109 3.0894714593887334 0.98350736498832714 2.415013432502747 0.15664643794298175 2.6110125780105595 3.6657673120498662 -3.2778708934783931 2.43333911895752 7.6071503162384042 0.26503510773181921 0.54503947496414196 2.9421449899673466 -0.1311080530285835 0.14236599206924441 0.36480210721492773
decision_type=2 2 2 2 2 2 2 2 2 2 2 2 2 2 2 2 2 2 2 2 2 2 2 2 2 2 2 2 2 2
left_child=2 4 -1 5 10 6 7 8 -3 13 22 -4 -7 27 -15 -6 17 -9 20 -20 -19 -18 -2 24 -5 26 -26 -10 -23 -30
right_child=1 3 11 23 15 12 -8 16 9 -11 -12 -13 -14 14 -16 -17 21 18 19 -21 -22 28 -24 -25 25 -27 -28 -29 29 -31
leaf_value=-0.030199336472133412 -0.0032145992351621717 0.052800401071623003 -0.016306349511385571 0.034695126508468115 0.010421461204508762 0.044133472037577143 0.037818543920344026 0.0020848920847247963 0.049163476533159951 0.052740135184322467 0.037183881580309941 -0.006461184638787607 0.01804253910059412 0.0055528143851514998 0.079675777181972454 0.036021109322800379 0.049441927367868954 0.020863737158316291 0.05543780629220315 -0.029502086311281189 0.043968354029626171 0.0036385267637121391 0.013227618516991071 0.047791180814118657 -0.0033364449747344004 0.025181737182855001 0.08441133301841372 -0.0014585130557308481 0.066292726846243002 0.012283927722939375
leaf_weight=55586.215233743191 138664.29494936392 932.93825424835086 77399.571543406695 16993.850511286408 28615.255500197411 3180.1876144595444 3169.5940444208682 7634.9813789576292 644.17736075073481 812.17925520241261 1325.1736016720533 29131.070290412754 38555.900606360286 1007.0504876747727 636.35270430147648 3338.8430817462504 998.70496533066034 15391.536002207547 376.53163868561387 1554.3079648800194 4429.4314064979553 42659.40909429267 6608.0114951208234 4016.0197631940246 5087.2150552235544 6798.0251419916749 225.87665010988712 51258.338704481721 892.11547514423728 15742.930539797992
leaf_count=418110 791048 4733 509614 76989 147871 14093 14287 40294 3288 4046 6893 178389 185178 5083 3022 15313 4662 80270 1958 7902 22321 223295 36536 17276 24969 31148 1057 270207 4477 80487
internal_value=-7.03627e-05 0.00769353 -0.0193008 0.013363 0.000612791 0.0106654 0.00802686 0.00737551 0.00190441 0.00103089 -0.00210827 -0.0136142 0.0200306 0.000246572 0.0342544 0.0130963 0.0107486 0.0172464 0.0225682 -0.012938 0.026027 0.00758164 -0.00246669 0.0288281 0.0262114 0.0143075 0.000393996 -0.000830229 0.00687658 0.0151803
internal_weight=563666 401549 162117 222998 178552 189877 148141 144971 55291 54358.1 146597 106531 41736.1 53545.9 1643.4 31954.1 89679.9 29386.8 21751.8 1930.84 19821 60293.2 145272 33121 29105 12111.1 5313.09 51902.5 59294.5 16635
internal_count=3224816 2118703 1106113 1121042 997661 969603 770332 756045 290379 285646 834477 688003 199271 281600 8105 163184 465666 152745 112451 9860 102591 312921 827584 151439 134163 57174 26026 273495 308259 84964
is_linear=0
shrinkage=0.03


Tree=16
num_leaves=31
num_cat=0
split_feature=18 132 98 135 150 135 19 97 147 136 105 105 103 114 96 110 8 114 136 27 113 133 111 111 5 101 127 137 138 6
split_gain=51099.4 17745.7 12049.1 9816.27 7939.37 6311.07 5473.25 5067.12 4247.88 3901.79 3750.13 3595.13 3454.03 4990.05 3349.87 3214.01 4259.78 3011.34 2990.49 2872.11 2821.27 2712.83 2658.61 2445.73 2349.35 2312.56 2314.5 2941.04 3575.06 2311.91
threshold=10.154834270477297 2.7753382921218877 2.1476947069168095 4.9515562057495126 2.9107973575592045 2.89459240436554 0.43801850080490118 4.2968225479125985 2.7508771419525151 2.001150488853455 570.69647216796886 5.3077738285064706 4.2704875469207773 0.89514571428298961 3.9085507392883305 0.054859666153788574 -1.0861980915069578 0.45561705529689794 2.0077853202819829 8.2142586708068865 1.4606697559356692 2.7582243680953984 -0.072016924619674669 -0.046147923916578286 0.87613657116889965 3.7710915803909306 1.979503393173218 0.039963310584425933 0.46825358271598821 -0.11093990877270697
decision_type=2 2 2 2 2 2 2 2 2 2 2 2 2 2 2 2 2 2 2 2 2 2 2 2 2 2 2 2 2 2
left_child=2 3 -1 4 9 7 8 14 11 -2 25 -4 -6 15 18 16 -14 -18 -3 -13 23 -12 -19 -16 -9 -7 27 28 -27 -10
right_child=1 5 6 -5 12 10 -8 24 29 -11 21 19 13 -15 20 -17 17 22 -20 -21 -22 -23 -24 -25 -26 26 -28 -29 -30 -31
leaf_value=-0.02492223148102643 -0.010671535497153925 -0.012413716072756554 -0.020116031824750288 0.047589211470909873 -0.0045140793549131681 -0.030106752524036644 -0.013658923741708053 0.027964247071155763 0.060096565387245234 -0.00074697495151556769 0.012456707047572044 0.0015045025510126355 -0.024572368729307945 0.074160361275370817 0.049892597969615364 -0.0011149903266833778 0.013076995387435193 -0.023293413109187193 0.0048534946886243588 0.04156646148244602 -0.016227096674334085 0.062194186704321558 0.043283080215519631 0.016136497396231898 -0.022196057567680703 0.036968513017497401 0.026265540474262425 0.022547231987752565 0.00070456136857021952 -0.012942845914000646
leaf_weight=63369.380808537826 49243.627393517643 11698.358968097717 6945.6985493898392 3969.0170737542212 16278.61492391862 870.58243953809142 54409.518818087876 12580.598992081359 1628.8557539973408 129169.89558349736 1439.8327576369047 22928.296643961221 2441.1965984776616 1104.6585348341614 2465.2587411813438 17463.20605808869 37949.205923274159 602.75318527966738 39529.896711530164 1732.2491933405399 1879.8340400010347 3137.8349366746843 5170.893490223214 8925.9101941827685 900.52293934673071 2879.7958078235388 24967.461320985109 20307.575155317783 16267.532688483596 512.82668069377542
leaf_count=452948 300967 68918 45742 19503 92673 4423 351868 59437 7749 720899 6589 126500 13235 5743 12490 94962 200289 3143 208602 9233 9626 13533 26508 45657 4518 14341 117934 101802 82566 2704
internal_value=-5.16992e-05 0.0054356 -0.0149442 0.000766557 5.02014e-05 0.0137534 -0.00777183 0.00788639 0.00171953 -0.00348624 0.0203013 -0.00105108 0.00783868 0.0109451 0.0043902 0.00984761 0.0139946 0.0161479 0.000910397 0.0043186 0.0178228 0.0465501 0.0363327 0.0234419 0.0246136 0.018461 0.0191174 0.0145939 0.00615873 0.0426073
internal_weight=562771 411244 151527 263393 259424 147851 88157.4 77980.4 33747.9 178414 69870.6 31606.2 81010.5 64731.9 64499.3 63627.3 46164 43722.9 51228.3 24660.5 13271 4577.67 5773.65 11391.2 13481.1 65292.9 64422.4 39454.9 19147.3 2141.68
internal_count=3225102 2228358 996744 1477922 1458419 750436 543796 409248 191928 1021866 341188 181475 436553 343880 345293 338137 243175 229940 277520 135733 67773 20122 29651 58147 63955 321066 316643 198709 96907 10453
is_linear=0
shrinkage=0.03


Tree=17
num_leaves=31
num_cat=0
split_feature=1 132 1 105 92 147 112 149 116 150 19 112 134 105 132 99 116 149 138 99 110 5 151 150 112 112 138 111 146 101
split_gain=73280.9 16577.2 10620.5 8377.25 6050.69 4794.56 3919.65 3643.3 3897.32 3422.43 3070.31 2789.47 2756.58 2672.44 2580.12 2525.22 2472.93 2420.91 2381.8 2361.24 3018.31 2532.8 2317.66 2981.41 2286.85 2505.9 2305.31 2254.39 1997.7 1992.17
threshold=0.059689521789550788 3.023398876190186 0.021985328756272796 16.181350708007816 3.1918472051620488 2.7508771419525151 -0.40672233700752253 4.4769744873046884 0.29857268929481512 7.5912766456604013 1.1012821197509768 -0.21924429386854169 3.2070174217224126 16.403944015502933 2.7753382921218877 1.8533091545104983 -0.12325903400778769 2.0990365743637089 0.4874712228775025 1.7508126497268679 0.092493500560522093 0.46793934702873236 0.34748958051204687 2.63157069683075 1.2895926237106325 0.50614857673645031 0.50427383184432995 0.2754142433404923 3.389504194259644 5.4522891044616708
decision_type=2 2 2 2 2 2 2 2 2 2 2 2 2 2 2 2 2 2 2 2 2 2 2 2 2 2 2 2 2 2
left_child=2 3 -1 5 9 16 -7 8 10 11 18 -3 -12 -4 -14 -9 -2 -18 22 20 21 -10 27 -24 25 -19 -27 -5 -11 -15
right_child=1 4 13 7 -6 6 -8 15 19 28 12 -13 14 29 -16 -17 17 24 -20 -21 -22 -23 23 -25 -26 26 -28 -29 -30 -31
leaf_value=-0.028699442638640337 -0.0080764844769613073 -0.015066957462476452 -0.01520458001762064 0.026803429499774351 0.027254322688245677 0.071827393042199233 0.011918981040058165 0.043711405715816568 0.05864211981509726 0.058229911386172034 -0.0068125637390318017 0.011508030399286511 0.0025227352919731851 -0.021097197555229975 0.022041212418643007 0.015021166689932284 -0.0047065184218489844 0.004321138043718079 0.0051082054466184386 0.010848890920855255 -0.025818292248578099 -0.015083626219489603 0.012662157910272287 0.038987406894644645 -0.020504530965941525 0.009672029006669438 0.052223618046829401 -0.022139391122096778 0.021187675561506355 -0.00032413432768808241
leaf_weight=53572.362463507801 58423.658743027598 3743.2805082462728 68731.377164354548 1398.096585970372 32427.96670480445 1138.4084426052868 7195.9004481360316 3655.403593569994 3474.6189806386828 2018.9430419281125 25482.692365154624 70607.655509505421 42321.302663398907 5094.7020757738501 7120.8009092062712 11284.870020002127 47593.642457891256 32978.726340295747 25519.296729236841 5123.021245367825 540.89851980656385 476.9440358504653 9000.1170208677649 6795.1165009364486 2878.340737503022 2695.6364343613386 1993.1420546732843 2148.9072640091181 3733.2481209412217 22525.619898498058
leaf_count=413127 338051 19254 461678 7071 145443 5466 37971 17594 16514 9263 139420 357839 224502 32170 36110 54388 273904 182743 132586 25752 2851 2515 46664 34074 16081 14974 11244 10978 17282 135502
internal_value=-3.31842e-05 0.00650526 -0.0179912 0.00281398 0.016321 -0.0020315 0.0201021 0.0080138 0.0063943 0.0118949 0.00491922 0.0101701 0.00120273 -0.0120373 0.00533385 0.0220407 -0.00329012 -0.000117455 0.0111263 0.0247704 0.0406458 0.0497436 0.0190662 0.0239873 0.00526929 0.00723879 0.0277602 -0.00284796 0.034189 -0.00415583
internal_weight=561695 411771 149924 299240 112531 154897 8334.31 144342 129402 80103.1 119786 74350.9 74924.8 96351.7 49442.1 14940.3 146563 88139.5 44861.5 9615.48 4492.46 3951.56 19342.2 15795.2 40545.8 37667.5 4688.78 3547 5752.19 27620.3
internal_count=3223011 2180534 1042477 1631453 549081 880434 43437 751019 679037 403638 631405 377093 400032 629350 260612 71982 836997 498946 231373 47632 21880 19029 98787 80738 225042 208961 26218 18049 26545 167672
is_linear=0
shrinkage=0.03


Tree=18
num_leaves=31
num_cat=0
split_feature=0 0 0 92 109 22 149 116 4 146 0 114 151 5 151 63 11 99 97 92 63 116 0 80 112 112 26 134 18 0
split_gain=81700 16376.6 9841.77 8962.03 5717.43 5213.49 2967.93 2400.05 2254.63 2718.7 2221.41 2164.49 2368.41 2103.23 2090.3 2048.62 2044 2420.99 1994.82 1953.42 1909.39 1705.61 1697.66 1644.77 1643.72 1558.11 1616.41 1542.54 1515.15 1503.47
threshold=5.1957268714904794 5.9801499843597421 4.1666352748870858 3.0596140623092656 0.14373656362295154 0.068437442183494582 4.8348948955535898 -0.99565184116363514 -0.01686607580631971 -0.42961375415325159 6.4369511604309091 0.19287641346454623 0.69723862409591686 0.82279467582702648 6.7131502628326425 -2.7973184585571285 0.024508976377546791 2.9152486324310307 2.8670985698699956 3.8258483409881596 2.53630542755127 0.3728220015764237 5.6920459270477304 0.18444561213254931 15.593772888183596 -0.40672233700752253 0.20166256278753283 2.8727998733520512 9.4605498313903826 4.8481087684631357
decision_type=2 2 2 2 2 2 2 2 2 2 2 2 2 2 2 2 2 2 2 2 2 2 2 2 2 2 2 2 2 2
left_child=2 4 -1 5 15 6 7 28 -7 16 -9 12 -5 -12 -13 -2 17 -10 -8 29 -6 22 -17 24 -11 -20 -27 -19 -3 -4
right_child=1 3 19 11 20 8 18 10 9 23 13 14 -14 -15 -16 21 -18 27 25 -21 -22 -23 -24 -25 -26 26 -28 -29 -30 -31
leaf_value=-0.029854435362039536 0.026421669354092174 0.045364457267596414 -0.017457214328542334 0.045549241616613854 0.0080229376688780718 0.039270599445047356 0.04267334137124959 0.0035620861599620361 0.00018475710269978991 0.017788689403182976 0.012281598897658669 0.020051230997051563 -0.03044074208279 -0.027916639586461865 0.053649673715334224 -0.0067706097820097082 -0.013407824898514907 -0.028871293947829363 0.081436900817005484 0.025847487978540494 0.027491790798115784 0.0131343208405691 -1.3984781036629503e-05 0.02924801309870742 -0.016369869498243917 -0.041233425000082542 0.014851758514185721 0.033803242615572361 -0.021743818899631444 -0.0099937018227644614
leaf_weight=50449.430722059682 2145.7229910232127 328.51113336905837 52784.387134913355 6923.9750962331891 26598.595729239285 4066.7500087469816 3173.2895738855004 86038.31348092854 6557.7150986641645 20558.869090277702 51756.271294761449 20888.059743523598 389.92490246891975 1198.5566605702043 1811.0197236165404 75671.119078701362 3868.7593262344599 385.7036654278636 288.00581574440002 1118.6270507927984 5465.2946195937693 5584.9074361678213 60009.732236161828 12709.538778934628 1351.1913656778634 506.82269322872162 5286.8426747769117 4223.0102922134101 3867.8822260946035 45000.438121225685
leaf_count=400260 10757 1793 365224 30064 137560 18503 14829 454947 32384 98203 262108 93456 1695 6345 7782 449887 19062 1988 1255 6522 25476 31188 333070 59151 6416 2434 25080 20148 20712 285886
internal_value=-6.49753e-05 0.00683088 -0.0190717 0.0119886 -0.000111022 0.00975884 0.00692682 0.00586262 0.0177952 0.0160363 0.00653749 0.027305 0.041498 0.0113718 0.0227318 -0.00267155 0.00538441 0.0118952 0.0233918 -0.0135716 0.0113414 -0.00311346 -0.00378225 0.0206624 0.0156821 0.0133311 0.0099455 0.028558 -0.0164903 -0.0140225
internal_weight=561007 411654 149353 236179 175475 206166 152444 143190 53721.5 49654.8 138993 30013 7313.9 52954.8 22699.1 143411 15035.2 11166.4 9254.96 98903.5 32063.9 141266 135681 34619.6 21910.1 6081.67 5793.67 4608.71 4196.39 97784.8
internal_count=3224185 2166293 1057892 1178355 987938 1045358 789503 745905 255855 237352 723400 132997 31759 268453 101238 824902 73582 54520 43598 657632 163036 814145 782957 163770 104619 28769 27514 22136 22505 651110
is_linear=0
shrinkage=0.03


Tree=19
num_leaves=31
num_cat=0
split_feature=0 0 0 127 22 63 149 116 137 4 150 130 111 97 97 112 151 150 114 134 133 92 63 112 92 149 102 136 83 151
split_gain=77632.8 15404.6 9721.35 9099.07 4371.48 4258.39 3231.31 2552.48 2839.73 2478.63 2381.36 2177.21 2294.39 2151.59 2031.61 2107.58 2929.97 1978.95 1819.59 3030.68 2127.69 1867.01 1805.5 1781.43 1774.45 1666.94 1980.64 1608.24 1808.68 2398.81
threshold=5.1957268714904794 5.9175479412078866 4.1666352748870858 2.2606152296066289 0.086649645119905486 1.5493718385696413 4.8348948955535898 -0.12325903400778769 0.067187156528234496 -0.0112545033916831 0.85528892278671276 2.141409277915955 0.35017347335815435 1.8947515487670901 2.3571985960006718 -0.40672233700752253 0.34426960349082952 3.0312683582305913 0.24008287489414218 7.6071503162384042 3.7178397178649907 3.8258483409881596 -2.7973184585571285 6.014585256576539 3.8258483409881596 4.0122296810150155 0.23040472716093066 3.704070091247559 0.044740390032529838 2.9222011566162114
decision_type=2 2 2 2 2 2 2 2 2 2 2 2 2 2 2 2 2 2 2 2 2 2 2 2 2 2 2 2 2 2
left_child=2 5 -1 4 6 22 7 8 10 -6 -3 12 -9 -11 -8 -16 -17 27 21 20 23 -5 -2 -20 -4 -12 -27 28 29 -10
right_child=1 3 24 18 9 -7 14 11 17 13 25 -13 -14 -15 15 16 -18 -19 19 -21 -22 -23 -24 -25 -26 26 -28 -29 -30 -31
leaf_value=-0.029597767622921468 0.02613040178873963 0.047062502320523419 -0.013711375602363608 0.023730315128839437 0.0406716086185262 0.013423992768146917 0.065364093469552964 0.0093350672889977431 0.0050504124255224252 -0.021954672554789882 -0.0081488808807323298 0.021718768828616741 -0.0029299101231831321 0.016098751599524379 0.076031906536252455 -0.02521762203708695 0.022667633175750667 0.019465101736425443 0.0043602592327232929 0.0413588487757654 0.037685875348414645 0.043935568490642896 -0.0028722511888999908 0.037850065261595657 0.024021018136558867 0.085945259811378419 0.0068513361714924994 0.034939346416409951 -0.0099578734316268895 0.065299942328675656
leaf_weight=49334.186063423753 1959.1175857894123 769.68488663434982 97091.419882887974 9987.6813716739416 3637.2513114437461 17011.255228064954 925.13805587589741 72084.756348837167 7499.9617532230914 1380.8577244393528 30773.237212430686 10066.662112254649 16955.94828659296 42349.248142909259 543.68884028494358 1364.3472283482552 7320.4284024909139 8968.5513239391148 12222.73610290885 4263.5757049657404 2635.6990625150502 7000.8712788335979 138619.11162882298 1618.8377718105912 1134.8154786098748 334.00323344767094 1940.0296199694276 1255.5560876838863 8493.4163723811507 645.96959201619029
leaf_count=399648 9787 3937 652044 45948 16207 86453 4168 374220 39723 7287 164132 51012 88024 200170 2307 6606 34346 45982 57435 17977 11611 29125 796340 7373 6524 1594 9900 6442 44958 3388
internal_value=-5.70674e-05 0.00662149 -0.0187325 0.011178 0.00881685 -0.000752572 0.00657045 0.00552765 0.000681917 0.0168763 -0.00510236 0.00849455 0.00699946 0.0148971 0.022981 0.0187321 0.015145 0.00796344 0.0247772 0.0188147 0.0129813 0.0320568 -0.00246807 0.00827705 -0.0132755 -0.0063173 0.0184684 0.00219904 -0.000271446 0.00982818
internal_weight=560188 412628 147560 255038 217309 157589 169941 159788 60680.4 47367.4 33817 99107.4 89040.7 43730.1 10153.6 9228.46 8684.78 26863.5 37729.4 20740.8 16477.3 16988.6 140578 13841.6 98226.2 33047.3 2274.03 17894.9 16639.3 8145.93
internal_count=3224668 2166452 1058216 1273872 1104403 892580 880739 833312 320056 223664 179563 513256 462244 207457 47427 43259 40952 140493 169469 94396 76419 75073 806127 64808 658568 175626 11494 94511 88069 43111
is_linear=0
shrinkage=0.03


Tree=20
num_leaves=31
num_cat=0
split_feature=0 0 0 92 109 109 149 151 116 137 135 113 135 111 25 22 27 113 113 2 29 151 132 8 80 122 101 144 82 135
split_gain=73320.3 15859.3 8397 8049.54 5277.04 5212.44 2911.21 2577.31 2622.2 2752.53 2526.06 2134.71 2184.12 2622.93 2161.08 2772.67 2129.74 2097.55 2516.76 2219.77 2424.29 2064.78 2075.54 2049.03 2208.65 1890.01 1862.87 1835.52 1831.54 1954.57
threshold=5.1269311904907235 5.9414854049682626 4.1190040111541757 3.2658845186233525 0.14373656362295154 0.074535433202981963 3.751673817634583 22.180957794189457 -0.12770936638116834 0.068418256938457503 5.1351914405822763 0.98350736498832714 2.145877599716187 -0.029519661329686638 6.8556005954742441 -0.22557900100946424 2.7807508707046513 0.80554690957069408 0.97240832448005687 -0.64547699689865101 2.051247358322144 0.45147497951984411 2.6806379556655888 -0.090687077492475496 0.63577407598495495 1.803972661495209 8.5418825149536151 7.8715186119079599 0.69391232728958141 3.5601257085800175
decision_type=2 2 2 2 2 2 2 2 2 2 2 2 2 2 2 2 2 2 2 2 2 2 2 2 2 2 2 2 2 2
left_child=2 4 -1 5 27 6 7 8 9 25 -8 12 -10 17 -15 -16 -11 19 -19 -14 -21 -22 -23 26 -25 -3 -7 -2 29 -28
right_child=1 3 -4 -5 -6 23 10 -9 11 16 -12 -13 13 14 15 -17 -18 18 -20 20 21 22 -24 24 -26 -27 28 -29 -30 -31
leaf_value=-0.029662902785029924 -0.003565351230271067 -0.0079528149447503499 -0.013901670726353645 0.026424187850790554 0.010097049497732295 0.02638643958876136 0.01408453254970554 0.055019441209829045 -0.0052855708125197128 -0.01792232084652778 0.062633406268042618 0.0045134343367558829 -0.014182330584903693 0.0064732430443355787 0.07099046412984869 0.027562990905055391 0.010364563936643279 -0.0074045868100688448 0.060158978967764565 0.0041084203317002781 0.070527847116644324 -0.016773761027864358 0.060814359796042119 0.021152141016853289 0.070205139556878279 0.035780510874626026 -0.0070581663464510044 0.047567030238618212 0.019543348685731605 0.023545564689356195
leaf_weight=46087.561776589602 141489.18759563565 29421.592009585351 89499.482976805419 26965.322463668883 32295.850111059844 5195.5875005275011 23523.547977738082 917.64154962822795 4340.9920753538609 2710.5999108925462 1005.798433855176 61402.845660220832 1228.1460007689893 3097.127536714077 1625.2777128480375 7118.0787048190832 20608.153203904629 6652.1001790724695 536.2005723901093 1829.4295870698988 1628.6581663861871 668.52016938105226 579.09136097878218 28652.25075141713 850.63718037307262 917.08861854299903 9370.3477830253541 634.67701770365238 5924.0291298292577 2349.0620449483395
leaf_count=381805 824402 156858 612293 117431 165274 24821 114577 4328 23017 14504 4261 317222 6255 16328 8318 36332 107229 34108 2726 9611 8207 3451 2919 132494 3657 4561 45445 3261 27773 10959
internal_value=-5.8439e-05 0.00608826 -0.0192591 0.0109457 -0.000849538 0.00906695 0.00651567 0.00490163 0.00458306 -0.000673836 0.0160752 0.00769278 0.0143548 0.0177702 0.0280076 0.0356356 0.00707646 0.00853279 -0.00236478 0.0217342 0.0311081 0.048281 0.0192395 0.017344 0.0225665 -0.00663083 0.0105977 -0.00333701 0.00594827 -0.000923893
internal_weight=559125 423538 135587 249118 174420 222153 169811 145282 144364 53657.4 24529.3 90706.5 29303.6 24962.6 11840.5 8743.36 23318.8 13122.1 7188.3 5933.85 4705.7 2876.27 1247.61 52341.9 29502.9 30338.7 22839 142124 17643.4 11719.4
internal_count=3224427 2230329 994098 1237392 992937 1119961 874812 755974 751646 283152 118838 468494 151272 128255 60978 44650 121733 67277 36834 30443 24188 14577 6370 245149 136151 161419 108998 827663 84177 56404
is_linear=0
shrinkage=0.03


Tree=21
num_leaves=31
num_cat=0
split_feature=0 0 0 127 92 105 149 99 8 80 99 149 96 115 105 88 104 25 132 144 122 123 112 25 136 137 125 97 88 11
split_gain=70347.4 14159.6 9104.96 6898.3 5615.7 4241.53 3162.28 2819.17 4022.93 2477.62 2388.1 2186.29 1923.17 1717.39 1667.65 1662.96 1661.79 1651.3 1607.71 1607.31 1568.27 1558.66 1534.53 1862.75 1587.43 1530.4 1527.88 1519.33 1491.66 1476.77
threshold=5.1789667606353769 6.2547895908355722 4.1666352748870858 2.6896598339080815 3.1240997314453129 16.058251380920414 6.3587453365325937 1.8672468662261965 -0.18298208713531491 0.10061507299542428 1.8672468662261965 2.0990365743637089 4.319035768508912 0.16052173823118213 16.403944015502933 4.1618382930755624 0.13132820278406146 10.142089366912844 4.9265239238739023 -0.31270755827426905 -0.45509938895702357 -1.061963617801666 -0.30866646766662592 19.200815200805668 3.9454276561737065 0.035906327888369567 -2.7621353864669795 5.5107829570770273 0.39316970109939581 0.062201721593737609
decision_type=2 2 2 2 2 2 2 2 2 2 2 2 2 2 2 2 2 2 2 2 2 2 2 2 2 2 2 2 2 2
left_child=2 3 -1 5 6 11 9 8 -7 10 16 -2 20 18 -4 -12 -3 -10 29 25 -9 -18 -13 24 -24 -11 -20 -8 -19 -5
right_child=1 4 14 13 -6 7 27 12 17 19 15 22 -14 -15 -16 -17 21 28 26 -21 -22 -23 23 -25 -26 -27 -28 -29 -30 -31
leaf_value=-0.029045711164965793 -0.0070057911996174475 0.053751439153421017 -0.015321245629425597 0.018874335115810582 0.028327938818611755 0.00065333845205865716 0.040186589547927705 -0.0063282633958726469 0.012715829364340365 0.027419593824965116 0.0062883053618472641 0.019147153150675743 0.01550029025911147 -0.0064731577394927971 -0.0062839542729048832 0.062196729274280278 0.038036080070693173 0.037852065137619212 -0.0038042679152394633 0.025053246345101601 0.0030688111700473398 0.011537909675540726 -0.0033814037528782353 0.013782562954649658 0.034907424170825187 0.00047502662178348324 0.038420875309568239 -0.020003572320857945 0.0088030095978891346 -0.010731436376568515
leaf_weight=47338.06842315942 67429.922646885738 1196.4841576255858 68955.364236829802 10863.627682954073 19789.057944130152 15124.757171820849 4415.9977533109486 23107.391011852771 9097.6144187636673 2761.3187279552221 90976.471329428256 3888.1133320983499 8169.4445693418384 2278.1099222302437 25053.829190332443 481.35180696472526 2488.0840274505317 6697.4523594938219 887.91077329590917 14952.6392384395 51847.154538352042 10139.619750581682 45679.397694755346 7247.7352957241237 995.76589916273952 6062.1915233880281 5869.5795223526657 412.70932423695922 2086.5636041350663 1762.3530063852668
leaf_count=399650 396754 5816 482705 51326 84894 83200 19118 124062 49020 12934 455394 21665 40792 10904 159175 2111 11894 33490 3827 68974 271518 50167 261919 40613 5661 28911 25736 1850 10808 8868
internal_value=-2.72562e-05 0.0061762 -0.0183158 0.00194924 0.0134111 0.000493811 0.0112063 0.00462372 0.0120415 0.0103145 0.00833918 -0.00333567 0.00167831 0.0181668 -0.0129128 0.00658256 0.0199606 0.0216739 0.0210627 0.0190614 0.00017183 0.0167589 0.000945111 -0.000367349 -0.00256455 0.00890733 0.0328726 0.0350421 0.0309517 0.0147419
internal_weight=558056 416709 141347 263033 153676 241371 133887 116130 33006.4 129058 105282 125241 83124 21661.6 94009.2 91457.8 13824.2 17881.6 19383.5 23776.1 74954.5 12627.7 57811 53922.9 46675.2 8823.51 6757.49 4828.71 8784.02 12626
internal_count=3223756 2182226 1041530 1440163 742063 1339502 657169 612890 176518 636201 525382 726612 436372 100661 641880 457505 67877 93318 89757 110819 395580 62061 329858 308193 267580 41845 29563 20968 44298 60194
is_linear=0
shrinkage=0.03


Tree=22
num_leaves=31
num_cat=0
split_feature=0 0 127 0 109 150 98 114 101 109 135 113 115 7 135 7 115 150 149 136 125 101 116 96 150 149 143 132 105 108
split_gain=66611 14538 7991.05 7872.28 4252.32 4066.99 3775.16 3516.7 3115.36 2275.35 2161.42 2082.52 2058.68 2166.51 2172.53 2200.64 2041.9 2475.17 2154.65 2203.53 2101.28 1988.3 1970.28 1931.41 2386.41 2317.5 1920.61 1871.27 1808.28 2146.58
threshold=5.1089665889739999 5.8678824901580819 2.2291420698165898 4.0859410762786874 0.14798913151025775 7.5912766456604013 3.0650650262832646 0.38869781792163854 25.070606231689457 0.2049149498343468 2.8477653264999394 1.2532602548599245 0.13437657803297046 -12.554623603820799 2.1711593866348271 -0.76660215854644764 0.12892530858516696 3.1187472343444829 0.98336178064346325 3.285905241966248 -2.0084283351898189 8.0501427650451678 -0.68818891048431385 1.936129152774811 2.9813287258148198 2.9607245922088627 -2.9693371057510372 1.7716900110244753 116.64469528198244 2.0587182044982915
decision_type=2 2 2 2 2 2 2 2 2 2 2 2 2 2 2 2 2 2 2 2 2 2 2 2 2 2 2 2 2 2
left_child=3 4 5 -1 -2 6 12 21 9 16 11 -9 -3 -14 22 -16 20 18 -18 -20 -8 -7 -15 25 27 -17 -22 -25 -26 -30
right_child=1 2 -4 -5 -6 7 8 10 -10 -11 -12 -13 13 14 15 23 17 -19 19 -21 26 -23 -24 24 28 -27 -28 -29 29 -31
leaf_value=-0.029442386759024549 -0.0039749695930054113 0.0001272453181154587 0.021977338653353336 -0.013709223983725607 0.0088019273955477588 0.049285099444610687 0.025190261487329384 -0.0081740209282374996 0.037666314240148623 0.029525681959909986 0.055188950802690095 0.074915136316501735 0.10237218979129402 0.064019733504405665 -0.0159097285499454 0.060359158707755517 0.064618558948116314 0.032324423378076596 -0.00010435498375530471 0.029287356621220038 0.040532899655883275 0.0066538929754619948 -0.0070300146656315614 0.022667475402112162 0.017453248473880356 -0.012244829245366982 0.0037305804620597544 0.00096433928794562561 0.071111693366865569 -0.030892205733586187
leaf_weight=42675.673078635707 127568.88932000659 74816.309855561703 41488.401161186397 86920.957374468446 28721.313300020993 1124.1201783418655 4838.9289060607553 1108.9110327735543 3874.3631401583552 5135.6724960654974 3697.8118062615395 359.49543062970042 217.70957966148853 363.80599227920175 2615.7708569504321 1486.8893410786986 614.39749845862389 6593.4230681061745 9407.5773922167718 3036.709599789232 1306.6414512172341 7934.3943935148418 10196.390681095421 4429.6161818876863 11423.634244970977 539.15172335878015 54848.152506873012 18542.432498227805 1122.1452621147037 222.49111389368773
leaf_count=369098 751994 390010 184797 608184 147295 5321 23721 5254 18242 23353 16047 1561 1088 1838 13509 7403 3072 31678 47633 14940 6145 36305 53239 23279 56634 2696 279351 94549 5056 1021
internal_value=-4.85624e-05 0.00566144 0.00985943 -0.0188901 -0.00162697 0.00767219 0.00664726 0.0232091 0.0113526 0.0101641 0.042961 0.0121679 0.00329856 0.00793627 0.00753269 0.0107008 0.00893111 0.0173409 0.00977564 0.00706794 0.00622148 0.0119442 -0.0045823 0.0125439 0.0109286 0.0410384 0.00458692 0.00514928 0.0213266 0.0542336
internal_weight=557232 427636 271345 129597 156290 229857 215632 14224.7 89655.9 85781.5 5166.22 1468.41 125976 51160 50942.3 40382.1 80645.8 19652.1 13058.7 12444.3 60993.7 9058.51 10560.2 37766.4 35740.3 2026.04 56154.8 22972 12768.3 1344.64
internal_count=3224313 2247031 1347742 977282 899289 1162945 1098457 64488 448135 429893 22862 6815 650322 260312 259224 204147 406540 97323 65645 62573 309217 41626 55077 190638 180539 10099 285496 117828 62711 6077
is_linear=0
shrinkage=0.03


Tree=23
num_leaves=31
num_cat=0
split_feature=0 0 127 0 109 109 116 135 150 150 151 29 135 14 151 98 151 96 150 4 5 136 82 11 134 28 132 101 113 99
split_gain=63322.2 13598 7624.63 7478.35 4065.2 3802.88 2801.12 2270.55 2345.47 2143.88 2147.89 2162.39 2494.15 2348.72 2586.14 2698.81 2307.61 2283.98 2129.12 2031.65 1695.05 2788.18 1673.94 1670.62 1659.03 1695.39 1619.14 1590.34 2013.64 2439.87
threshold=5.0906732082366952 5.8593597412109384 2.2606152296066289 3.9981586933135991 0.15244807302951816 0.074535433202981963 -0.12770936638116834 2.7897366285324101 3.9924418926239018 0.8785005807876588 6.3675014972686776 2.773560762405396 3.9928532838821416 0.0092037036083638685 3.9522111415863042 5.2143888473510751 0.58570048213005077 3.2152302265167241 4.0696146488189706 0.022746587172150615 0.087131991982460036 4.3563904762268075 -1.0850754976272581 0.0065577661152929076 7.6071503162384042 1.1234334111213686 1.9289557933807375 12.67815685272217 1.0740414261817934 1.8920224308967593
decision_type=2 2 2 2 2 2 2 2 2 2 2 2 2 2 2 2 2 2 2 2 2 2 2 2 2 2 2 2 2 2
left_child=3 4 5 -1 -2 6 9 -8 23 -3 11 12 22 20 15 26 17 -14 -10 -7 -13 -22 -11 -9 25 -4 -15 28 29 -20
right_child=1 2 24 -5 -6 19 7 8 18 10 -12 13 16 14 -16 -17 -18 -19 27 -21 21 -23 -24 -25 -26 -27 -28 -29 -30 -31
leaf_value=-0.029881330253641009 -0.0039365579430101025 0.038848639849693258 0.020990323273472795 -0.013972092194396405 0.0086448073028754738 0.035014289032563803 0.0039402504757885424 0.010925674217266089 0.068253588816083524 0.062611224499928744 -0.020440346949408852 0.018126334974020882 0.072799861765033266 0.016402694744104052 0.059424991075934644 0.059219824068227761 -0.031418777692161011 0.0095096786125060239 0.076669415043128686 0.012778327864919673 -0.0043097738722395022 0.084678654737964792 -0.0097190055083335187 -0.0097354697621884635 0.037936823042803429 -0.0043696343864719454 -0.011455749196228038 0.037273408034131927 -0.0016634407774349927 0.01745378165528479
leaf_weight=38258.715843645856 128099.16632242501 1288.7207649722695 33322.804175883532 87202.243245128542 28202.363849356771 4007.6316204853356 56423.815241783857 39442.659226547927 893.59514243900776 291.71217587217689 4415.7357242666185 14496.660836610943 892.70659225061536 2192.8853198550642 580.20595788955688 566.7439440600574 574.87727862223983 1207.0315526388586 749.49960359185934 47883.143594685942 6516.9647027738392 333.07649021595716 22434.399728007615 3867.5372681953013 4816.1705815196037 2554.4135031290352 13061.467311952263 3531.3157352805138 4166.1489088386297 3807.7247912995517
leaf_count=338662 758626 6566 148450 622558 144458 17486 293684 201409 4343 1450 23652 74042 4404 11391 3090 2641 2982 5915 3423 224328 33369 1570 120256 19790 19975 11423 68219 16552 20519 18361
internal_value=-6.82731e-05 0.00539605 0.0094201 -0.0188235 -0.00166643 0.00733271 0.00528749 0.0081963 0.0124497 0.000518588 -0.000212517 0.00120193 -0.00556559 0.00575582 -0.00278139 -0.00506268 0.021837 0.0364176 0.0235474 0.0144957 0.0123152 1.72006e-05 -0.00879058 0.00908066 0.0214041 0.0191847 -0.00745097 0.0202875 0.0134114 0.0271926
internal_weight=556082 430621 274320 125461 156302 233626 181735 112882 56458.5 68853.2 67564.5 63148.7 25400.7 37748 16401.3 15821.1 2674.62 2099.74 13148.3 51890.8 21346.7 6850.04 22726.1 43310.2 40693.4 35877.2 15254.4 12254.7 8723.37 4557.22
internal_count=3223594 2262374 1359290 961220 903084 1179442 937628 578081 284397 359547 352981 329329 135007 194322 85341 82251 13301 10319 63198 241814 108981 34939 121706 221199 179848 159873 79610 58855 42303 21784
is_linear=0
shrinkage=0.03


Tree=24
num_leaves=31
num_cat=0
split_feature=0 0 127 0 22 109 0 113 96 138 97 112 116 113 114 150 150 116 146 135 116 97 82 113 97 136 97 5 115 117
split_gain=60362.5 13703.9 7182.42 6892.4 4076.42 3896.55 2654.09 2642.38 2130.68 2370.68 2072.39 2083.99 2143.37 2064.42 1994.29 2329.13 1901.73 1791.79 1758.58 1670.05 1660.37 1850.66 1850.14 1573.12 2171.72 1564.74 1526.92 1520.21 1479.56 1444.16
threshold=5.0530509948730478 5.8507635593414316 2.633878350257874 3.9981586933135991 0.060836914926767356 0.11814555898308755 6.4175486564636239 2.2079465389251713 4.2580785751342782 0.51922002434730541 2.2968229055404668 -0.18867269903421399 0.12650903314352038 2.0073140859603886 0.34502156078815466 3.9924418926239018 7.5912766456604013 -0.031923251226544373 -0.3315421044826507 3.8148926496505742 -0.1256790682673454 2.3317584991455083 -0.17201216518878934 1.5317820906639101 2.5221472978591923 2.3509370088577275 1.9996951222419741 0.115791954100132 0.080961603671312346 -2.6924253702163692
decision_type=2 2 2 2 2 2 2 2 2 2 2 2 2 2 2 2 2 2 2 2 2 2 2 2 2 2 2 2 2 2
left_child=3 5 4 -1 6 29 16 8 10 -10 -6 12 -12 23 -9 17 20 -16 -4 -8 21 27 -23 -13 -25 -26 -7 -3 -28 -2
right_child=1 2 18 -5 7 26 19 14 9 -11 11 13 -14 -15 15 -17 -18 -19 -20 -21 -22 22 -24 24 25 -27 28 -29 -30 -31
leaf_value=-0.029652009149186264 0.041745614240083481 0.016164548303585657 0.012260673764128463 -0.014104856505135674 -0.0070135981087091435 -0.010338136628063637 0.0077741538341482442 0.049883976160541021 0.016620657889265585 0.050824253063083288 -0.027550345929538853 0.01180712551350894 0.048616757599765761 -0.028385323436616289 0.054378912419372712 0.049584949484567917 0.022733678746897037 -0.013149706174727447 0.028213930837485069 0.020574215238402669 0.0044689450185026128 0.0067775435364654472 -0.010171515456226292 -0.016558478684330087 0.0084276810661586734 0.048237075103377783 -0.013928104847081934 -0.014506398143833152 0.011044142526644023 -0.0046570561192743835
leaf_weight=37452.74277315475 606.6077578663826 6597.6892442256212 9027.2037935517728 81526.547983139753 6252.8159409500659 4082.4875387754291 53617.248146802187 2983.7800257056952 8940.1866940297186 2291.1757049672306 2075.7544088922441 35911.77799525857 395.9341006912291 1058.0451608076692 432.80469203740358 1268.5945212617517 3984.469599287957 1933.2294262573123 19989.224767211825 11067.38881554082 69667.682526689023 7500.3495505228639 25513.650612372905 788.85303094610572 1220.3845343925059 3268.7210261709988 2307.3749022763222 1865.7138576619327 28633.399120222777 123001.55631263927
leaf_count=338899 2926 35567 39859 590089 31822 23373 266517 13246 40420 10215 10034 169678 1824 4918 1990 5529 18699 8751 84899 52392 365353 40107 136284 3890 5821 14796 12281 10147 147577 736434
internal_value=-5.77831e-05 0.00510765 0.0091265 -0.0189988 0.00747817 -0.00192656 0.00510171 0.0136872 0.0117698 0.0235981 0.00916351 0.0114254 -0.0153493 0.0129919 0.0317085 0.0167878 0.00236975 -0.000797094 0.0232508 0.00996421 0.00163972 -0.00311241 -0.00632091 0.0140547 0.0293478 0.0374147 0.00690651 0.0094033 0.00918186 -0.00442933
internal_weight=555263 436284 277653 118979 248636 158631 179814 68822.1 62203.6 11231.4 50972.3 44719.5 2471.69 42247.8 6618.41 3634.63 115130 2366.03 29016.4 64684.6 111145 41477.4 33014 41189.7 5277.96 4489.11 35023.3 8463.4 30940.8 123608
internal_count=3224337 2295349 1372758 928988 1248000 922591 925066 322934 293418 50635 242783 210961 11858 199103 29516 16270 606157 10741 124758 318909 587458 222105 176391 194185 24507 20617 183231 45714 159858 739360
is_linear=0
shrinkage=0.03


Tree=25
num_leaves=31
num_cat=0
split_feature=1 92 105 1 98 145 25 96 101 150 136 113 136 105 109 61 114 112 85 113 99 136 144 115 8 99 100 100 27 145
split_gain=48896 10572.1 9207.55 8685.29 3996.43 3448.34 3245.74 3014.18 2807.65 2412.22 2336.3 2171.13 2167.29 2167.17 2009.62 1916.4 2237.24 3149.24 3024.35 1917.9 1902.2 1801.8 1770.47 1756.7 2381.76 4031.24 2278.16 2613.74 2213.89 2196.83
threshold=0.057196270674467094 3.0009452104568486 16.276908874511722 0.020528949797153476 2.9636769294738774 -2.8415956497192378 5.0107944011688241 3.7102104425430302 25.070606231689457 7.2271745204925546 2.6007812023162846 0.432320386171341 3.9454276561737065 11.160177707672121 0.12155143544077875 0.13810728490352633 0.23797107487916949 6.3835914134979257 0.031228798441588882 2.3048628568649296 1.7143727540969851 2.0134630203247075 7.8715186119079599 0.11553926765918733 -0.18823038786649701 1.8774681091308596 2.6452599763870244 2.7243630886077885 11.832818031311037 -1.2654498219490049
decision_type=2 2 2 2 2 2 2 2 2 2 2 2 2 2 2 2 2 2 2 2 2 2 2 2 2 2 2 2 2 2
left_child=3 2 5 -1 9 -2 22 12 10 23 -6 -8 -7 -5 -12 16 18 19 -13 -18 -11 -22 -3 -4 26 29 -25 28 -28 -26
right_child=1 6 4 13 8 7 11 -9 -10 20 14 15 -14 -15 -16 -17 17 -19 -20 -21 21 -23 -24 24 25 -27 27 -29 -30 -31
